<?xml version="1.0"?>
<opencv_storage>
<opencv_ml_svm>
  <format>3</format>
  <svmType>C_SVC</svmType>
  <kernel>
    <type>LINEAR</type></kernel>
  <C>1.0000000000000000e-02</C>
  <term_criteria><iterations>10000000</iterations></term_criteria>
  <var_count>10</var_count>
  <class_count>2</class_count>
  <class_labels type_id="opencv-matrix">
    <rows>2</rows>
    <cols>1</cols>
    <dt>i</dt>
    <data>
      0 1</data></class_labels>
  <sv_total>1</sv_total>
  <support_vectors>
    <_>
      3.10391575e-01 8.02857518e-01 5.12525737e-01 4.65654552e-01
      1.16708577e+00 -7.26525009e-01 5.89701906e-02 -5.14882207e-02
      -5.11877518e-03 -1.14476560e-02</_></support_vectors>
  <uncompressed_sv_total>758</uncompressed_sv_total>
  <uncompressed_support_vectors>
    <_>
      8.54365975e-02 7.65550211e-02 1.04945874e+00 -1.13091111e-01
      -2.19118461e-01 2.49506998e+00 2.51880574e+00 5.02574539e+00
      2.41053605e+00 -7.56477594e+00</_>
    <_>
      3.57480168e-01 2.57142854e+00 1.29407740e+00 5.95228493e-01
      1.40950048e+00 6.60636377e+00 6.63843441e+00 1.32792463e+01
      7.38742256e+00 1.38057871e+01</_>
    <_>
      8.99206698e-02 1.11627907e-01 1.25996208e+00 -7.30534047e-02
      -1.37135953e-01 9.60160911e-01 9.83074844e-01 1.95469284e+00
      9.14652646e-01 -5.02438307e+00</_>
    <_>
      1.43955663e-01 1.08247422e-01 1.04791641e+00 9.05553326e-02
      1.99398100e-01 3.29281878e+00 3.34949875e+00 6.67066479e+00
      3.44990063e+00 8.91647625e+00</_>
    <_>
      5.04401088e-01 5.71428597e-01 1.18602824e+00 6.66162789e-01
      1.68630207e+00 4.55994987e+00 5.44310808e+00 1.05519800e+01
      6.47977972e+00 1.06490917e+01</_>
    <_>
      5.21969795e-01 5.51724136e-01 1.29629624e+00 7.02465534e-01
      1.85825014e+00 5.10652065e+00 6.06940889e+00 1.19197626e+01
      7.55851746e+00 1.17344198e+01</_>
    <_>
      5.91521114e-02 9.63455141e-02 1.27513433e+00 -3.61866206e-01
      -7.21455753e-01 1.90845108e+00 2.54255176e+00 4.97391462e+00
      2.93336701e+00 -4.87450171e+00</_>
    <_>
      1.23108491e-01 1.05381168e-01 1.05415392e+00 4.69678529e-02
      1.08785704e-01 3.67299104e+00 3.73499346e+00 7.43904400e+00
      3.79669356e+00 9.22445393e+00</_>
    <_>
      9.03171524e-02 1.21212125e-01 1.13838553e+00 -5.76587990e-02
      -1.06206305e-01 1.67162538e+00 1.69570720e+00 3.37937355e+00
      1.64264965e+00 -6.79124403e+00</_>
    <_>
      1.20171361e-01 9.74358991e-02 1.05722070e+00 2.83622257e-02
      7.05273971e-02 2.87468719e+00 2.92073631e+00 5.81845188e+00
      2.95667791e+00 8.20598507e+00</_>
    <_>
      5.18637061e-01 7.15447128e-01 1.29228544e+00 7.19493091e-01
      1.97572851e+00 5.47215414e+00 6.72274256e+00 1.29956932e+01
      7.93625784e+00 -1.29483004e+01</_>
    <_>
      1.13924913e-01 1.43712580e-01 1.02552819e+00 9.95980203e-02
      2.18308046e-01 3.29353976e+00 3.35947752e+00 6.68598843e+00
      3.46887612e+00 -9.14819241e+00</_>
    <_>
      1.43785045e-01 1.39534891e-01 1.03713143e+00 1.17637701e-01
      2.56096661e-01 3.65420651e+00 3.72476363e+00 7.41428995e+00
      3.85641003e+00 9.27602100e+00</_>
    <_>
      1.01781547e-01 8.10810775e-02 1.07445252e+00 -5.88759929e-02
      -1.08577982e-01 2.25641179e+00 2.28427529e+00 4.55461884e+00
      2.22998738e+00 8.24733448e+00</_>
    <_>
      1.36903524e-01 9.65250954e-02 1.03813207e+00 4.11246903e-02
      9.67919156e-02 3.27536583e+00 3.32710242e+00 6.62835407e+00
      3.37824440e+00 8.67522430e+00</_>
    <_>
      1.06307715e-01 1.08465612e-01 1.03972042e+00 5.18757664e-02
      1.18862763e-01 3.82861781e+00 3.85476351e+00 7.69645548e+00
      3.91568923e+00 -1.03277502e+01</_>
    <_>
      2.78576553e-01 2.27272734e-01 1.07852757e+00 3.98444533e-01
      8.76827061e-01 3.42643476e+00 4.13093328e+00 8.17703533e+00
      5.40677166e+00 7.98455524e+00</_>
    <_>
      8.15844014e-02 1.11111112e-01 1.08329678e+00 -6.50162846e-02
      -1.21302612e-01 2.69313240e+00 2.72645855e+00 5.43626022e+00
      2.66851473e+00 -7.70590544e+00</_>
    <_>
      7.77364001e-02 1.00694448e-01 1.01647604e+00 3.56983691e-02
      8.56027529e-02 3.36421514e+00 3.41290712e+00 6.80146885e+00
      3.45579791e+00 9.55234528e+00</_>
    <_>
      1.21319041e-01 1.62729666e-01 1.28813970e+00 2.17459425e-01
      4.70598429e-01 1.99340963e+00 2.14637423e+00 4.21688652e+00
      2.39851499e+00 5.48864031e+00</_>
    <_>
      1.15385070e-01 1.91489369e-01 1.31724143e+00 -1.08509511e-02
      -1.01742009e-02 1.98704600e+00 2.19169688e+00 4.28414965e+00
      2.24933958e+00 -5.20659733e+00</_>
    <_>
      5.69475368e-02 7.52688199e-02 1.06213868e+00 -1.30347595e-01
      -2.54167646e-01 2.54656601e+00 2.56652808e+00 5.12307501e+00
      2.43945646e+00 8.98314571e+00</_>
    <_>
      9.61368531e-02 1.22580647e-01 1.05177927e+00 9.17271301e-02
      2.01643035e-01 2.94599295e+00 3.00481844e+00 5.98022842e+00
      3.10614562e+00 -8.33821106e+00</_>
    <_>
      1.16323084e-01 8.64197537e-02 1.03110349e+00 -8.43817927e-03
      -5.28980745e-03 3.21640968e+00 3.25459743e+00 6.49010134e+00
      3.25201821e+00 -9.53167534e+00</_>
    <_>
      1.44492537e-01 1.48936167e-01 1.32692313e+00 2.00753137e-01
      4.31309700e-01 2.40901899e+00 2.46842027e+00 4.90714264e+00
      2.68407726e+00 -7.35766649e+00</_>
    <_>
      3.63382041e-01 3.68421048e-01 1.14532018e+00 5.91198444e-01
      1.40175653e+00 4.10373402e+00 4.73197174e+00 9.19915199e+00
      5.57082796e+00 9.49585629e+00</_>
    <_>
      8.78062248e-02 1.35135129e-01 1.04032147e+00 -1.54388566e-02
      -1.98914427e-02 3.06110096e+00 3.09249759e+00 6.16929770e+00
      3.08287644e+00 8.87620926e+00</_>
    <_>
      2.26510003e-01 2.31958762e-01 1.30737674e+00 3.19299936e-01
      6.92441463e-01 2.58889437e+00 2.77598333e+00 5.45950270e+00
      3.14846921e+00 6.61056662e+00</_>
    <_>
      2.20009238e-01 2.85714298e-01 1.14327478e+00 4.27736014e-01
      9.48763251e-01 3.58790708e+00 3.80278325e+00 7.49829102e+00
      4.27978134e+00 -9.06103992e+00</_>
    <_>
      1.19618058e-01 1.31578946e+00 1.23529410e+00 3.08598429e-02
      7.54994452e-02 2.89260602e+00 3.28784990e+00 6.40775871e+00
      3.51805234e+00 -6.82488775e+00</_>
    <_>
      5.64559221e-01 6.33986950e-01 1.17820048e+00 6.99090242e-01
      1.86291575e+00 4.81266403e+00 5.78733969e+00 1.13591776e+01
      6.94150925e+00 1.11604843e+01</_>
    <_>
      1.12061009e-01 1.32596686e-01 1.02471602e+00 8.89322311e-02
      1.96033910e-01 3.38477159e+00 3.44965434e+00 6.86688805e+00
      3.54966950e+00 8.87471867e+00</_>
    <_>
      3.18036139e-01 3.42857152e-01 1.39024389e+00 5.36570251e-01
      1.23729873e+00 3.47292948e+00 4.26122761e+00 8.35798740e+00
      5.48027134e+00 8.22093105e+00</_>
    <_>
      1.80396587e-01 1.15183249e-01 1.09655511e+00 9.23360437e-02
      2.03101158e-01 2.79879975e+00 2.87407398e+00 5.71060467e+00
      2.98534608e+00 -7.39269447e+00</_>
    <_>
      1.35335416e-01 1.65775403e-01 1.04831457e+00 9.88415182e-02
      2.16751769e-01 3.55151415e+00 3.60861421e+00 7.18868876e+00
      3.71835136e+00 9.35006714e+00</_>
    <_>
      7.01584965e-02 7.65306130e-02 1.07510209e+00 -9.05092582e-02
      -1.73224330e-01 2.08172941e+00 2.10814619e+00 4.20308542e+00
      2.02245927e+00 6.77385712e+00</_>
    <_>
      9.19542089e-02 1.08974360e-01 1.07726598e+00 3.27511132e-02
      7.90962875e-02 3.33027220e+00 3.37500215e+00 6.72764254e+00
      3.41523194e+00 9.13642216e+00</_>
    <_>
      1.91544965e-01 2.75862068e-01 1.09508193e+00 3.55103731e-01
      7.73453474e-01 3.65343833e+00 3.80674601e+00 7.53729391e+00
      4.20475435e+00 8.87608147e+00</_>
    <_>
      6.26539066e-02 1.02857143e-01 1.04984057e+00 -2.82173216e-01
      -5.61158657e-01 3.13050222e+00 3.13793325e+00 6.27215099e+00
      2.85757661e+00 9.65776348e+00</_>
    <_>
      2.87582278e-01 3.28313261e-01 1.15197706e+00 4.75674808e-01
      1.07026362e+00 3.56206417e+00 3.84890509e+00 7.55514479e+00
      4.38801146e+00 8.78418255e+00</_>
    <_>
      2.87582278e-01 3.28313261e-01 1.15197706e+00 4.75674808e-01
      1.07026362e+00 3.56206417e+00 3.84890509e+00 7.55514479e+00
      4.38801146e+00 8.78418255e+00</_>
    <_>
      1.36400193e-01 1.33126929e-01 1.04396617e+00 3.74809988e-02
      8.93174559e-02 2.99804258e+00 3.04120994e+00 6.06084347e+00
      3.08740377e+00 -8.30913544e+00</_>
    <_>
      2.55480111e-01 3.04347813e-01 1.21428573e+00 5.05177438e-01
      1.14962029e+00 3.43067193e+00 3.72829533e+00 7.30897665e+00
      4.31017590e+00 8.43752003e+00</_>
    <_>
      1.15982570e-01 1.12994350e-01 1.02334630e+00 7.60799199e-02
      1.69321030e-01 5.23465204e+00 6.05166388e+00 -1.34445820e+01
      -6.55066490e+00 1.16948910e+01</_>
    <_>
      3.92392725e-01 3.67346942e-01 1.23636365e+00 5.86199939e-01
      1.38373947e+00 4.68533564e+00 4.98437738e+00 9.82168007e+00
      5.69437933e+00 1.07946501e+01</_>
    <_>
      8.96483064e-02 9.46291536e-02 1.07191932e+00 3.62123288e-02
      8.64217952e-02 3.27237940e+00 3.30931306e+00 6.60016823e+00
      3.35601664e+00 -8.79692173e+00</_>
    <_>
      3.92392725e-01 3.67346942e-01 1.23636365e+00 5.86199939e-01
      1.38373947e+00 4.68533564e+00 4.98437738e+00 9.82168007e+00
      5.69437933e+00 1.07946501e+01</_>
    <_>
      1.10478319e-01 1.40000001e-01 1.17108572e+00 2.43773293e-02
      6.21282160e-02 1.79857123e+00 1.83768022e+00 3.65580654e+00
      1.86889195e+00 -6.42673206e+00</_>
    <_>
      7.01584965e-02 7.65306130e-02 1.07510209e+00 -9.05092582e-02
      -1.73224330e-01 2.08172941e+00 2.10814619e+00 4.20308542e+00
      2.02245927e+00 6.77385712e+00</_>
    <_>
      8.10645223e-02 1.23853214e-01 1.25799787e+00 1.00465864e-01
      2.21054375e-01 1.95249748e+00 2.02881145e+00 4.01949978e+00
      2.14278293e+00 -5.92449093e+00</_>
    <_>
      4.75203484e-01 4.61538464e-01 1.23404253e+00 6.65216625e-01
      1.68137109e+00 4.74871731e+00 5.68828487e+00 1.10762835e+01
      6.99437809e+00 -1.10398455e+01</_>
    <_>
      1.37703389e-01 1.61290318e-01 1.11001885e+00 1.62430033e-01
      3.50140095e-01 2.45013690e+00 2.52797461e+00 5.01705170e+00
      2.70468307e+00 -7.02096844e+00</_>
    <_>
      1.57183215e-01 1.41975313e-01 1.07720590e+00 1.68678761e-01
      3.63185138e-01 3.43629646e+00 3.55186415e+00 7.04628277e+00
      3.74802279e+00 8.44965935e+00</_>
    <_>
      3.35608602e-01 3.88888896e-01 1.28400004e+00 4.19019520e-01
      9.29128647e-01 3.17150593e+00 3.48959279e+00 6.82280636e+00
      3.97863340e+00 7.77705193e+00</_>
    <_>
      1.10656068e-01 1.43712580e-01 1.06735563e+00 9.79944170e-02
      2.14881986e-01 3.26337481e+00 3.33063555e+00 6.62764072e+00
      3.43808436e+00 -9.78693008e+00</_>
    <_>
      3.96552026e-01 2.36363626e+00 1.24093258e+00 6.21701300e-01
      1.50023901e+00 6.22003794e+00 6.81345797e+00 1.33533392e+01
      7.63945198e+00 1.38279314e+01</_>
    <_>
      6.90169632e-02 8.66666660e-02 1.14358604e+00 -9.36122164e-02
      -1.79581031e-01 1.51783347e+00 1.53807068e+00 3.06602263e+00
      1.44829309e+00 6.69217873e+00</_>
    <_>
      2.66623437e-01 2.92817682e-01 1.16866684e+00 4.66749370e-01
      1.04713917e+00 3.61940122e+00 3.88685489e+00 7.64010954e+00
      4.41068888e+00 9.25720119e+00</_>
    <_>
      8.20284635e-02 8.11965838e-02 1.03594303e+00 -6.46667928e-02
      -1.20422028e-01 2.77853990e+00 2.81058097e+00 5.60514259e+00
      2.75091147e+00 8.18322372e+00</_>
    <_>
      1.00917898e-01 5.68181813e-01 1.25198936e+00 5.72133623e-02
      1.29332274e-01 2.90789032e+00 2.97868824e+00 5.92205429e+00
      3.05292392e+00 7.64830923e+00</_>
    <_>
      1.92247316e-01 6.84210539e-01 1.01041663e+00 1.71612605e-01
      3.70344996e-01 2.51097727e+00 3.16168237e+00 6.21168423e+00
      4.07782602e+00 6.09966040e+00</_>
    <_>
      1.56839192e-01 1.75925925e-01 1.06761467e+00 1.42795965e-01
      3.08772445e-01 3.83980632e+00 4.09165621e+00 8.06359196e+00
      4.33103180e+00 8.83250713e+00</_>
    <_>
      2.03296050e-01 2.81588435e-01 1.08614898e+00 3.38309616e-01
      7.36109912e-01 3.51588035e+00 3.68110681e+00 7.27960205e+00
      4.04916191e+00 -9.87156487e+00</_>
    <_>
      1.13840111e-01 1.10481590e-01 1.03141320e+00 6.81492314e-02
      1.52818263e-01 3.51631260e+00 3.58387828e+00 7.13403177e+00
      3.66659880e+00 8.92014027e+00</_>
    <_>
      5.04964553e-02 8.86075944e-02 1.22399616e+00 -2.46174097e-01
      -4.88482326e-01 7.63184965e-01 7.74248481e-01 1.54296517e+00
      5.30007362e-01 6.17948771e+00</_>
    <_>
      1.07510187e-01 9.28270072e-02 1.05412769e+00 3.85160255e-03
      1.99411362e-02 3.00203395e+00 3.03964877e+00 6.06049299e+00
      3.05042601e+00 8.47487259e+00</_>
    <_>
      7.09139407e-02 8.33333358e-02 1.26994681e+00 -9.47642773e-02
      -1.82070285e-01 2.36662912e+00 2.50387192e+00 4.94001675e+00
      2.45143104e+00 -6.13220310e+00</_>
    <_>
      3.50224786e-02 1.00917429e-01 1.28334153e+00 -5.63124597e-01
      -1.12536192e+00 6.16716206e-01 6.36132538e-01 1.26255918e+00
      7.78909922e-02 -3.74941659e+00</_>
    <_>
      1.13183178e-01 1.32450327e-01 1.12115896e+00 1.15859710e-01
      2.51914263e-01 2.49923062e+00 2.55315113e+00 5.07934237e+00
      2.67927241e+00 -7.81649494e+00</_>
    <_>
      1.03379354e-01 1.08187132e-01 1.23049188e+00 -9.10319202e-03
      -5.91146434e-03 1.16097379e+00 1.19406629e+00 2.37158680e+00
      1.19122052e+00 5.29383564e+00</_>
    <_>
      1.34546876e-01 1.30541876e-01 1.16426229e+00 1.37325719e-01
      2.96839148e-01 3.23634171e+00 4.10549307e+00 -8.33834362e+00
      -4.51642084e+00 -7.79338264e+00</_>
    <_>
      1.23049349e-01 8.94941613e-02 1.04007387e+00 5.58126904e-03
      2.34971829e-02 3.09853411e+00 3.14272141e+00 6.26336002e+00
      3.15677333e+00 8.41479397e+00</_>
    <_>
      1.64146543e-01 9.60000008e-02 1.02895844e+00 -5.59218042e-02
      -1.02472425e-01 3.18085432e+00 3.21971464e+00 6.42000532e+00
      3.17031097e+00 -8.69467640e+00</_>
    <_>
      3.36132050e-01 5.00000000e-01 1.45213544e+00 5.68811119e-01
      1.32684934e+00 3.88826323e+00 4.23417139e+00 8.29631519e+00
      4.91370773e+00 9.48089409e+00</_>
    <_>
      8.13825652e-02 1.12994350e-01 1.10130513e+00 -1.83800250e-01
      -3.62565011e-01 3.64219666e+00 3.65322304e+00 7.30093288e+00
      3.47205114e+00 1.05389261e+01</_>
    <_>
      8.99955332e-02 1.43884897e-01 1.13827240e+00 6.69782469e-03
      2.54329462e-02 2.09639287e+00 2.12999272e+00 4.24318552e+00
      2.14273643e+00 7.52918911e+00</_>
    <_>
      1.24669194e-01 1.02857143e-01 1.04407430e+00 4.22990993e-02
      9.91296098e-02 3.38957834e+00 3.47160935e+00 6.90234995e+00
      3.53275943e+00 8.48715401e+00</_>
    <_>
      1.03379354e-01 1.08187132e-01 1.23049188e+00 -9.10319202e-03
      -5.91146434e-03 1.16097379e+00 1.19406629e+00 2.37158680e+00
      1.19122052e+00 5.29383564e+00</_>
    <_>
      9.87741053e-02 5.90909064e-01 9.88505721e-01 3.18861380e-02
      7.70755410e-02 3.38790464e+00 3.49304700e+00 6.93385553e+00
      3.54956985e+00 -8.34107113e+00</_>
    <_>
      7.61000887e-02 6.42570257e-02 1.03592312e+00 -1.36939034e-01
      -2.67590493e-01 2.65063763e+00 2.67942166e+00 5.34445381e+00
      2.54673362e+00 7.82492733e+00</_>
    <_>
      9.52900276e-02 1.11111112e-01 1.18770766e+00 2.12708209e-02
      5.57671934e-02 1.56981850e+00 1.60446405e+00 3.19160557e+00
      1.63241398e+00 -6.27807474e+00</_>
    <_>
      2.88588703e-01 2.41379306e-01 1.23481035e+00 3.84990126e-01
      8.47212374e-01 2.74330473e+00 2.94402695e+00 5.78800344e+00
      3.37149906e+00 7.20990849e+00</_>
    <_>
      1.04130439e-01 1.20879121e-01 1.14683545e+00 2.22751871e-02
      5.75435534e-02 2.10915112e+00 2.15263319e+00 4.28353453e+00
      2.18454814e+00 -6.46553421e+00</_>
    <_>
      1.43955663e-01 1.08247422e-01 1.04791641e+00 9.05553326e-02
      1.99398100e-01 3.29281878e+00 3.34949875e+00 6.67066479e+00
      3.44990063e+00 8.91647625e+00</_>
    <_>
      2.74792045e-01 8.21428597e-01 1.17142856e+00 4.40438807e-01
      9.77293193e-01 3.65284228e+00 4.06988907e+00 7.94986343e+00
      4.65914392e+00 8.47401428e+00</_>
    <_>
      9.87741053e-02 5.90909064e-01 9.88505721e-01 3.18861380e-02
      7.70755410e-02 3.38790464e+00 3.49304700e+00 6.93385553e+00
      3.54956985e+00 -8.34107113e+00</_>
    <_>
      1.70387849e-01 1.86666667e-01 1.07343781e+00 1.88249096e-01
      4.04714435e-01 4.94640732e+00 5.82436800e+00 -1.17121162e+01
      -6.31022215e+00 -1.12323732e+01</_>
    <_>
      1.23049349e-01 8.94941613e-02 1.04007387e+00 5.58126904e-03
      2.34971829e-02 3.09853411e+00 3.14272141e+00 6.26336002e+00
      3.15677333e+00 8.41479397e+00</_>
    <_>
      1.03542805e-01 1.20253168e-01 1.10930741e+00 4.52661799e-04
      1.25781801e-02 3.54949164e+00 4.43985987e+00 -8.77673721e+00
      -4.61575937e+00 -8.48484993e+00</_>
    <_>
      7.32317343e-02 1.31386861e-01 1.15745044e+00 -6.86988905e-02
      -1.28923595e-01 1.72522891e+00 1.74851406e+00 3.48538566e+00
      1.68407667e+00 6.96521473e+00</_>
    <_>
      8.13825652e-02 1.12994350e-01 1.10130513e+00 -1.83800250e-01
      -3.62565011e-01 3.64219666e+00 3.65322304e+00 7.30093288e+00
      3.47205114e+00 1.05389261e+01</_>
    <_>
      1.04681984e-01 1.21661723e-01 1.05311215e+00 1.08763628e-01
      2.37090901e-01 3.86381769e+00 3.94835186e+00 7.85453415e+00
      4.07474184e+00 -9.52879810e+00</_>
    <_>
      8.04303885e-02 1.35922328e-01 1.04754996e+00 -9.42353234e-02
      -1.80747524e-01 2.59413838e+00 2.62663245e+00 5.23702192e+00
      2.53772092e+00 -7.61818027e+00</_>
    <_>
      1.27800286e-01 1.30434781e-01 1.08620381e+00 1.39644653e-01
      3.01960528e-01 3.06104565e+00 3.12754250e+00 6.22184324e+00
      3.27914262e+00 8.48533058e+00</_>
    <_>
      1.22047089e-01 1.00418411e-01 1.05256438e+00 4.22404297e-02
      9.91025344e-02 3.19630480e+00 3.24013686e+00 6.45836258e+00
      3.29056239e+00 8.78434944e+00</_>
    <_>
      3.98289114e-02 4.11311053e-02 1.09096014e+00 -4.85536307e-01
      -9.69807386e-01 8.83269072e-01 9.04366374e-01 1.79818702e+00
      4.23964590e-01 4.23552132e+00</_>
    <_>
      7.09139407e-02 8.33333358e-02 1.26994681e+00 -9.47642773e-02
      -1.82070285e-01 2.36662912e+00 2.50387192e+00 4.94001675e+00
      2.45143104e+00 -6.13220310e+00</_>
    <_>
      6.43084794e-02 1.00000001e-01 1.18138158e+00 -1.49550736e-01
      -2.93119341e-01 1.23751307e+00 1.25525880e+00 2.50164485e+00
      1.10869968e+00 -7.25415230e+00</_>
    <_>
      4.69509631e-01 4.74358976e-01 1.17870831e+00 6.50585473e-01
      1.62312019e+00 4.21048546e+00 5.15719938e+00 1.03997746e+01
      6.82101250e+00 9.85827637e+00</_>
    <_>
      6.58722669e-02 1.10512130e-01 1.39061618e+00 -3.45901400e-01
      -6.89155996e-01 -4.52948101e-02 -3.84283848e-02 -8.02899674e-02
      -3.82865608e-01 -3.49700069e+00</_>
    <_>
      1.21649042e-01 1.09090909e-01 1.04782605e+00 6.67078793e-02
      1.49934858e-01 3.11529779e+00 3.16743517e+00 6.30880308e+00
      3.24262142e+00 8.89537430e+00</_>
    <_>
      9.95681807e-02 7.56972134e-02 1.02903831e+00 -7.39950910e-02
      -1.39504537e-01 2.50281811e+00 2.53539753e+00 5.05450964e+00
      2.46718264e+00 7.41964245e+00</_>
    <_>
      1.03266053e-01 1.12582780e-01 1.10218143e+00 8.86566564e-02
      1.95386738e-01 2.58268070e+00 2.63833237e+00 5.24883938e+00
      2.73614526e+00 -8.02221489e+00</_>
    <_>
      1.14624076e-01 1.18226603e-01 1.04798067e+00 9.93928760e-02
      2.17800081e-01 3.00012589e+00 3.05956626e+00 6.08941555e+00
      3.16885519e+00 -8.50166130e+00</_>
    <_>
      7.79445171e-02 1.18110240e-01 1.06902730e+00 -2.34682802e-02
      -3.64125408e-02 3.17862773e+00 3.24277306e+00 6.45353889e+00
      3.23397732e+00 8.21398067e+00</_>
    <_>
      4.61227298e-02 5.55555560e-02 1.08987522e+00 -3.11626166e-01
      -6.20479405e-01 1.97257328e+00 1.98458076e+00 3.96315813e+00
      1.67540276e+00 -6.88389635e+00</_>
    <_>
      1.45020157e-01 1.60194173e-01 1.04205215e+00 8.39532316e-02
      1.85622320e-01 3.77323127e+00 3.83495069e+00 7.63906765e+00
      3.93110490e+00 -9.60015583e+00</_>
    <_>
      1.11072749e-01 3.87096763e-01 1.01428568e+00 6.03067223e-03
      2.42646337e-02 2.70248461e+00 3.66159940e+00 -6.84763384e+00
      -3.67552996e+00 7.71338892e+00</_>
    <_>
      1.56839192e-01 1.75925925e-01 1.06761467e+00 1.42795965e-01
      3.08772445e-01 3.83980632e+00 4.09165621e+00 8.06359196e+00
      4.33103180e+00 8.83250713e+00</_>
    <_>
      1.29414380e-01 1.62280709e-01 1.05100667e+00 9.64253098e-02
      2.11616814e-01 3.44405961e+00 3.52045536e+00 7.00280237e+00
      3.63420630e+00 8.69560909e+00</_>
    <_>
      2.64328629e-01 3.15789461e-01 1.19807756e+00 4.64230925e-01
      1.04126942e+00 3.00552797e+00 3.27344680e+00 6.41422224e+00
      3.80204654e+00 7.52698660e+00</_>
    <_>
      4.78748828e-02 4.92957756e-02 1.19745219e+00 -2.95029193e-01
      -5.87093353e-01 9.24201727e-01 9.32890713e-01 1.86143696e+00
      6.39876246e-01 -5.10507727e+00</_>
    <_>
      3.57480168e-01 2.57142854e+00 1.29407740e+00 5.95228493e-01
      1.40950048e+00 6.60636377e+00 6.63843441e+00 1.32792463e+01
      7.38742256e+00 1.38057871e+01</_>
    <_>
      6.43116385e-02 6.62983432e-02 1.21584284e+00 -1.90339267e-01
      -3.75562996e-01 8.79590273e-01 8.94511223e-01 1.78156197e+00
      7.06799567e-01 5.13083220e+00</_>
    <_>
      4.94304113e-02 6.75241128e-02 1.04956150e+00 -2.08890930e-01
      -4.13304090e-01 2.53569007e+00 2.55316591e+00 5.09759378e+00
      2.34670472e+00 8.19322300e+00</_>
    <_>
      1.31198153e-01 9.38775539e-02 1.03171253e+00 3.02988458e-02
      7.44589567e-02 3.40694141e+00 3.45233727e+00 6.88197756e+00
      3.48972797e+00 -9.65039444e+00</_>
    <_>
      3.96552026e-01 2.36363626e+00 1.24093258e+00 6.21701300e-01
      1.50023901e+00 6.22003794e+00 6.81345797e+00 1.33533392e+01
      7.63945198e+00 1.38279314e+01</_>
    <_>
      1.24462269e-01 1.35483876e-01 1.13922489e+00 1.28783047e-01
      2.79052824e-01 2.75100350e+00 2.81092286e+00 5.59188890e+00
      2.95096326e+00 -8.04764843e+00</_>
    <_>
      9.17718932e-02 1.36904761e-01 1.08128476e+00 9.50839445e-02
      2.08681136e-01 2.70645571e+00 2.76153040e+00 5.49552345e+00
      2.86588693e+00 -8.67434216e+00</_>
    <_>
      6.63012192e-02 1.25560537e-01 1.06812894e+00 -6.31468967e-02
      -1.17402762e-01 2.85055804e+00 2.87747550e+00 5.74149275e+00
      2.81888390e+00 -8.74950695e+00</_>
    <_>
      7.32153133e-02 9.25925896e-02 1.03296983e+00 8.67332239e-03
      2.98200734e-02 3.22599697e+00 3.27392268e+00 6.52389288e+00
      3.29064846e+00 8.68368053e+00</_>
    <_>
      3.05762351e-01 4.70588237e-01 1.44112146e+00 5.33075750e-01
      1.22201800e+00 3.61943507e+00 3.88312912e+00 7.63455868e+00
      4.50086212e+00 9.21864510e+00</_>
    <_>
      2.71122962e-01 3.01948041e-01 1.15933383e+00 4.49197471e-01
      1.00339031e+00 3.44077134e+00 3.73810339e+00 7.33127165e+00
      4.26499224e+00 8.21186447e+00</_>
    <_>
      6.72250390e-02 9.93788838e-02 1.17457998e+00 -1.49380311e-01
      -2.92739511e-01 1.22075891e+00 1.23906684e+00 2.46897960e+00
      1.09270000e+00 -6.61556959e+00</_>
    <_>
      8.27232599e-02 9.33333337e-02 1.06970584e+00 -2.89704707e-02
      -4.75342199e-02 2.65684390e+00 2.68959141e+00 5.36280918e+00
      2.66598606e+00 8.19986916e+00</_>
    <_>
      1.31210566e-01 1.27516776e-01 1.05450475e+00 1.50996462e-01
      3.26025397e-01 4.09737301e+00 4.19332600e+00 8.33888149e+00
      4.36823893e+00 -9.85009766e+00</_>
    <_>
      3.56152803e-01 4.31372553e-01 1.21645021e+00 5.54243624e-01
      1.28654921e+00 4.21404743e+00 4.99203014e+00 9.90406227e+00
      6.32489204e+00 -9.65494728e+00</_>
    <_>
      4.57871407e-01 7.72151887e-01 1.22873342e+00 6.79693878e-01
      1.74240530e+00 5.36165810e+00 6.43210220e+00 1.29412603e+01
      -7.76720715e+00 1.23423319e+01</_>
    <_>
      7.85124525e-02 8.94039720e-02 1.03127432e+00 -5.76220155e-02
      -1.06121533e-01 3.00413752e+00 3.04716325e+00 6.07283020e+00
      2.99834323e+00 8.13256264e+00</_>
    <_>
      6.79020360e-02 1.31868139e-01 1.12233281e+00 -8.47300515e-02
      -1.61587045e-01 3.33793902e+00 3.41449547e+00 6.79085255e+00
      3.35073471e+00 -8.38623047e+00</_>
    <_>
      4.94304113e-02 6.75241128e-02 1.04956150e+00 -2.08890930e-01
      -4.13304090e-01 2.53569007e+00 2.55316591e+00 5.09759378e+00
      2.34670472e+00 8.19322300e+00</_>
    <_>
      3.91303003e-02 2.54237279e-02 8.79353225e-01 -7.38948762e-01
      -1.47749746e+00 8.12555850e-03 9.56518296e-03 1.84105542e-02
      -7.29117811e-01 -4.45630026e+00</_>
    <_>
      5.36211967e-01 5.00000000e-01 1.13421547e+00 6.46829307e-01
      1.60756814e+00 4.48325872e+00 5.29401493e+00 1.03937531e+01
      6.62110853e+00 1.02858496e+01</_>
    <_>
      1.03637859e-01 1.28526643e-01 1.05884242e+00 6.09275438e-02
      1.37599200e-01 3.28158402e+00 3.32844210e+00 6.63346958e+00
      3.40081143e+00 -8.72138977e+00</_>
    <_>
      1.19618058e-01 1.31578946e+00 1.23529410e+00 3.08598429e-02
      7.54994452e-02 2.89260602e+00 3.28784990e+00 6.40775871e+00
      3.51805234e+00 -6.82488775e+00</_>
    <_>
      6.87010810e-02 1.24087594e-01 1.07820010e+00 -8.09433088e-02
      -1.53950185e-01 2.10711861e+00 2.13036466e+00 4.24910641e+00
      2.05349016e+00 7.34747839e+00</_>
    <_>
      2.65942335e-01 3.15589368e-01 1.19729841e+00 4.66508061e-01
      1.04800761e+00 3.21552134e+00 3.49297404e+00 6.84840775e+00
      4.02339745e+00 7.97916651e+00</_>
    <_>
      9.56797525e-02 8.89830515e-02 1.03534591e+00 -1.89131852e-02
      -2.68161874e-02 3.00260901e+00 3.04173970e+00 6.06391668e+00
      3.02896428e+00 8.52120304e+00</_>
    <_>
      7.61000887e-02 6.42570257e-02 1.03592312e+00 -1.36939034e-01
      -2.67590493e-01 2.65063763e+00 2.67942166e+00 5.34445381e+00
      2.54673362e+00 7.82492733e+00</_>
    <_>
      5.58836125e-02 1.02189779e-01 1.15942025e+00 -1.99978620e-01
      -3.95190209e-01 7.30985701e-01 7.42836118e-01 1.47974694e+00
      5.45274019e-01 -5.18330622e+00</_>
    <_>
      6.92817196e-02 6.40000030e-02 1.10222220e+00 -1.58048660e-01
      -3.10507953e-01 2.14467001e+00 2.16749406e+00 4.32357788e+00
      2.01406193e+00 6.86237955e+00</_>
    <_>
      1.19923122e-01 9.09090936e-02 1.06992626e+00 -2.25678040e-03
      7.39601208e-03 2.53978634e+00 2.57553577e+00 5.13319683e+00
      2.57923412e+00 9.16708469e+00</_>
    <_>
      2.75433093e-01 3.10160428e-01 1.18576467e+00 5.04253507e-01
      1.14580441e+00 3.37946987e+00 3.69625711e+00 7.23460293e+00
      4.27084589e+00 8.56096554e+00</_>
    <_>
      1.70090035e-01 1.80000007e-01 1.09050775e+00 2.32196540e-01
      4.99141753e-01 3.41505361e+00 3.52533364e+00 6.99572659e+00
      3.78361773e+00 8.51436901e+00</_>
    <_>
      1.21471219e-01 1.14457831e-01 1.04833853e+00 4.75116521e-02
      1.09941058e-01 3.11982250e+00 3.16454005e+00 6.30672789e+00
      3.22062850e+00 8.56505966e+00</_>
    <_>
      3.69076163e-01 6.81818187e-01 1.18279564e+00 5.54993510e-01
      1.28778827e+00 3.84893036e+00 4.73439360e+00 1.02360458e+01
      -5.88966513e+00 9.02688313e+00</_>
    <_>
      2.13629931e-01 2.55813956e-01 1.09565222e+00 4.37038749e-01
      9.75397944e-01 3.19510436e+00 3.84687948e+00 7.54393721e+00
      4.88997078e+00 -7.49552822e+00</_>
    <_>
      8.20284635e-02 8.11965838e-02 1.03594303e+00 -6.46667928e-02
      -1.20422028e-01 2.77853990e+00 2.81058097e+00 5.60514259e+00
      2.75091147e+00 8.18322372e+00</_>
    <_>
      6.36581704e-02 1.27071828e-01 1.10695326e+00 -1.19589768e-01
      -2.32522860e-01 2.97753215e+00 3.02070522e+00 6.01984501e+00
      2.91101861e+00 -8.02742386e+00</_>
    <_>
      6.91145509e-02 7.60233924e-02 1.03968251e+00 -1.24064416e-01
      -2.41404042e-01 2.50571203e+00 2.53718877e+00 5.05864573e+00
      2.41956997e+00 7.31895781e+00</_>
    <_>
      9.42404196e-02 9.56521705e-02 1.25509274e+00 -3.15255038e-02
      -5.26159815e-02 2.11817765e+00 2.42694902e+00 4.71205187e+00
      2.52206755e+00 -5.32498693e+00</_>
    <_>
      6.51886016e-02 1.12676054e-01 1.45529640e+00 -4.68741298e-01
      -9.35927153e-01 -3.93970281e-01 -3.89409393e-01 -7.81099260e-01
      -8.57259870e-01 -3.13426089e+00</_>
    <_>
      2.48225793e-01 8.90625000e-01 1.11946154e+00 2.71965235e-01
      5.87864578e-01 2.82282138e+00 3.18087029e+00 6.19997358e+00
      3.58609200e+00 6.74117756e+00</_>
    <_>
      7.49624074e-02 1.74757287e-01 1.17452002e+00 -1.23779424e-01
      -2.40829661e-01 2.17492390e+00 2.30378389e+00 4.54388237e+00
      2.21790767e+00 -5.77585125e+00</_>
    <_>
      1.06777087e-01 8.40517208e-02 1.05509388e+00 -4.32370827e-02
      -7.67411515e-02 3.03745794e+00 3.10199904e+00 6.17180347e+00
      3.07376122e+00 7.89898634e+00</_>
    <_>
      1.03637859e-01 1.28526643e-01 1.05884242e+00 6.09275438e-02
      1.37599200e-01 3.28158402e+00 3.32844210e+00 6.63346958e+00
      3.40081143e+00 -8.72138977e+00</_>
    <_>
      1.04890123e-01 7.63052180e-02 1.06197214e+00 -7.59784728e-02
      -1.43487662e-01 2.51225471e+00 2.54384494e+00 5.07189703e+00
      2.47296953e+00 7.57137394e+00</_>
    <_>
      1.73873290e-01 2.68292695e-01 1.17847025e+00 1.98131725e-01
      4.26849544e-01 2.30569196e+00 2.52305532e+00 4.94053650e+00
      2.78951907e+00 5.86117029e+00</_>
    <_>
      3.33117276e-01 3.39506179e-01 1.28210056e+00 5.48868120e-01
      1.26647592e+00 4.23301935e+00 4.69980049e+00 9.19045639e+00
      5.46998644e+00 -9.65428162e+00</_>
    <_>
      1.30150095e-01 4.06779647e-01 1.19344258e+00 8.34778920e-02
      1.85033292e-01 2.03583002e+00 2.24693084e+00 4.39150810e+00
      2.39925551e+00 -5.30592537e+00</_>
    <_>
      7.87320510e-02 8.13953504e-02 1.03863490e+00 -8.73553231e-02
      -1.66738942e-01 2.68659687e+00 2.72406006e+00 5.42939997e+00
      2.64447665e+00 7.57197857e+00</_>
    <_>
      9.89755318e-02 1.08843535e-01 1.16386151e+00 -1.56865120e-02
      -2.02995334e-02 1.70495784e+00 1.73414958e+00 3.45370317e+00
      1.72400296e+00 -8.42147446e+00</_>
    <_>
      1.91544965e-01 2.75862068e-01 1.09508193e+00 3.55103731e-01
      7.73453474e-01 3.65343833e+00 3.80674601e+00 7.53729391e+00
      4.20475435e+00 8.87608147e+00</_>
    <_>
      9.44370702e-02 1.06666669e-01 1.06003428e+00 6.06796481e-02
      1.37104094e-01 2.66335797e+00 2.70807338e+00 5.39378977e+00
      2.77674317e+00 -8.18416309e+00</_>
    <_>
      1.78762063e-01 6.25000000e-01 1.15757573e+00 2.32895374e-01
      5.00877142e-01 2.69852734e+00 2.87510872e+00 5.66328907e+00
      3.15783381e+00 -6.76385355e+00</_>
    <_>
      1.19070731e-01 1.77777782e-01 1.09036148e+00 5.90806194e-02
      1.33728072e-01 2.39947081e+00 2.50676513e+00 4.96022081e+00
      2.59331942e+00 6.36425734e+00</_>
    <_>
      6.63012192e-02 1.25560537e-01 1.06812894e+00 -6.31468967e-02
      -1.17402762e-01 2.85055804e+00 2.87747550e+00 5.74149275e+00
      2.81888390e+00 -8.74950695e+00</_>
    <_>
      9.95681807e-02 7.56972134e-02 1.02903831e+00 -7.39950910e-02
      -1.39504537e-01 2.50281811e+00 2.53539753e+00 5.05450964e+00
      2.46718264e+00 7.41964245e+00</_>
    <_>
      1.41939580e-01 1.08888888e+00 1.13879406e+00 1.83536202e-01
      3.94420922e-01 3.25805616e+00 3.71373343e+00 7.24736118e+00
      4.15200806e+00 -7.55202627e+00</_>
    <_>
      1.46590963e-01 1.88679248e-01 1.13859272e+00 1.11973390e-01
      2.43922234e-01 2.28863716e+00 2.48303556e+00 4.87132788e+00
      2.65931034e+00 -5.84335995e+00</_>
    <_>
      4.77920584e-02 1.37931034e-01 1.12721896e+00 -2.44607672e-01
      -4.85462904e-01 3.50751948e+00 3.60605240e+00 7.16315556e+00
      3.38271379e+00 8.58071327e+00</_>
    <_>
      2.34108716e-01 6.95652187e-01 1.21164024e+00 3.20968091e-01
      6.96621537e-01 2.82856965e+00 3.08122683e+00 6.04057789e+00
      3.47847152e+00 6.88242054e+00</_>
    <_>
      2.03296050e-01 2.81588435e-01 1.08614898e+00 3.38309616e-01
      7.36109912e-01 3.51588035e+00 3.68110681e+00 7.27960205e+00
      4.04916191e+00 -9.87156487e+00</_>
    <_>
      9.87741053e-02 5.90909064e-01 9.88505721e-01 3.18861380e-02
      7.70755410e-02 3.38790464e+00 3.49304700e+00 6.93385553e+00
      3.54956985e+00 -8.34107113e+00</_>
    <_>
      1.16323084e-01 8.64197537e-02 1.03110349e+00 -8.43817927e-03
      -5.28980745e-03 3.21640968e+00 3.25459743e+00 6.49010134e+00
      3.25201821e+00 -9.53167534e+00</_>
    <_>
      9.04015973e-02 5.21126747e-01 1.25541127e+00 -7.97615275e-02
      -1.51238218e-01 2.01752377e+00 2.24039125e+00 4.37359762e+00
      2.23738909e+00 -5.22569513e+00</_>
    <_>
      6.06619827e-02 8.79120901e-02 1.40392709e+00 -1.70633972e-01
      -3.35763425e-01 6.08567953e-01 6.19962871e-01 1.23422837e+00
      4.52228308e-01 4.71487999e+00</_>
    <_>
      1.30229369e-01 9.09090936e-01 1.06122446e+00 1.81772798e-01
      3.91175181e-01 2.86407089e+00 3.28188801e+00 6.38844347e+00
      3.67060518e+00 6.77679968e+00</_>
    <_>
      1.70387849e-01 1.86666667e-01 1.07343781e+00 1.88249096e-01
      4.04714435e-01 4.94640732e+00 5.82436800e+00 -1.17121162e+01
      -6.31022215e+00 -1.12323732e+01</_>
    <_>
      1.46843985e-01 1.33333340e-01 1.09454298e+00 8.71727690e-02
      1.92136914e-01 2.89924669e+00 2.95689654e+00 5.88499403e+00
      3.05711079e+00 -7.84471560e+00</_>
    <_>
      3.73843729e-01 8.29787254e-01 1.14972270e+00 5.65028965e-01
      1.31869268e+00 4.46659660e+00 4.88635874e+00 9.56314278e+00
      5.54964256e+00 1.09879150e+01</_>
    <_>
      2.26510003e-01 2.31958762e-01 1.30737674e+00 3.19299936e-01
      6.92441463e-01 2.58889437e+00 2.77598333e+00 5.45950270e+00
      3.14846921e+00 6.61056662e+00</_>
    <_>
      9.26243365e-02 1.26843661e-01 1.07676244e+00 4.20809537e-02
      9.85726789e-02 3.12558699e+00 3.17932892e+00 6.33181572e+00
      3.23428035e+00 -8.27265739e+00</_>
    <_>
      1.25059351e-01 1.00775197e-01 1.06440365e+00 5.30876406e-02
      1.21550150e-01 2.81009150e+00 2.85796881e+00 5.69200230e+00
      2.91927552e+00 8.09100342e+00</_>
    <_>
      1.23026945e-01 1.56378597e-01 1.01801109e+00 8.62546563e-02
      1.90485924e-01 4.69863987e+00 5.52152443e+00 -1.19776335e+01
      -6.00072670e+00 -1.06320477e+01</_>
    <_>
      1.07098304e-01 1.03869654e-01 1.07776892e+00 6.21389635e-02
      1.40039548e-01 3.94277382e+00 4.03396940e+00 8.02262115e+00
      4.12550879e+00 9.46708584e+00</_>
    <_>
      6.86186627e-02 7.00000003e-02 1.18562877e+00 -1.56213582e-01
      -3.06563020e-01 9.64395940e-01 9.79962170e-01 1.95214117e+00
      8.26699495e-01 -5.71014118e+00</_>
    <_>
      7.46191218e-02 9.90099013e-02 1.28247046e+00 -7.15850145e-02
      -1.34294927e-01 1.18358958e+00 1.21350563e+00 2.41205502e+00
      1.14774585e+00 -4.94786215e+00</_>
    <_>
      7.46191218e-02 9.90099013e-02 1.28247046e+00 -7.15850145e-02
      -1.34294927e-01 1.18358958e+00 1.21350563e+00 2.41205502e+00
      1.14774585e+00 -4.94786215e+00</_>
    <_>
      1.44492537e-01 1.48936167e-01 1.32692313e+00 2.00753137e-01
      4.31309700e-01 2.40901899e+00 2.46842027e+00 4.90714264e+00
      2.68407726e+00 -7.35766649e+00</_>
    <_>
      3.36875260e-01 1.18518519e+00 1.48917747e+00 5.70452452e-01
      1.33786190e+00 4.68822813e+00 4.86102295e+00 9.63678455e+00
      5.53008747e+00 1.07769327e+01</_>
    <_>
      1.09391451e-01 1.13378681e-01 1.04371464e+00 6.03087246e-02
      1.36289626e-01 4.67248821e+00 4.68700838e+00 9.36676979e+00
      4.75965881e+00 1.14874916e+01</_>
    <_>
      1.16924040e-01 1.17381491e-01 1.04500747e+00 7.91475624e-02
      1.75413892e-01 4.77737951e+00 4.78546143e+00 9.56689453e+00
      4.87598467e+00 1.16876516e+01</_>
    <_>
      1.79285079e-01 1.23376623e-01 1.07662237e+00 1.34739682e-01
      2.92058676e-01 2.95097995e+00 3.04837489e+00 6.04819727e+00
      3.20219398e+00 7.63581133e+00</_>
    <_>
      9.19542089e-02 1.08974360e-01 1.07726598e+00 3.27511132e-02
      7.90962875e-02 3.33027220e+00 3.37500215e+00 6.72764254e+00
      3.41523194e+00 9.13642216e+00</_>
    <_>
      8.56695473e-02 1.32596686e-01 1.03685689e+00 1.06835432e-01
      2.33421102e-01 3.12377357e+00 3.19040918e+00 6.34752464e+00
      3.30946827e+00 8.32604027e+00</_>
    <_>
      7.85682201e-02 1.33928567e-01 1.03374827e+00 -1.42933270e-02
      -1.74260847e-02 3.10515118e+00 3.13901973e+00 6.26110601e+00
      3.13070393e+00 -8.92459488e+00</_>
    <_>
      6.06619827e-02 8.79120901e-02 1.40392709e+00 -1.70633972e-01
      -3.35763425e-01 6.08567953e-01 6.19962871e-01 1.23422837e+00
      4.52228308e-01 4.71487999e+00</_>
    <_>
      1.17841110e-01 2.77777791e-01 1.18947363e+00 3.16588394e-02
      7.70283118e-02 2.51502228e+00 3.16163301e+00 6.21476269e+00
      3.96929932e+00 6.10093737e+00</_>
    <_>
      9.78638530e-02 1.04622871e-01 1.04888046e+00 4.95252423e-02
      1.14049301e-01 3.21510005e+00 3.24984336e+00 6.48231983e+00
      3.30901337e+00 -8.81655216e+00</_>
    <_>
      1.23900445e-02 2.45901644e-02 1.21182263e+00 -8.35896075e-01
      -1.67154181e+00 -6.74736977e-01 -6.73915088e-01 -1.34824109e+00
      -1.50958765e+00 3.45992041e+00</_>
    <_>
      1.35335416e-01 1.65775403e-01 1.04831457e+00 9.88415182e-02
      2.16751769e-01 3.55151415e+00 3.60861421e+00 7.18868876e+00
      3.71835136e+00 9.35006714e+00</_>
    <_>
      2.65942335e-01 3.15589368e-01 1.19729841e+00 4.66508061e-01
      1.04800761e+00 3.21552134e+00 3.49297404e+00 6.84840775e+00
      4.02339745e+00 7.97916651e+00</_>
    <_>
      1.23900445e-02 2.45901644e-02 1.21182263e+00 -8.35896075e-01
      -1.67154181e+00 -6.74736977e-01 -6.73915088e-01 -1.34824109e+00
      -1.50958765e+00 3.45992041e+00</_>
    <_>
      1.31331995e-01 1.16541356e-01 1.12092102e+00 1.24235094e-01
      2.69250304e-01 3.42757559e+00 3.47684717e+00 6.92909193e+00
      3.61857367e+00 8.83688068e+00</_>
    <_>
      3.16428423e-01 2.50000000e-01 1.08672941e+00 4.42771852e-01
      9.85259712e-01 3.50659299e+00 4.27761984e+00 8.59940720e+00
      -6.75163651e+00 8.20203304e+00</_>
    <_>
      1.04418516e-01 1.40845075e-01 1.20799994e+00 1.11634053e-01
      2.42807209e-01 2.80976629e+00 2.85487175e+00 5.68719149e+00
      2.97630143e+00 -8.51566982e+00</_>
    <_>
      8.52776915e-02 1.33891210e-01 1.02964270e+00 -5.33826509e-03
      9.51515918e-04 3.55273104e+00 3.60044169e+00 7.17704296e+00
      3.60381889e+00 -9.25721264e+00</_>
    <_>
      5.38413264e-02 1.22222222e-01 1.08793104e+00 -1.56897813e-01
      -3.08179051e-01 2.96999192e+00 3.01975203e+00 6.01466084e+00
      2.87587285e+00 -7.90107012e+00</_>
    <_>
      7.49406368e-02 1.20331950e-01 1.35678709e+00 -2.58977383e-01
      -5.13964534e-01 2.84184605e-01 2.95031399e-01 5.84639430e-01
      3.80792394e-02 -4.25229263e+00</_>
    <_>
      1.11072749e-01 3.87096763e-01 1.01428568e+00 6.03067223e-03
      2.42646337e-02 2.70248461e+00 3.66159940e+00 -6.84763384e+00
      -3.67552996e+00 7.71338892e+00</_>
    <_>
      1.10656068e-01 1.43712580e-01 1.06735563e+00 9.79944170e-02
      2.14881986e-01 3.26337481e+00 3.33063555e+00 6.62764072e+00
      3.43808436e+00 -9.78693008e+00</_>
    <_>
      9.03171524e-02 1.21212125e-01 1.13838553e+00 -5.76587990e-02
      -1.06206305e-01 1.67162538e+00 1.69570720e+00 3.37937355e+00
      1.64264965e+00 -6.79124403e+00</_>
    <_>
      7.07610250e-02 1.15107916e-01 1.13224638e+00 -1.01618186e-01
      -1.95802435e-01 1.22413778e+00 1.24377370e+00 2.47772956e+00
      1.14592886e+00 -5.84343386e+00</_>
    <_>
      8.96834657e-02 1.35593221e-01 1.04959726e+00 -1.87531263e-02
      -2.66813505e-02 3.14988208e+00 3.21406555e+00 6.39610243e+00
      3.20873570e+00 -8.16585541e+00</_>
    <_>
      2.71122962e-01 3.01948041e-01 1.15933383e+00 4.49197471e-01
      1.00339031e+00 3.44077134e+00 3.73810339e+00 7.33127165e+00
      4.26499224e+00 8.21186447e+00</_>
    <_>
      1.26813933e-01 1.35135129e-01 1.11258090e+00 1.09002173e-01
      2.37892747e-01 2.42544866e+00 2.47836590e+00 4.93027401e+00
      2.59744978e+00 7.58825827e+00</_>
    <_>
      6.26539066e-02 1.02857143e-01 1.04984057e+00 -2.82173216e-01
      -5.61158657e-01 3.13050222e+00 3.13793325e+00 6.27215099e+00
      2.85757661e+00 9.65776348e+00</_>
    <_>
      1.54948771e-01 2.40963861e-01 1.41915715e+00 2.00819939e-01
      4.34199661e-01 2.31344080e+00 2.75309157e+00 5.32482815e+00
      3.17071199e+00 5.68112373e+00</_>
    <_>
      9.80648249e-02 1.07894734e-01 1.03901815e+00 4.04144488e-02
      9.53845382e-02 3.45539737e+00 3.52150488e+00 7.00997877e+00
      3.57135224e+00 9.00032043e+00</_>
    <_>
      6.86186627e-02 7.00000003e-02 1.18562877e+00 -1.56213582e-01
      -3.06563020e-01 9.64395940e-01 9.79962170e-01 1.95214117e+00
      8.26699495e-01 -5.71014118e+00</_>
    <_>
      1.48214310e-01 1.54929578e-01 1.23332620e+00 2.06243470e-01
      4.43188190e-01 3.03686142e+00 3.64823699e+00 7.14457512e+00
      4.40680456e+00 7.13807583e+00</_>
    <_>
      1.14198029e-01 1.11702129e-01 1.04552352e+00 -1.42853722e-01
      -2.79549152e-01 2.30278730e+00 2.34011698e+00 4.66157866e+00
      2.20379591e+00 6.84275675e+00</_>
    <_>
      9.26243365e-02 1.26843661e-01 1.07676244e+00 4.20809537e-02
      9.85726789e-02 3.12558699e+00 3.17932892e+00 6.33181572e+00
      3.23428035e+00 -8.27265739e+00</_>
    <_>
      5.50478399e-02 6.73076957e-02 1.01118565e+00 -1.43063888e-01
      -2.80027092e-01 2.37858272e+00 2.39950919e+00 4.78855562e+00
      2.25992918e+00 7.61038160e+00</_>
    <_>
      1.20222889e-01 1.10344827e-01 1.10430968e+00 1.57220047e-02
      4.44418937e-02 2.11116004e+00 2.15416861e+00 4.28683567e+00
      2.17699265e+00 -6.72122049e+00</_>
    <_>
      9.36899334e-02 1.28378376e-01 1.14420164e+00 -4.08603735e-02
      -7.17891455e-02 1.47636569e+00 1.50519061e+00 2.99596906e+00
      1.46944177e+00 -5.91142893e+00</_>
    <_>
      1.19923122e-01 9.09090936e-02 1.06992626e+00 -2.25678040e-03
      7.39601208e-03 2.53978634e+00 2.57553577e+00 5.13319683e+00
      2.57923412e+00 9.16708469e+00</_>
    <_>
      2.37368479e-01 3.58490556e-01 1.19691777e+00 2.24661112e-01
      4.84331965e-01 2.49708414e+00 2.60365319e+00 5.15427780e+00
      2.86181569e+00 -6.61839056e+00</_>
    <_>
      1.07015282e-01 1.14416473e-01 1.10551643e+00 2.47321744e-02
      6.30505979e-02 2.07356977e+00 2.11659551e+00 4.21167994e+00
      2.14840436e+00 -6.81173658e+00</_>
    <_>
      2.80811757e-01 2.80000001e-01 1.24290216e+00 4.50703114e-01
      1.00458777e+00 3.38814187e+00 3.95115042e+00 7.68751335e+00
      4.67999411e+00 7.90956116e+00</_>
    <_>
      2.78576553e-01 2.27272734e-01 1.07852757e+00 3.98444533e-01
      8.76827061e-01 3.42643476e+00 4.13093328e+00 8.17703533e+00
      5.40677166e+00 7.98455524e+00</_>
    <_>
      8.04303885e-02 1.35922328e-01 1.04754996e+00 -9.42353234e-02
      -1.80747524e-01 2.59413838e+00 2.62663245e+00 5.23702192e+00
      2.53772092e+00 -7.61818027e+00</_>
    <_>
      8.80622938e-02 1.12359554e-01 1.07707870e+00 -3.71994195e-03
      4.22534579e-03 2.40389562e+00 2.44030142e+00 4.86240149e+00
      2.44274354e+00 7.48676348e+00</_>
    <_>
      1.02119982e-01 1.38157889e-01 1.15912676e+00 1.08042680e-01
      2.35317051e-01 2.34127331e+00 2.39196420e+00 4.75858736e+00
      2.51043868e+00 -7.11156750e+00</_>
    <_>
      9.95681807e-02 7.56972134e-02 1.02903831e+00 -7.39950910e-02
      -1.39504537e-01 2.50281811e+00 2.53539753e+00 5.05450964e+00
      2.46718264e+00 7.41964245e+00</_>
    <_>
      7.88419545e-02 1.36690646e-01 1.10476553e+00 -3.58430259e-02
      -6.17948771e-02 1.85464954e+00 1.88165486e+00 3.74980688e+00
      1.85075974e+00 -7.34849072e+00</_>
    <_>
      9.41000208e-02 1.42857149e-01 1.06037664e+00 9.92932394e-02
      2.17592940e-01 2.75437999e+00 2.81090736e+00 5.59355450e+00
      2.92010045e+00 -8.00969028e+00</_>
    <_>
      7.77364001e-02 1.00694448e-01 1.01647604e+00 3.56983691e-02
      8.56027529e-02 3.36421514e+00 3.41290712e+00 6.80146885e+00
      3.45579791e+00 9.55234528e+00</_>
    <_>
      7.26437494e-02 9.09090936e-02 1.23529410e+00 -9.49752480e-02
      -1.82112128e-01 9.89160240e-01 1.00852013e+00 2.00736022e+00
      9.17499840e-01 -5.47203159e+00</_>
    <_>
      2.65942335e-01 3.15589368e-01 1.19729841e+00 4.66508061e-01
      1.04800761e+00 3.21552134e+00 3.49297404e+00 6.84840775e+00
      4.02339745e+00 7.97916651e+00</_>
    <_>
      1.04332857e-01 1.21019110e-01 1.05430293e+00 3.60454507e-02
      8.60413834e-02 3.26970196e+00 3.30479288e+00 6.59204388e+00
      3.34951353e+00 -8.97421169e+00</_>
    <_>
      1.19923122e-01 9.09090936e-02 1.06992626e+00 -2.25678040e-03
      7.39601208e-03 2.53978634e+00 2.57553577e+00 5.13319683e+00
      2.57923412e+00 9.16708469e+00</_>
    <_>
      1.47262439e-01 1.05820104e-01 1.36875689e+00 -1.43318379e-03
      9.99345630e-03 1.19661772e+00 1.25404334e+00 2.47941232e+00
      1.26712632e+00 -4.35574389e+00</_>
    <_>
      1.04418516e-01 1.40845075e-01 1.20799994e+00 1.11634053e-01
      2.42807209e-01 2.80976629e+00 2.85487175e+00 5.68719149e+00
      2.97630143e+00 -8.51566982e+00</_>
    <_>
      5.36211967e-01 5.00000000e-01 1.13421547e+00 6.46829307e-01
      1.60756814e+00 4.48325872e+00 5.29401493e+00 1.03937531e+01
      6.62110853e+00 1.02858496e+01</_>
    <_>
      8.41801241e-02 1.46666661e-01 1.03920162e+00 3.17328535e-02
      7.71409199e-02 3.36545134e+00 3.45362854e+00 6.86333799e+00
      3.50454283e+00 -8.41718769e+00</_>
    <_>
      7.49406368e-02 1.20331950e-01 1.35678709e+00 -2.58977383e-01
      -5.13964534e-01 2.84184605e-01 2.95031399e-01 5.84639430e-01
      3.80792394e-02 -4.25229263e+00</_>
    <_>
      6.11893125e-02 6.48648664e-02 1.18605328e+00 -1.72454402e-01
      -3.39672387e-01 1.43045568e+00 1.44327176e+00 2.88013554e+00
      1.27352035e+00 -6.39886093e+00</_>
    <_>
      9.56818163e-02 9.52380970e-02 1.19285047e+00 -2.64360271e-02
      -4.20590751e-02 1.62214768e+00 1.65331471e+00 3.29104590e+00
      1.63228595e+00 -7.44436169e+00</_>
    <_>
      7.61000887e-02 6.42570257e-02 1.03592312e+00 -1.36939034e-01
      -2.67590493e-01 2.65063763e+00 2.67942166e+00 5.34445381e+00
      2.54673362e+00 7.82492733e+00</_>
    <_>
      1.25514895e-01 1.54320985e-01 1.04313135e+00 1.01617232e-01
      2.22350389e-01 3.05780149e+00 3.10761023e+00 6.19031858e+00
      3.21914101e+00 -8.65196896e+00</_>
    <_>
      5.46973683e-02 6.08695634e-02 1.11082089e+00 -1.84653267e-01
      -3.64287049e-01 1.50296259e+00 1.51749170e+00 3.02771878e+00
      1.33534932e+00 -7.51164389e+00</_>
    <_>
      1.01197608e-01 1.09422490e-01 1.04690158e+00 2.12704856e-02
      5.57546616e-02 2.99137378e+00 3.03137445e+00 6.04275417e+00
      3.06048131e+00 8.34028625e+00</_>
    <_>
      9.66822132e-02 8.84718522e-02 1.03559470e+00 -6.09325916e-02
      -1.12899534e-01 4.53726482e+00 5.40310431e+00 -1.08766966e+01
      -5.58930349e+00 1.03957930e+01</_>
    <_>
      7.60664418e-02 1.27272725e-01 1.07302940e+00 -6.41822740e-02
      -1.19613364e-01 2.81486654e+00 2.83998752e+00 5.66741514e+00
      2.78041792e+00 8.53713703e+00</_>
    <_>
      1.21649042e-01 1.09090909e-01 1.04782605e+00 6.67078793e-02
      1.49934858e-01 3.11529779e+00 3.16743517e+00 6.30880308e+00
      3.24262142e+00 8.89537430e+00</_>
    <_>
      7.98423663e-02 9.28571448e-02 1.07692313e+00 -4.32760455e-02
      -7.69940838e-02 2.24026036e+00 2.26513457e+00 4.51783228e+00
      2.22666645e+00 7.93756485e+00</_>
    <_>
      2.55162716e-01 2.97297299e-01 1.22795594e+00 4.04509157e-01
      8.89392614e-01 3.30173659e+00 3.59871387e+00 7.05291128e+00
      4.08167219e+00 7.91978884e+00</_>
    <_>
      1.03178732e-01 1.11801244e-01 1.03187025e+00 5.86283356e-02
      1.33055538e-01 3.23275900e+00 3.28930974e+00 6.55035782e+00
      3.35749722e+00 8.65099239e+00</_>
    <_>
      8.64110962e-02 5.43478243e-02 1.37618148e+00 -2.79762715e-01
      -5.55958509e-01 2.50829548e-01 2.61751324e-01 5.18041968e-01
      -1.54592646e-02 3.56020188e+00</_>
    <_>
      1.16719902e-01 1.42011836e-01 1.03767121e+00 1.09078683e-01
      2.37996668e-01 2.95774055e+00 3.01910281e+00 6.00753593e+00
      3.13941360e+00 -8.14756298e+00</_>
    <_>
      8.66680965e-02 1.44628093e-01 1.07226241e+00 4.34365384e-02
      1.01502351e-01 3.48333788e+00 3.53329992e+00 7.04162502e+00
      3.58492231e+00 9.32157707e+00</_>
    <_>
      2.74792045e-01 8.21428597e-01 1.17142856e+00 4.40438807e-01
      9.77293193e-01 3.65284228e+00 4.06988907e+00 7.94986343e+00
      4.65914392e+00 8.47401428e+00</_>
    <_>
      2.37368479e-01 3.58490556e-01 1.19691777e+00 2.24661112e-01
      4.84331965e-01 2.49708414e+00 2.60365319e+00 5.15427780e+00
      2.86181569e+00 -6.61839056e+00</_>
    <_>
      4.22955118e-02 5.55555560e-02 1.08371294e+00 -3.08036000e-01
      -6.13259017e-01 2.09706020e+00 2.11279178e+00 4.21771860e+00
      1.80810738e+00 -6.90761805e+00</_>
    <_>
      1.78831875e-01 1.33828998e-01 1.14346588e+00 3.25803794e-02
      7.94460177e-02 1.99397933e+00 2.03755689e+00 4.05332470e+00
      2.07728124e+00 7.75404406e+00</_>
    <_>
      1.30856499e-01 1.28378376e-01 1.03754413e+00 1.48917437e-01
      3.21547687e-01 3.88930082e+00 3.97655511e+00 7.90952778e+00
      4.14003086e+00 9.75286198e+00</_>
    <_>
      3.02804142e-01 3.17073166e-01 1.17781973e+00 4.82724905e-01
      1.09008193e+00 3.45072865e+00 3.75515175e+00 7.35980177e+00
      4.30851316e+00 8.41086864e+00</_>
    <_>
      1.34546876e-01 1.30541876e-01 1.16426229e+00 1.37325719e-01
      2.96839148e-01 3.23634171e+00 4.10549307e+00 -8.33834362e+00
      -4.51642084e+00 -7.79338264e+00</_>
    <_>
      1.07696183e-01 1.06918238e-01 1.21839440e+00 -3.93110476e-02
      -6.84429631e-02 1.44546378e+00 1.48660338e+00 2.95264983e+00
      1.45664620e+00 5.06596231e+00</_>
    <_>
      4.61227298e-02 5.55555560e-02 1.08987522e+00 -3.11626166e-01
      -6.20479405e-01 1.97257328e+00 1.98458076e+00 3.96315813e+00
      1.67540276e+00 -6.88389635e+00</_>
    <_>
      2.82918692e-01 3.12500000e-01 1.49197865e+00 4.94702071e-01
      1.11973035e+00 3.32734656e+00 4.21869516e+00 8.89389896e+00
      -5.33039808e+00 7.99515057e+00</_>
    <_>
      7.46191218e-02 9.90099013e-02 1.28247046e+00 -7.15850145e-02
      -1.34294927e-01 1.18358958e+00 1.21350563e+00 2.41205502e+00
      1.14774585e+00 -4.94786215e+00</_>
    <_>
      3.18326533e-01 3.03030312e-01 1.12500000e+00 5.06604254e-01
      1.15180016e+00 3.64101958e+00 4.38558435e+00 8.66587162e+00
      5.67780876e+00 8.47400379e+00</_>
    <_>
      6.85710907e-02 8.69565234e-02 1.16177773e+00 -9.83517244e-02
      -1.89280555e-01 1.55345273e+00 1.57349515e+00 3.13696957e+00
      1.47927582e+00 -6.02184153e+00</_>
    <_>
      9.88321155e-02 8.29875544e-02 1.03190768e+00 -2.68052276e-02
      -4.29980122e-02 3.03733993e+00 3.07354498e+00 6.12898779e+00
      3.05210733e+00 9.09487534e+00</_>
    <_>
      1.14419289e-01 1.20370373e-01 1.04395068e+00 7.62514248e-02
      1.69795573e-01 3.22865534e+00 3.28414917e+00 6.54055357e+00
      3.36934376e+00 9.02489853e+00</_>
    <_>
      1.20171361e-01 9.74358991e-02 1.05722070e+00 2.83622257e-02
      7.05273971e-02 2.87468719e+00 2.92073631e+00 5.81845188e+00
      2.95667791e+00 8.20598507e+00</_>
    <_>
      1.09275110e-01 1.09333336e-01 1.06742728e+00 6.23878352e-02
      1.40730217e-01 3.43109655e+00 3.60595345e+00 7.12635040e+00
      3.72274685e+00 8.15769672e+00</_>
    <_>
      1.17673136e-01 1.11111112e-01 1.05308712e+00 4.65096012e-02
      1.07913859e-01 2.58716679e+00 2.64297676e+00 5.25806856e+00
      2.69962001e+00 -7.27453375e+00</_>
    <_>
      7.07610250e-02 1.15107916e-01 1.13224638e+00 -1.01618186e-01
      -1.95802435e-01 1.22413778e+00 1.24377370e+00 2.47772956e+00
      1.14592886e+00 -5.84343386e+00</_>
    <_>
      2.32661635e-01 2.39436626e-01 1.39076972e+00 3.11048299e-01
      6.77827954e-01 2.04828978e+00 2.20954728e+00 4.33877373e+00
      2.55953670e+00 5.76277399e+00</_>
    <_>
      2.52065897e-01 6.53846145e-01 1.27331185e+00 4.72985923e-01
      1.06021845e+00 3.46617484e+00 4.00681591e+00 7.80525923e+00
      4.76364946e+00 8.04591465e+00</_>
    <_>
      3.40098083e-01 6.12244904e-01 1.28428352e+00 5.33266246e-01
      1.22451079e+00 3.75974369e+00 4.16973734e+00 8.14746952e+00
      4.85760355e+00 8.75248432e+00</_>
    <_>
      9.22942534e-02 1.26666665e-01 1.15938020e+00 2.94775907e-02
      7.24313855e-02 1.99266040e+00 2.02883506e+00 4.03958273e+00
      2.06509471e+00 -7.14077520e+00</_>
    <_>
      2.79544950e-01 1.57777774e+00 1.17331100e+00 4.17272300e-01
      9.19803619e-01 4.58175182e+00 5.13464069e+00 1.00722075e+01
      5.92056704e+00 1.02498636e+01</_>
    <_>
      1.16554528e-01 1.10070258e-01 1.10952377e+00 6.92930520e-02
      1.55150816e-01 3.06235027e+00 3.40612984e+00 6.65844393e+00
      3.62897396e+00 7.18919611e+00</_>
    <_>
      1.03922501e-01 9.77917984e-02 1.04229641e+00 -3.67481029e-03
      4.45281481e-03 2.99599624e+00 3.03652859e+00 6.05279589e+00
      3.03983283e+00 8.38494301e+00</_>
    <_>
      1.46590963e-01 1.88679248e-01 1.13859272e+00 1.11973390e-01
      2.43922234e-01 2.28863716e+00 2.48303556e+00 4.87132788e+00
      2.65931034e+00 -5.84335995e+00</_>
    <_>
      1.37703389e-01 1.61290318e-01 1.11001885e+00 1.62430033e-01
      3.50140095e-01 2.45013690e+00 2.52797461e+00 5.01705170e+00
      2.70468307e+00 -7.02096844e+00</_>
    <_>
      2.80768741e-02 5.46218492e-02 1.59853125e+00 -2.77602911e-01
      -5.51552653e-01 3.37240666e-01 3.53014410e-01 6.98142588e-01
      7.90117607e-02 3.46416712e+00</_>
    <_>
      1.49597868e-01 1.80412367e-01 1.04682314e+00 1.39961317e-01
      3.02696258e-01 3.39066505e+00 3.45984054e+00 6.88512468e+00
      3.61387157e+00 8.80560398e+00</_>
    <_>
      1.20889202e-01 1.45833328e-01 1.25029802e+00 1.23831064e-01
      2.68637687e-01 2.17288256e+00 2.22685933e+00 4.42673016e+00
      2.36121178e+00 -7.67453098e+00</_>
    <_>
      1.07696183e-01 1.06918238e-01 1.21839440e+00 -3.93110476e-02
      -6.84429631e-02 1.44546378e+00 1.48660338e+00 2.95264983e+00
      1.45664620e+00 5.06596231e+00</_>
    <_>
      3.31192702e-01 3.59281451e-01 1.42184019e+00 5.51118016e-01
      1.27526402e+00 3.88604903e+00 4.20190668e+00 8.24881363e+00
      4.86424398e+00 -9.18235970e+00</_>
    <_>
      2.58293748e-01 3.10204089e-01 1.20017362e+00 4.54836339e-01
      1.01728070e+00 2.96661568e+00 3.22331738e+00 6.31943750e+00
      3.73967218e+00 7.45618057e+00</_>
    <_>
      1.51158437e-01 1.59999996e-01 1.11692846e+00 2.25571886e-01
      4.84322578e-01 3.54721904e+00 3.74853253e+00 7.39832020e+00
      4.02239466e+00 8.42503548e+00</_>
    <_>
      1.30150095e-01 4.06779647e-01 1.19344258e+00 8.34778920e-02
      1.85033292e-01 2.03583002e+00 2.24693084e+00 4.39150810e+00
      2.39925551e+00 -5.30592537e+00</_>
    <_>
      1.32722750e-01 1.71122998e-01 1.00878501e+00 1.15647122e-01
      2.51908481e-01 3.57293081e+00 3.63239145e+00 7.23506737e+00
      3.76021838e+00 9.31258583e+00</_>
    <_>
      7.85682201e-02 1.33928567e-01 1.03374827e+00 -1.42933270e-02
      -1.74260847e-02 3.10515118e+00 3.13901973e+00 6.26110601e+00
      3.13070393e+00 -8.92459488e+00</_>
    <_>
      2.64328629e-01 3.15789461e-01 1.19807756e+00 4.64230925e-01
      1.04126942e+00 3.00552797e+00 3.27344680e+00 6.41422224e+00
      3.80204654e+00 7.52698660e+00</_>
    <_>
      2.01559320e-01 2.04081640e-01 1.19255269e+00 2.69597530e-01
      5.82791984e-01 2.40478373e+00 2.52752995e+00 4.99369097e+00
      2.81894279e+00 -7.36308384e+00</_>
    <_>
      1.25514895e-01 1.54320985e-01 1.04313135e+00 1.01617232e-01
      2.22350389e-01 3.05780149e+00 3.10761023e+00 6.19031858e+00
      3.21914101e+00 -8.65196896e+00</_>
    <_>
      7.98423663e-02 9.28571448e-02 1.07692313e+00 -4.32760455e-02
      -7.69940838e-02 2.24026036e+00 2.26513457e+00 4.51783228e+00
      2.22666645e+00 7.93756485e+00</_>
    <_>
      9.42404196e-02 9.56521705e-02 1.25509274e+00 -3.15255038e-02
      -5.26159815e-02 2.11817765e+00 2.42694902e+00 4.71205187e+00
      2.52206755e+00 -5.32498693e+00</_>
    <_>
      7.66089410e-02 1.10429451e-01 1.08238554e+00 -6.03673644e-02
      -1.11745745e-01 2.02540994e+00 2.05501390e+00 4.09522629e+00
      1.99927068e+00 -7.03832150e+00</_>
    <_>
      5.91521114e-02 9.63455141e-02 1.27513433e+00 -3.61866206e-01
      -7.21455753e-01 1.90845108e+00 2.54255176e+00 4.97391462e+00
      2.93336701e+00 -4.87450171e+00</_>
    <_>
      1.73873290e-01 2.68292695e-01 1.17847025e+00 1.98131725e-01
      4.26849544e-01 2.30569196e+00 2.52305532e+00 4.94053650e+00
      2.78951907e+00 5.86117029e+00</_>
    <_>
      9.52881947e-02 1.32596686e-01 1.03425384e+00 9.79614109e-02
      2.14805126e-01 3.40089893e+00 3.47788334e+00 6.91735506e+00
      3.59174132e+00 8.63267231e+00</_>
    <_>
      3.80503207e-01 2.09302321e-01 1.09090912e+00 3.68323624e-01
      8.07579577e-01 3.23362470e+00 3.86444020e+00 7.57731819e+00
      4.82423592e+00 7.55142879e+00</_>
    <_>
      6.79946467e-02 1.11111112e-01 1.06978393e+00 -6.73543215e-02
      -1.26123250e-01 2.99389505e+00 3.03535724e+00 6.04999828e+00
      2.97721052e+00 8.12868404e+00</_>
    <_>
      6.43116385e-02 6.62983432e-02 1.21584284e+00 -1.90339267e-01
      -3.75562996e-01 8.79590273e-01 8.94511223e-01 1.78156197e+00
      7.06799567e-01 5.13083220e+00</_>
    <_>
      5.18637061e-01 7.15447128e-01 1.29228544e+00 7.19493091e-01
      1.97572851e+00 5.47215414e+00 6.72274256e+00 1.29956932e+01
      7.93625784e+00 -1.29483004e+01</_>
    <_>
      7.07976967e-02 8.52017924e-02 1.07432020e+00 -7.85169974e-02
      -1.48765773e-01 2.41106105e+00 2.43726254e+00 4.86142445e+00
      2.36298585e+00 7.88156891e+00</_>
    <_>
      1.10656068e-01 1.43712580e-01 1.06735563e+00 9.79944170e-02
      2.14881986e-01 3.26337481e+00 3.33063555e+00 6.62764072e+00
      3.43808436e+00 -9.78693008e+00</_>
    <_>
      3.03056806e-01 2.96296299e-01 1.26598835e+00 5.06614625e-01
      1.14727092e+00 4.15247154e+00 4.84713459e+00 9.52446938e+00
      6.03283644e+00 9.47342873e+00</_>
    <_>
      2.33300492e-01 2.44019136e-01 1.24985182e+00 3.74043792e-01
      8.18242848e-01 2.83582115e+00 3.11592364e+00 6.09697008e+00
      3.57973599e+00 -6.90583563e+00</_>
    <_>
      4.94304113e-02 6.75241128e-02 1.04956150e+00 -2.08890930e-01
      -4.13304090e-01 2.53569007e+00 2.55316591e+00 5.09759378e+00
      2.34670472e+00 8.19322300e+00</_>
    <_>
      2.63721962e-02 9.52380970e-02 1.25715995e+00 -6.51040316e-01
      -1.30146766e+00 -5.28521180e-01 -5.26034892e-01 -1.05331290e+00
      -1.17655289e+00 2.91879368e+00</_>
    <_>
      7.98423663e-02 9.28571448e-02 1.07692313e+00 -4.32760455e-02
      -7.69940838e-02 2.24026036e+00 2.26513457e+00 4.51783228e+00
      2.22666645e+00 7.93756485e+00</_>
    <_>
      6.25267923e-02 8.64197537e-02 1.09745336e+00 -1.29977658e-01
      -2.53574461e-01 2.48965025e+00 2.51972318e+00 5.02441406e+00
      2.39506054e+00 7.38682508e+00</_>
    <_>
      4.75423075e-02 8.75912383e-02 1.11201084e+00 -2.46019080e-01
      -4.88362134e-01 1.51054454e+00 1.52413583e+00 3.04147625e+00
      1.28089929e+00 5.97144127e+00</_>
    <_>
      7.32153133e-02 9.25925896e-02 1.03296983e+00 8.67332239e-03
      2.98200734e-02 3.22599697e+00 3.27392268e+00 6.52389288e+00
      3.29064846e+00 8.68368053e+00</_>
    <_>
      7.49795288e-02 1.19658120e-01 1.05101776e+00 -5.61732575e-02
      -1.03261888e-01 3.10292077e+00 3.12521005e+00 6.23927641e+00
      3.07512784e+00 8.90856171e+00</_>
    <_>
      1.25537008e-01 1.14551082e-01 1.04957390e+00 6.93433657e-02
      1.55395746e-01 3.13054848e+00 3.18599200e+00 6.34426975e+00
      3.26464581e+00 8.57911491e+00</_>
    <_>
      6.83237910e-02 1.10389613e-01 1.13537443e+00 -1.13774270e-01
      -2.20718667e-01 2.35788178e+00 2.38418365e+00 4.75521946e+00
      2.27627993e+00 -7.18251181e+00</_>
    <_>
      1.03542805e-01 1.20253168e-01 1.10930741e+00 4.52661799e-04
      1.25781801e-02 3.54949164e+00 4.43985987e+00 -8.77673721e+00
      -4.61575937e+00 -8.48484993e+00</_>
    <_>
      1.00601569e-01 1.22580647e-01 1.12056434e+00 9.20083448e-02
      2.02203289e-01 2.86315775e+00 2.91559982e+00 5.80498266e+00
      3.01738977e+00 8.16300297e+00</_>
    <_>
      1.21319041e-01 1.62729666e-01 1.28813970e+00 2.17459425e-01
      4.70598429e-01 1.99340963e+00 2.14637423e+00 4.21688652e+00
      2.39851499e+00 5.48864031e+00</_>
    <_>
      8.55347514e-02 8.37696344e-02 1.05814219e+00 -1.17800087e-01
      -2.28737637e-01 2.22769070e+00 2.25099277e+00 4.49033594e+00
      2.13788295e+00 7.11172247e+00</_>
    <_>
      3.21003705e-01 3.31250012e-01 1.28295720e+00 5.37936151e-01
      1.23474693e+00 4.12136936e+00 4.59546375e+00 8.98080063e+00
      5.36042786e+00 -9.42053795e+00</_>
    <_>
      7.87320510e-02 8.13953504e-02 1.03863490e+00 -8.73553231e-02
      -1.66738942e-01 2.68659687e+00 2.72406006e+00 5.42939997e+00
      2.64447665e+00 7.57197857e+00</_>
    <_>
      1.79285079e-01 1.23376623e-01 1.07662237e+00 1.34739682e-01
      2.92058676e-01 2.95097995e+00 3.04837489e+00 6.04819727e+00
      3.20219398e+00 7.63581133e+00</_>
    <_>
      8.80622938e-02 1.12359554e-01 1.07707870e+00 -3.71994195e-03
      4.22534579e-03 2.40389562e+00 2.44030142e+00 4.86240149e+00
      2.44274354e+00 7.48676348e+00</_>
    <_>
      1.04681984e-01 1.21661723e-01 1.05311215e+00 1.08763628e-01
      2.37090901e-01 3.86381769e+00 3.94835186e+00 7.85453415e+00
      4.07474184e+00 -9.52879810e+00</_>
    <_>
      1.23900445e-02 2.45901644e-02 1.21182263e+00 -8.35896075e-01
      -1.67154181e+00 -6.74736977e-01 -6.73915088e-01 -1.34824109e+00
      -1.50958765e+00 3.45992041e+00</_>
    <_>
      1.19070731e-01 1.77777782e-01 1.09036148e+00 5.90806194e-02
      1.33728072e-01 2.39947081e+00 2.50676513e+00 4.96022081e+00
      2.59331942e+00 6.36425734e+00</_>
    <_>
      1.19618058e-01 1.31578946e+00 1.23529410e+00 3.08598429e-02
      7.54994452e-02 2.89260602e+00 3.28784990e+00 6.40775871e+00
      3.51805234e+00 -6.82488775e+00</_>
    <_>
      1.01197608e-01 1.09422490e-01 1.04690158e+00 2.12704856e-02
      5.57546616e-02 2.99137378e+00 3.03137445e+00 6.04275417e+00
      3.06048131e+00 8.34028625e+00</_>
    <_>
      2.82918692e-01 3.12500000e-01 1.49197865e+00 4.94702071e-01
      1.11973035e+00 3.32734656e+00 4.21869516e+00 8.89389896e+00
      -5.33039808e+00 7.99515057e+00</_>
    <_>
      4.01191860e-02 4.65116277e-02 1.51176476e+00 -4.58259434e-01
      -9.14848268e-01 -5.38815379e-01 -5.34699380e-01 -1.07145679e+00
      -9.92053926e-01 3.04571033e+00</_>
    <_>
      1.19923122e-01 9.09090936e-02 1.06992626e+00 -2.25678040e-03
      7.39601208e-03 2.53978634e+00 2.57553577e+00 5.13319683e+00
      2.57923412e+00 9.16708469e+00</_>
    <_>
      1.63776085e-01 3.15789461e-01 1.14201188e+00 2.12303296e-01
      4.55978990e-01 3.18790483e+00 4.08912754e+00 -8.07132435e+00
      -4.49225903e+00 7.77757454e+00</_>
    <_>
      8.89564753e-02 7.61904791e-02 1.01073730e+00 -9.87916663e-02
      -1.90033421e-01 3.18987131e+00 3.22427583e+00 6.43135738e+00
      3.13223076e+00 -8.64938354e+00</_>
    <_>
      4.85364348e-01 9.13043499e-01 1.29622269e+00 6.57217026e-01
      1.64535213e+00 4.72967434e+00 5.33949280e+00 1.04002676e+01
      6.31102228e+00 1.08463402e+01</_>
    <_>
      8.78062248e-02 1.35135129e-01 1.04032147e+00 -1.54388566e-02
      -1.98914427e-02 3.06110096e+00 3.09249759e+00 6.16929770e+00
      3.08287644e+00 8.87620926e+00</_>
    <_>
      2.75887519e-01 7.54385948e-01 1.14441085e+00 4.00843471e-01
      8.81768465e-01 3.53023601e+00 3.91878128e+00 7.66410351e+00
      4.46496868e+00 -8.16281700e+00</_>
    <_>
      2.73128539e-01 3.37209314e-01 1.17559528e+00 5.11256576e-01
      1.16233337e+00 3.37931228e+00 3.88655996e+00 7.55397987e+00
      4.60089016e+00 7.93607855e+00</_>
    <_>
      1.16323084e-01 8.64197537e-02 1.03110349e+00 -8.43817927e-03
      -5.28980745e-03 3.21640968e+00 3.25459743e+00 6.49010134e+00
      3.25201821e+00 -9.53167534e+00</_>
    <_>
      1.30049869e-01 1.48148149e-01 1.36648250e+00 1.80716380e-01
      3.88219357e-01 2.87867522e+00 2.94798398e+00 5.86132717e+00
      3.14407229e+00 7.96372747e+00</_>
    <_>
      1.56119898e-01 1.11570247e-01 1.02489805e+00 8.37194622e-02
      1.85251430e-01 5.01905680e+00 5.85279989e+00 -1.22749224e+01
      -6.35246325e+00 -1.12910547e+01</_>
    <_>
      9.55247954e-02 1.08974360e-01 1.11971152e+00 4.35844362e-02
      1.01510055e-01 3.15309048e+00 3.21205091e+00 6.39464951e+00
      3.26658583e+00 8.33756828e+00</_>
    <_>
      6.82585239e-02 8.64197537e-02 1.06918240e+00 -1.22060537e-01
      -2.37494841e-01 2.79591513e+00 2.83351660e+00 5.64824152e+00
      2.71813512e+00 7.82901621e+00</_>
    <_>
      7.79445171e-02 1.18110240e-01 1.06902730e+00 -2.34682802e-02
      -3.64125408e-02 3.17862773e+00 3.24277306e+00 6.45353889e+00
      3.23397732e+00 8.21398067e+00</_>
    <_>
      4.63198125e-02 9.80392173e-02 1.12710083e+00 -2.68633634e-01
      -5.33912957e-01 1.47375882e+00 1.48439813e+00 2.96347666e+00
      1.21755552e+00 6.41770887e+00</_>
    <_>
      5.12138866e-02 6.20689653e-02 1.07494366e+00 -2.42081836e-01
      -4.80338573e-01 2.42382956e+00 2.44552445e+00 4.88020372e+00
      2.20806289e+00 -7.35819054e+00</_>
    <_>
      1.53731003e-01 1.15485564e-01 1.04411983e+00 6.33016154e-02
      1.42766774e-01 3.65471530e+00 3.73292875e+00 7.42689562e+00
      3.81963921e+00 -9.01466274e+00</_>
    <_>
      1.07696183e-01 1.06918238e-01 1.21839440e+00 -3.93110476e-02
      -6.84429631e-02 1.44546378e+00 1.48660338e+00 2.95264983e+00
      1.45664620e+00 5.06596231e+00</_>
    <_>
      3.50941360e-01 5.00000000e-01 1.34552097e+00 5.36869347e-01
      1.23457670e+00 3.76264691e+00 4.13848019e+00 8.09679699e+00
      4.80091953e+00 8.81653118e+00</_>
    <_>
      7.26437494e-02 9.09090936e-02 1.23529410e+00 -9.49752480e-02
      -1.82112128e-01 9.89160240e-01 1.00852013e+00 2.00736022e+00
      9.17499840e-01 -5.47203159e+00</_>
    <_>
      7.87320510e-02 8.13953504e-02 1.03863490e+00 -8.73553231e-02
      -1.66738942e-01 2.68659687e+00 2.72406006e+00 5.42939997e+00
      2.64447665e+00 7.57197857e+00</_>
    <_>
      1.07510187e-01 9.28270072e-02 1.05412769e+00 3.85160255e-03
      1.99411362e-02 3.00203395e+00 3.03964877e+00 6.06049299e+00
      3.05042601e+00 8.47487259e+00</_>
    <_>
      3.21318582e-02 5.19031137e-02 1.35588932e+00 -2.86949366e-01
      -5.70470333e-01 1.78727984e-01 1.87729046e-01 3.70957613e-01
      -9.72176641e-02 3.67307925e+00</_>
    <_>
      7.77364001e-02 1.00694448e-01 1.01647604e+00 3.56983691e-02
      8.56027529e-02 3.36421514e+00 3.41290712e+00 6.80146885e+00
      3.45579791e+00 9.55234528e+00</_>
    <_>
      5.82454577e-02 1.26373634e-01 1.11052215e+00 -1.28667086e-01
      -2.50863165e-01 1.85638714e+00 1.87989604e+00 3.74803877e+00
      1.75546026e+00 6.37392139e+00</_>
    <_>
      2.03296050e-01 2.81588435e-01 1.08614898e+00 3.38309616e-01
      7.36109912e-01 3.51588035e+00 3.68110681e+00 7.27960205e+00
      4.04916191e+00 -9.87156487e+00</_>
    <_>
      1.26320004e-01 1.43790856e-01 1.11564195e+00 1.22332938e-01
      2.65436441e-01 2.82064724e+00 2.87711334e+00 5.72599697e+00
      3.01030016e+00 8.13032627e+00</_>
    <_>
      7.71890432e-02 8.55263174e-02 1.14895153e+00 -8.66091400e-02
      -1.65530413e-01 2.38311458e+00 2.40419149e+00 4.79784536e+00
      2.32246804e+00 -7.51335049e+00</_>
    <_>
      4.35598999e-01 4.86486495e-01 1.15573776e+00 5.16764462e-01
      1.18187928e+00 3.80614090e+00 4.22520638e+00 8.24088287e+00
      4.81623316e+00 1.07034016e+01</_>
    <_>
      1.37596279e-01 1.42857149e-01 1.07037306e+00 1.51887909e-01
      3.28023285e-01 3.43310738e+00 3.51270461e+00 6.98565578e+00
      3.68034911e+00 8.82753468e+00</_>
    <_>
      2.82918692e-01 3.12500000e-01 1.49197865e+00 4.94702071e-01
      1.11973035e+00 3.32734656e+00 4.21869516e+00 8.89389896e+00
      -5.33039808e+00 7.99515057e+00</_>
    <_>
      1.14624076e-01 1.18226603e-01 1.04798067e+00 9.93928760e-02
      2.17800081e-01 3.00012589e+00 3.05956626e+00 6.08941555e+00
      3.16885519e+00 -8.50166130e+00</_>
    <_>
      5.91521114e-02 9.63455141e-02 1.27513433e+00 -3.61866206e-01
      -7.21455753e-01 1.90845108e+00 2.54255176e+00 4.97391462e+00
      2.93336701e+00 -4.87450171e+00</_>
    <_>
      1.43785045e-01 1.39534891e-01 1.03713143e+00 1.17637701e-01
      2.56096661e-01 3.65420651e+00 3.72476363e+00 7.41428995e+00
      3.85641003e+00 9.27602100e+00</_>
    <_>
      9.17718932e-02 1.36904761e-01 1.08128476e+00 9.50839445e-02
      2.08681136e-01 2.70645571e+00 2.76153040e+00 5.49552345e+00
      2.86588693e+00 -8.67434216e+00</_>
    <_>
      3.05762351e-01 4.70588237e-01 1.44112146e+00 5.33075750e-01
      1.22201800e+00 3.61943507e+00 3.88312912e+00 7.63455868e+00
      4.50086212e+00 9.21864510e+00</_>
    <_>
      1.15385070e-01 1.91489369e-01 1.31724143e+00 -1.08509511e-02
      -1.01742009e-02 1.98704600e+00 2.19169688e+00 4.28414965e+00
      2.24933958e+00 -5.20659733e+00</_>
    <_>
      1.21649042e-01 1.09090909e-01 1.04782605e+00 6.67078793e-02
      1.49934858e-01 3.11529779e+00 3.16743517e+00 6.30880308e+00
      3.24262142e+00 8.89537430e+00</_>
    <_>
      5.93560189e-02 6.84931502e-02 1.15261126e+00 -1.62886664e-01
      -3.20166290e-01 1.25671101e+00 1.27348554e+00 2.53858376e+00
      1.11347520e+00 -5.89112425e+00</_>
    <_>
      6.79946467e-02 1.11111112e-01 1.06978393e+00 -6.73543215e-02
      -1.26123250e-01 2.99389505e+00 3.03535724e+00 6.04999828e+00
      2.97721052e+00 8.12868404e+00</_>
    <_>
      1.41939580e-01 1.08888888e+00 1.13879406e+00 1.83536202e-01
      3.94420922e-01 3.25805616e+00 3.71373343e+00 7.24736118e+00
      4.15200806e+00 -7.55202627e+00</_>
    <_>
      1.13840111e-01 1.10481590e-01 1.03141320e+00 6.81492314e-02
      1.52818263e-01 3.51631260e+00 3.58387828e+00 7.13403177e+00
      3.66659880e+00 8.92014027e+00</_>
    <_>
      1.17019653e-01 8.79828334e-02 1.04153109e+00 -1.83337815e-02
      -2.56945491e-02 3.16000462e+00 3.21221161e+00 6.39835072e+00
      3.20459986e+00 8.32053661e+00</_>
    <_>
      8.28988180e-02 1.36690646e-01 1.07341063e+00 -2.99801468e-03
      5.43106999e-03 2.47483134e+00 2.50827789e+00 4.99983263e+00
      2.51103449e+00 8.08557415e+00</_>
    <_>
      1.43955663e-01 1.08247422e-01 1.04791641e+00 9.05553326e-02
      1.99398100e-01 3.29281878e+00 3.34949875e+00 6.67066479e+00
      3.44990063e+00 8.91647625e+00</_>
    <_>
      1.30229369e-01 9.09090936e-01 1.06122446e+00 1.81772798e-01
      3.91175181e-01 2.86407089e+00 3.28188801e+00 6.38844347e+00
      3.67060518e+00 6.77679968e+00</_>
    <_>
      1.04890123e-01 7.63052180e-02 1.06197214e+00 -7.59784728e-02
      -1.43487662e-01 2.51225471e+00 2.54384494e+00 5.07189703e+00
      2.47296953e+00 7.57137394e+00</_>
    <_>
      1.22248925e-01 1.48760334e-01 9.97040093e-01 6.94816411e-02
      1.55538559e-01 3.82698655e+00 3.87471414e+00 7.72558165e+00
      3.95611262e+00 -9.77911854e+00</_>
    <_>
      8.96749869e-02 9.00473967e-02 1.03667903e+00 -9.10556465e-02
      -1.74283549e-01 2.39605355e+00 2.43017912e+00 4.84330225e+00
      2.34567237e+00 -7.09058142e+00</_>
    <_>
      2.29518130e-01 9.09090936e-02 1.03355539e+00 -2.43495870e-02
      -3.78363989e-02 3.50638223e+00 3.55971861e+00 7.09279203e+00
      3.54486537e+00 -9.07804012e+00</_>
    <_>
      1.11072749e-01 3.87096763e-01 1.01428568e+00 6.03067223e-03
      2.42646337e-02 2.70248461e+00 3.66159940e+00 -6.84763384e+00
      -3.67552996e+00 7.71338892e+00</_>
    <_>
      8.38997364e-02 1.07526883e-01 1.28677154e+00 -4.34050150e-02
      -7.71220028e-02 1.27282941e+00 1.29519618e+00 2.57920933e+00
      1.25696623e+00 5.52597666e+00</_>
    <_>
      7.17901066e-02 1.08490564e-01 1.28035557e+00 -7.74888620e-02
      -1.46326527e-01 1.00810230e+00 1.03021288e+00 2.04937077e+00
      9.57282901e-01 -5.05506039e+00</_>
    <_>
      1.10186674e-01 1.27725855e-01 1.10319448e+00 8.84632617e-02
      1.94533959e-01 2.98179865e+00 3.12897110e+00 6.18536043e+00
      3.26000905e+00 -7.35226583e+00</_>
    <_>
      1.46283671e-01 1.36363640e-01 1.07027614e+00 1.73079014e-01
      3.72817099e-01 3.48564339e+00 3.60763168e+00 7.15467882e+00
      3.80822587e+00 -8.51668262e+00</_>
    <_>
      7.42575675e-02 9.77011472e-02 1.10494363e+00 -1.41043335e-01
      -2.75820911e-01 1.54738426e+00 1.56596148e+00 3.12263441e+00
      1.42806482e+00 6.74833441e+00</_>
    <_>
      2.29518130e-01 9.09090936e-02 1.03355539e+00 -2.43495870e-02
      -3.78363989e-02 3.50638223e+00 3.55971861e+00 7.09279203e+00
      3.54486537e+00 -9.07804012e+00</_>
    <_>
      3.92392725e-01 3.67346942e-01 1.23636365e+00 5.86199939e-01
      1.38373947e+00 4.68533564e+00 4.98437738e+00 9.82168007e+00
      5.69437933e+00 1.07946501e+01</_>
    <_>
      2.73128539e-01 3.37209314e-01 1.17559528e+00 5.11256576e-01
      1.16233337e+00 3.37931228e+00 3.88655996e+00 7.55397987e+00
      4.60089016e+00 7.93607855e+00</_>
    <_>
      1.79285079e-01 1.23376623e-01 1.07662237e+00 1.34739682e-01
      2.92058676e-01 2.95097995e+00 3.04837489e+00 6.04819727e+00
      3.20219398e+00 7.63581133e+00</_>
    <_>
      9.72218588e-02 1.05633803e-01 1.07192719e+00 2.71925088e-02
      6.76745251e-02 2.59856009e+00 2.63305330e+00 5.24886036e+00
      2.66696429e+00 8.31319141e+00</_>
    <_>
      3.05488646e-01 8.33333313e-01 1.15951967e+00 4.92389202e-01
      1.11098957e+00 3.89134097e+00 4.41070652e+00 8.60366344e+00
      5.12635803e+00 8.93945503e+00</_>
    <_>
      1.48591504e-01 1.54838711e-01 1.09842587e+00 2.16096178e-01
      4.64395911e-01 3.27618980e+00 3.43423939e+00 6.79053450e+00
      3.69535637e+00 -7.94158983e+00</_>
    <_>
      6.30970076e-02 6.95187151e-02 1.01637721e+00 -1.22823998e-01
      -2.39036411e-01 2.34036469e+00 2.36337757e+00 4.71524906e+00
      2.24417567e+00 7.61995363e+00</_>
    <_>
      3.33117276e-01 3.39506179e-01 1.28210056e+00 5.48868120e-01
      1.26647592e+00 4.23301935e+00 4.69980049e+00 9.19045639e+00
      5.46998644e+00 -9.65428162e+00</_>
    <_>
      9.41000208e-02 1.42857149e-01 1.06037664e+00 9.92932394e-02
      2.17592940e-01 2.75437999e+00 2.81090736e+00 5.59355450e+00
      2.92010045e+00 -8.00969028e+00</_>
    <_>
      1.03266053e-01 1.12582780e-01 1.10218143e+00 8.86566564e-02
      1.95386738e-01 2.58268070e+00 2.63833237e+00 5.24883938e+00
      2.73614526e+00 -8.02221489e+00</_>
    <_>
      3.30279358e-02 4.54545468e-02 1.54252195e+00 -4.68929052e-01
      -9.36325073e-01 -3.91924828e-01 -3.87807220e-01 -7.77673244e-01
      -8.55944693e-01 -3.42305470e+00</_>
    <_>
      1.74624830e-01 1.86666667e-01 1.05452526e+00 1.94484249e-01
      4.18045700e-01 4.38462782e+00 4.57824612e+00 9.06176090e+00
      4.82211685e+00 -1.00702438e+01</_>
    <_>
      2.73128539e-01 3.37209314e-01 1.17559528e+00 5.11256576e-01
      1.16233337e+00 3.37931228e+00 3.88655996e+00 7.55397987e+00
      4.60089016e+00 7.93607855e+00</_>
    <_>
      9.56797525e-02 8.89830515e-02 1.03534591e+00 -1.89131852e-02
      -2.68161874e-02 3.00260901e+00 3.04173970e+00 6.06391668e+00
      3.02896428e+00 8.52120304e+00</_>
    <_>
      1.37703389e-01 1.61290318e-01 1.11001885e+00 1.62430033e-01
      3.50140095e-01 2.45013690e+00 2.52797461e+00 5.01705170e+00
      2.70468307e+00 -7.02096844e+00</_>
    <_>
      1.12257436e-01 1.19999997e-01 1.10554290e+00 1.29534364e-01
      2.80482829e-01 3.08863163e+00 3.15077972e+00 6.27052355e+00
      3.29621530e+00 8.14620018e+00</_>
    <_>
      1.11340426e-01 1.20370373e-01 1.06074417e+00 8.44361931e-02
      1.86683223e-01 3.42936039e+00 3.53227997e+00 7.01337528e+00
      3.64207006e+00 8.46189022e+00</_>
    <_>
      1.17390998e-01 1.55844152e-01 1.09682536e+00 1.41068727e-01
      3.04769427e-01 2.92033076e+00 2.98553491e+00 5.93847084e+00
      3.13822031e+00 -8.36054611e+00</_>
    <_>
      1.07510187e-01 9.28270072e-02 1.05412769e+00 3.85160255e-03
      1.99411362e-02 3.00203395e+00 3.03964877e+00 6.06049299e+00
      3.05042601e+00 8.47487259e+00</_>
    <_>
      5.69475368e-02 7.52688199e-02 1.06213868e+00 -1.30347595e-01
      -2.54167646e-01 2.54656601e+00 2.56652808e+00 5.12307501e+00
      2.43945646e+00 8.98314571e+00</_>
    <_>
      9.71031338e-02 1.38576776e-01 1.17214918e+00 8.39928463e-02
      1.85944989e-01 2.00881028e+00 2.09745598e+00 4.15076256e+00
      2.20585442e+00 5.69976473e+00</_>
    <_>
      1.44492537e-01 1.48936167e-01 1.32692313e+00 2.00753137e-01
      4.31309700e-01 2.40901899e+00 2.46842027e+00 4.90714264e+00
      2.68407726e+00 -7.35766649e+00</_>
    <_>
      9.30300951e-02 1.13095239e-01 1.09870720e+00 4.59693931e-02
      1.06448546e-01 3.06638908e+00 3.13057303e+00 6.22910118e+00
      3.18963146e+00 8.06092358e+00</_>
    <_>
      3.18326533e-01 3.03030312e-01 1.12500000e+00 5.06604254e-01
      1.15180016e+00 3.64101958e+00 4.38558435e+00 8.66587162e+00
      5.67780876e+00 8.47400379e+00</_>
    <_>
      9.56797525e-02 8.89830515e-02 1.03534591e+00 -1.89131852e-02
      -2.68161874e-02 3.00260901e+00 3.04173970e+00 6.06391668e+00
      3.02896428e+00 8.52120304e+00</_>
    <_>
      1.82048574e-01 2.52976179e-01 1.23409963e+00 3.37092757e-01
      7.34099567e-01 2.90145707e+00 3.04160643e+00 6.01331425e+00
      3.41244364e+00 7.55845213e+00</_>
    <_>
      9.24388617e-02 1.21212125e-01 1.07692313e+00 3.37851769e-03
      1.88290868e-02 2.33614802e+00 2.37574291e+00 4.73168898e+00
      2.38535929e+00 -7.45836878e+00</_>
    <_>
      5.04416712e-02 5.46448082e-02 1.22558928e+00 -2.61951715e-01
      -5.20439804e-01 9.65767801e-01 9.74014699e-01 1.94390595e+00
      7.13832676e-01 -5.86319208e+00</_>
    <_>
      6.24445915e-01 4.33333337e-01 1.07241905e+00 6.26414418e-01
      1.54321253e+00 4.28875923e+00 5.12826729e+00 1.02339535e+01
      7.06204224e+00 -9.87478733e+00</_>
    <_>
      1.11944407e-01 9.27536264e-02 1.36672390e+00 -1.42480999e-01
      -2.78155446e-01 7.43192673e-01 7.62775838e-01 1.51576006e+00
      6.23710573e-01 -5.15640640e+00</_>
    <_>
      9.35671851e-02 1.48936167e-01 1.14143300e+00 3.39251831e-02
      8.15414190e-02 2.20387554e+00 2.24164581e+00 4.46440649e+00
      2.28241849e+00 -8.66348743e+00</_>
    <_>
      2.48225793e-01 8.90625000e-01 1.11946154e+00 2.71965235e-01
      5.87864578e-01 2.82282138e+00 3.18087029e+00 6.19997358e+00
      3.58609200e+00 6.74117756e+00</_>
    <_>
      7.09139407e-02 8.33333358e-02 1.26994681e+00 -9.47642773e-02
      -1.82070285e-01 2.36662912e+00 2.50387192e+00 4.94001675e+00
      2.45143104e+00 -6.13220310e+00</_>
    <_>
      4.52145301e-02 5.10204099e-02 1.27631581e+00 -3.20010066e-01
      -6.37174070e-01 1.43865868e-01 1.50553942e-01 2.97763854e-01
      -1.68015555e-01 -4.42706013e+00</_>
    <_>
      1.06314905e-01 1.45251393e-01 1.04954123e+00 3.49833891e-02
      8.38750824e-02 3.40541339e+00 3.48540020e+00 6.93092775e+00
      3.53730273e+00 -8.55841732e+00</_>
    <_>
      5.89684620e-02 9.30232555e-02 1.04729939e+00 -1.50097564e-01
      -2.94347495e-01 3.13368988e+00 3.14635181e+00 6.28637266e+00
      2.99919105e+00 -1.01163778e+01</_>
    <_>
      4.35598999e-01 4.86486495e-01 1.15573776e+00 5.16764462e-01
      1.18187928e+00 3.80614090e+00 4.22520638e+00 8.24088287e+00
      4.81623316e+00 1.07034016e+01</_>
    <_>
      1.09649636e-01 1.54320985e-01 1.08207703e+00 1.11619197e-01
      2.43185252e-01 3.38677692e+00 3.44262028e+00 6.85731888e+00
      3.56423235e+00 1.02046442e+01</_>
    <_>
      1.29443109e-01 1.17788464e-01 1.11618316e+00 3.13902386e-02
      7.68091157e-02 2.08256769e+00 2.12635732e+00 4.23082113e+00
      2.16502786e+00 -6.82388544e+00</_>
    <_>
      1.20889202e-01 1.45833328e-01 1.25029802e+00 1.23831064e-01
      2.68637687e-01 2.17288256e+00 2.22685933e+00 4.42673016e+00
      2.36121178e+00 -7.67453098e+00</_>
    <_>
      9.07995775e-02 1.21212125e-01 1.08376467e+00 1.80312316e-03
      1.55823287e-02 2.33239961e+00 2.37029123e+00 4.72163677e+00
      2.37811542e+00 -7.85127735e+00</_>
    <_>
      1.19070731e-01 1.77777782e-01 1.09036148e+00 5.90806194e-02
      1.33728072e-01 2.39947081e+00 2.50676513e+00 4.96022081e+00
      2.59331942e+00 6.36425734e+00</_>
    <_>
      7.97463953e-02 7.80669153e-02 1.02587855e+00 -6.43243790e-02
      -1.19824819e-01 2.80271935e+00 2.83674908e+00 5.65648317e+00
      2.77683663e+00 9.77253437e+00</_>
    <_>
      1.01197608e-01 1.09422490e-01 1.04690158e+00 2.12704856e-02
      5.57546616e-02 2.99137378e+00 3.03137445e+00 6.04275417e+00
      3.06048131e+00 8.34028625e+00</_>
    <_>
      3.39433908e-01 3.87755096e-01 1.16986704e+00 5.67851186e-01
      1.32515311e+00 4.83795738e+00 5.61926174e+00 1.09261360e+01
      6.43295527e+00 -1.11074247e+01</_>
    <_>
      5.93852326e-02 6.70103058e-02 1.08526754e+00 -1.56999379e-01
      -3.08275104e-01 1.75485837e+00 1.77414572e+00 3.53864813e+00
      1.62057281e+00 6.34913778e+00</_>
    <_>
      8.83240625e-02 1.00000001e-01 1.41541183e+00 -5.12536839e-02
      -9.30986255e-02 1.58658922e+00 1.64600611e+00 3.26235271e+00
      1.61057341e+00 -5.08557844e+00</_>
    <_>
      9.87741053e-02 5.90909064e-01 9.88505721e-01 3.18861380e-02
      7.70755410e-02 3.38790464e+00 3.49304700e+00 6.93385553e+00
      3.54956985e+00 -8.34107113e+00</_>
    <_>
      4.77920584e-02 1.37931034e-01 1.12721896e+00 -2.44607672e-01
      -4.85462904e-01 3.50751948e+00 3.60605240e+00 7.16315556e+00
      3.38271379e+00 8.58071327e+00</_>
    <_>
      1.21319041e-01 1.62729666e-01 1.28813970e+00 2.17459425e-01
      4.70598429e-01 1.99340963e+00 2.14637423e+00 4.21688652e+00
      2.39851499e+00 5.48864031e+00</_>
    <_>
      4.25813675e-01 3.87640446e-01 1.10670996e+00 5.59403837e-01
      1.30485022e+00 3.85440373e+00 4.61798382e+00 9.02816486e+00
      5.58514214e+00 -8.98351192e+00</_>
    <_>
      5.21969795e-01 5.51724136e-01 1.29629624e+00 7.02465534e-01
      1.85825014e+00 5.10652065e+00 6.06940889e+00 1.19197626e+01
      7.55851746e+00 1.17344198e+01</_>
    <_>
      1.78831875e-01 1.33828998e-01 1.14346588e+00 3.25803794e-02
      7.94460177e-02 1.99397933e+00 2.03755689e+00 4.05332470e+00
      2.07728124e+00 7.75404406e+00</_>
    <_>
      3.05488646e-01 8.33333313e-01 1.15951967e+00 4.92389202e-01
      1.11098957e+00 3.89134097e+00 4.41070652e+00 8.60366344e+00
      5.12635803e+00 8.93945503e+00</_>
    <_>
      8.27252418e-02 9.65517238e-02 1.18850219e+00 -9.13769007e-02
      -1.74920097e-01 1.31911826e+00 1.33949506e+00 2.66880178e+00
      1.25203502e+00 6.77507591e+00</_>
    <_>
      1.66576296e-01 2.67281115e-01 1.03916061e+00 3.19463402e-01
      6.93383336e-01 4.56749487e+00 4.74607611e+00 9.40429115e+00
      5.11855793e+00 1.04943314e+01</_>
    <_>
      1.07696183e-01 1.06918238e-01 1.21839440e+00 -3.93110476e-02
      -6.84429631e-02 1.44546378e+00 1.48660338e+00 2.95264983e+00
      1.45664620e+00 5.06596231e+00</_>
    <_>
      1.33984119e-01 1.07954547e-01 1.04377043e+00 6.62503466e-02
      1.48747995e-01 3.50717688e+00 3.59611964e+00 7.14795399e+00
      3.68284655e+00 8.68177509e+00</_>
    <_>
      3.50941360e-01 5.00000000e-01 1.34552097e+00 5.36869347e-01
      1.23457670e+00 3.76264691e+00 4.13848019e+00 8.09679699e+00
      4.80091953e+00 8.81653118e+00</_>
    <_>
      3.30279358e-02 4.54545468e-02 1.54252195e+00 -4.68929052e-01
      -9.36325073e-01 -3.91924828e-01 -3.87807220e-01 -7.77673244e-01
      -8.55944693e-01 -3.42305470e+00</_>
    <_>
      1.47376344e-01 9.17721540e-02 1.31998575e+00 -1.41600460e-01
      -2.76483536e-01 8.26169014e-01 8.45895052e-01 1.68192708e+00
      7.07671463e-01 -5.20351028e+00</_>
    <_>
      1.23049349e-01 8.94941613e-02 1.04007387e+00 5.58126904e-03
      2.34971829e-02 3.09853411e+00 3.14272141e+00 6.26336002e+00
      3.15677333e+00 8.41479397e+00</_>
    <_>
      5.04416712e-02 5.46448082e-02 1.22558928e+00 -2.61951715e-01
      -5.20439804e-01 9.65767801e-01 9.74014699e-01 1.94390595e+00
      7.13832676e-01 -5.86319208e+00</_>
    <_>
      9.22942534e-02 1.26666665e-01 1.15938020e+00 2.94775907e-02
      7.24313855e-02 1.99266040e+00 2.02883506e+00 4.03958273e+00
      2.06509471e+00 -7.14077520e+00</_>
    <_>
      6.28526509e-02 1.09677419e-01 1.10363925e+00 -1.62431434e-01
      -3.19366813e-01 1.99640334e+00 2.01415992e+00 4.01944160e+00
      1.85466731e+00 7.12907267e+00</_>
    <_>
      9.07995775e-02 1.21212125e-01 1.08376467e+00 1.80312316e-03
      1.55823287e-02 2.33239961e+00 2.37029123e+00 4.72163677e+00
      2.37811542e+00 -7.85127735e+00</_>
    <_>
      1.33096755e-01 1.09375000e-01 1.05385792e+00 6.58256933e-02
      1.47865057e-01 3.77141190e+00 3.83487177e+00 7.63807392e+00
      3.91576600e+00 9.41501808e+00</_>
    <_>
      7.32317343e-02 1.31386861e-01 1.15745044e+00 -6.86988905e-02
      -1.28923595e-01 1.72522891e+00 1.74851406e+00 3.48538566e+00
      1.68407667e+00 6.96521473e+00</_>
    <_>
      1.24669194e-01 1.02857143e-01 1.04407430e+00 4.22990993e-02
      9.91296098e-02 3.38957834e+00 3.47160935e+00 6.90234995e+00
      3.53275943e+00 8.48715401e+00</_>
    <_>
      1.25514895e-01 1.54320985e-01 1.04313135e+00 1.01617232e-01
      2.22350389e-01 3.05780149e+00 3.10761023e+00 6.19031858e+00
      3.21914101e+00 -8.65196896e+00</_>
    <_>
      1.00849114e-01 1.09090909e-01 1.02771854e+00 7.86568522e-02
      1.74638495e-01 3.23219442e+00 3.28765798e+00 6.54758501e+00
      3.37510276e+00 9.23603821e+00</_>
    <_>
      3.92392725e-01 3.67346942e-01 1.23636365e+00 5.86199939e-01
      1.38373947e+00 4.68533564e+00 4.98437738e+00 9.82168007e+00
      5.69437933e+00 1.07946501e+01</_>
    <_>
      1.37260124e-01 9.72222209e-01 1.10352945e+00 1.08415589e-01
      2.36666888e-01 3.04947639e+00 3.54751658e+00 6.91479921e+00
      3.96729040e+00 -7.12912512e+00</_>
    <_>
      1.12061009e-01 1.32596686e-01 1.02471602e+00 8.89322311e-02
      1.96033910e-01 3.38477159e+00 3.44965434e+00 6.86688805e+00
      3.54966950e+00 8.87471867e+00</_>
    <_>
      9.56818163e-02 9.52380970e-02 1.19285047e+00 -2.64360271e-02
      -4.20590751e-02 1.62214768e+00 1.65331471e+00 3.29104590e+00
      1.63228595e+00 -7.44436169e+00</_>
    <_>
      9.35293287e-02 1.26843661e-01 1.07542574e+00 4.15491834e-02
      9.74753872e-02 3.12589097e+00 3.17790675e+00 6.32983065e+00
      3.23204851e+00 -8.29573631e+00</_>
    <_>
      7.71890432e-02 8.55263174e-02 1.14895153e+00 -8.66091400e-02
      -1.65530413e-01 2.38311458e+00 2.40419149e+00 4.79784536e+00
      2.32246804e+00 -7.51335049e+00</_>
    <_>
      2.15737805e-01 1.96754560e-01 1.21818852e+00 3.08500797e-01
      6.70282781e-01 2.26360321e+00 2.40043139e+00 4.73247433e+00
      2.73615026e+00 6.69573164e+00</_>
    <_>
      3.56152803e-01 4.31372553e-01 1.21645021e+00 5.54243624e-01
      1.28654921e+00 4.21404743e+00 4.99203014e+00 9.90406227e+00
      6.32489204e+00 -9.65494728e+00</_>
    <_>
      6.11893125e-02 6.48648664e-02 1.18605328e+00 -1.72454402e-01
      -3.39672387e-01 1.43045568e+00 1.44327176e+00 2.88013554e+00
      1.27352035e+00 -6.39886093e+00</_>
    <_>
      1.12061009e-01 1.32596686e-01 1.02471602e+00 8.89322311e-02
      1.96033910e-01 3.38477159e+00 3.44965434e+00 6.86688805e+00
      3.54966950e+00 8.87471867e+00</_>
    <_>
      8.66680965e-02 1.44628093e-01 1.07226241e+00 4.34365384e-02
      1.01502351e-01 3.48333788e+00 3.53329992e+00 7.04162502e+00
      3.58492231e+00 9.32157707e+00</_>
    <_>
      5.04964553e-02 8.86075944e-02 1.22399616e+00 -2.46174097e-01
      -4.88482326e-01 7.63184965e-01 7.74248481e-01 1.54296517e+00
      5.30007362e-01 6.17948771e+00</_>
    <_>
      8.27252418e-02 9.65517238e-02 1.18850219e+00 -9.13769007e-02
      -1.74920097e-01 1.31911826e+00 1.33949506e+00 2.66880178e+00
      1.25203502e+00 6.77507591e+00</_>
    <_>
      1.16554528e-01 1.10070258e-01 1.10952377e+00 6.92930520e-02
      1.55150816e-01 3.06235027e+00 3.40612984e+00 6.65844393e+00
      3.62897396e+00 7.18919611e+00</_>
    <_>
      3.01532090e-01 3.18181813e-01 1.16948688e+00 4.82710779e-01
      1.08999121e+00 3.46638584e+00 3.76835513e+00 7.38657713e+00
      4.31679535e+00 8.58944035e+00</_>
    <_>
      4.23507094e-01 3.94366205e-01 1.17354858e+00 6.08819604e-01
      1.46483374e+00 3.80762339e+00 4.34896040e+00 8.42850494e+00
      5.08264732e+00 9.54729557e+00</_>
    <_>
      8.66680965e-02 1.44628093e-01 1.07226241e+00 4.34365384e-02
      1.01502351e-01 3.48333788e+00 3.53329992e+00 7.04162502e+00
      3.58492231e+00 9.32157707e+00</_>
    <_>
      8.52776915e-02 1.33891210e-01 1.02964270e+00 -5.33826509e-03
      9.51515918e-04 3.55273104e+00 3.60044169e+00 7.17704296e+00
      3.60381889e+00 -9.25721264e+00</_>
    <_>
      2.63721962e-02 9.52380970e-02 1.25715995e+00 -6.51040316e-01
      -1.30146766e+00 -5.28521180e-01 -5.26034892e-01 -1.05331290e+00
      -1.17655289e+00 2.91879368e+00</_>
    <_>
      5.58836125e-02 1.02189779e-01 1.15942025e+00 -1.99978620e-01
      -3.95190209e-01 7.30985701e-01 7.42836118e-01 1.47974694e+00
      5.45274019e-01 -5.18330622e+00</_>
    <_>
      1.43785045e-01 1.39534891e-01 1.03713143e+00 1.17637701e-01
      2.56096661e-01 3.65420651e+00 3.72476363e+00 7.41428995e+00
      3.85641003e+00 9.27602100e+00</_>
    <_>
      1.33366689e-01 1.45390064e-01 1.03535879e+00 7.20576197e-02
      1.60970509e-01 3.83461809e+00 3.91485381e+00 7.78967619e+00
      4.00213289e+00 -9.48912811e+00</_>
    <_>
      1.79061741e-01 8.50000024e-01 1.31612909e+00 2.96908855e-01
      6.41010821e-01 3.11503696e+00 3.20944285e+00 6.37174129e+00
      3.53449655e+00 8.15559864e+00</_>
    <_>
      2.63721962e-02 9.52380970e-02 1.25715995e+00 -6.51040316e-01
      -1.30146766e+00 -5.28521180e-01 -5.26034892e-01 -1.05331290e+00
      -1.17655289e+00 2.91879368e+00</_>
    <_>
      6.83237910e-02 1.10389613e-01 1.13537443e+00 -1.13774270e-01
      -2.20718667e-01 2.35788178e+00 2.38418365e+00 4.75521946e+00
      2.27627993e+00 -7.18251181e+00</_>
    <_>
      8.78062248e-02 1.35135129e-01 1.04032147e+00 -1.54388566e-02
      -1.98914427e-02 3.06110096e+00 3.09249759e+00 6.16929770e+00
      3.08287644e+00 8.87620926e+00</_>
    <_>
      2.79676348e-01 3.78378391e-01 1.42942941e+00 2.87158310e-01
      6.25002146e-01 2.40831757e+00 3.24642682e+00 8.07731342e+00
      -4.06282139e+00 6.07382011e+00</_>
    <_>
      1.41297162e-01 1.82432428e-01 1.10830069e+00 2.13954151e-01
      4.59891707e-01 3.85564232e+00 4.12440920e+00 8.12151623e+00
      4.43180084e+00 8.86130428e+00</_>
    <_>
      1.30049869e-01 1.48148149e-01 1.36648250e+00 1.80716380e-01
      3.88219357e-01 2.87867522e+00 2.94798398e+00 5.86132717e+00
      3.14407229e+00 7.96372747e+00</_>
    <_>
      1.96027577e-01 1.98630139e-01 1.16344643e+00 2.46298358e-01
      5.30304134e-01 2.56125855e+00 2.66031981e+00 5.27116013e+00
      2.92810059e+00 7.08417416e+00</_>
    <_>
      3.63382041e-01 3.68421048e-01 1.14532018e+00 5.91198444e-01
      1.40175653e+00 4.10373402e+00 4.73197174e+00 9.19915199e+00
      5.57082796e+00 9.49585629e+00</_>
    <_>
      1.18216969e-01 1.19402982e-01 1.05598855e+00 1.11508898e-01
      2.42992878e-01 3.72500634e+00 3.75905681e+00 7.50109053e+00
      3.88111258e+00 -9.99568844e+00</_>
    <_>
      1.54944852e-01 5.71428597e-01 1.20121956e+00 1.07322149e-01
      2.34331846e-01 2.59033561e+00 3.26714182e+00 6.46519661e+00
      4.42021179e+00 6.27004147e+00</_>
    <_>
      1.07510187e-01 9.28270072e-02 1.05412769e+00 3.85160255e-03
      1.99411362e-02 3.00203395e+00 3.03964877e+00 6.06049299e+00
      3.05042601e+00 8.47487259e+00</_>
    <_>
      7.27793574e-02 8.27586204e-02 1.22672844e+00 -1.03901245e-01
      -2.00170487e-01 1.23025703e+00 1.25217378e+00 2.49338913e+00
      1.15208864e+00 6.94257021e+00</_>
    <_>
      1.15571238e-01 7.90513828e-02 1.03804874e+00 -5.33794239e-02
      -9.73378345e-02 2.97322989e+00 3.01009536e+00 6.00176001e+00
      2.96188521e+00 8.54498386e+00</_>
    <_>
      4.79921341e-01 5.50000012e-01 1.21520150e+00 6.43902004e-01
      1.59357738e+00 4.47179127e+00 5.27496052e+00 1.02154264e+01
      6.20404053e+00 1.04360666e+01</_>
    <_>
      3.00003499e-01 3.16666663e-01 1.16843843e+00 4.81236339e-01
      1.08575678e+00 3.48816442e+00 3.78143430e+00 7.41738558e+00
      4.32977533e+00 8.55442619e+00</_>
    <_>
      1.43070847e-01 1.30434781e-01 1.06246543e+00 1.25887215e-01
      2.73035675e-01 3.36510873e+00 3.46164417e+00 6.87521267e+00
      3.60932779e+00 8.40168476e+00</_>
    <_>
      5.28266095e-02 8.33333358e-02 1.29012346e+00 -1.53747886e-01
      -3.01717401e-01 1.39684784e+00 1.42094362e+00 2.82984185e+00
      1.27268517e+00 -5.30659723e+00</_>
    <_>
      1.31331995e-01 1.16541356e-01 1.12092102e+00 1.24235094e-01
      2.69250304e-01 3.42757559e+00 3.47684717e+00 6.92909193e+00
      3.61857367e+00 8.83688068e+00</_>
    <_>
      4.85364348e-01 9.13043499e-01 1.29622269e+00 6.57217026e-01
      1.64535213e+00 4.72967434e+00 5.33949280e+00 1.04002676e+01
      6.31102228e+00 1.08463402e+01</_>
    <_>
      4.79921341e-01 5.50000012e-01 1.21520150e+00 6.43902004e-01
      1.59357738e+00 4.47179127e+00 5.27496052e+00 1.02154264e+01
      6.20404053e+00 1.04360666e+01</_>
    <_>
      9.74075049e-02 7.27272749e-01 1.31034482e+00 1.25064328e-02
      3.75198387e-02 2.88184142e+00 3.46163964e+00 6.76378679e+00
      3.97668290e+00 -6.80605745e+00</_>
    <_>
      4.78748828e-02 4.92957756e-02 1.19745219e+00 -2.95029193e-01
      -5.87093353e-01 9.24201727e-01 9.32890713e-01 1.86143696e+00
      6.39876246e-01 -5.10507727e+00</_>
    <_>
      6.63012192e-02 1.25560537e-01 1.06812894e+00 -6.31468967e-02
      -1.17402762e-01 2.85055804e+00 2.87747550e+00 5.74149275e+00
      2.81888390e+00 -8.74950695e+00</_>
    <_>
      1.30507216e-01 8.62745121e-02 1.03723872e+00 -1.20364744e-02
      -1.26702907e-02 3.17307544e+00 3.21689224e+00 6.41187859e+00
      3.21101165e+00 8.87596035e+00</_>
    <_>
      8.76845047e-02 1.00917429e-01 1.03296196e+00 4.99280244e-02
      1.14965662e-01 3.42752409e+00 3.48427153e+00 6.94018507e+00
      3.54370928e+00 9.00767899e+00</_>
    <_>
      9.03171524e-02 1.21212125e-01 1.13838553e+00 -5.76587990e-02
      -1.06206305e-01 1.67162538e+00 1.69570720e+00 3.37937355e+00
      1.64264965e+00 -6.79124403e+00</_>
    <_>
      5.19905724e-02 8.80503133e-02 1.21489966e+00 -2.45277688e-01
      -4.86644715e-01 7.50327229e-01 7.61829257e-01 1.51790750e+00
      5.18507481e-01 -6.39298582e+00</_>
    <_>
      5.01947165e-01 5.35714269e-01 1.29949665e+00 6.92465603e-01
      1.80457866e+00 5.07891321e+00 5.98016882e+00 1.17121716e+01
      7.32539558e+00 1.16183367e+01</_>
    <_>
      1.03637859e-01 1.28526643e-01 1.05884242e+00 6.09275438e-02
      1.37599200e-01 3.28158402e+00 3.32844210e+00 6.63346958e+00
      3.40081143e+00 -8.72138977e+00</_>
    <_>
      3.91303003e-02 2.54237279e-02 8.79353225e-01 -7.38948762e-01
      -1.47749746e+00 8.12555850e-03 9.56518296e-03 1.84105542e-02
      -7.29117811e-01 -4.45630026e+00</_>
    <_>
      1.25537008e-01 1.14551082e-01 1.04957390e+00 6.93433657e-02
      1.55395746e-01 3.13054848e+00 3.18599200e+00 6.34426975e+00
      3.26464581e+00 8.57911491e+00</_>
    <_>
      7.66144469e-02 1.22580647e-01 1.10019398e+00 -8.24441165e-02
      -1.56774834e-01 1.78983009e+00 1.81344581e+00 3.61508393e+00
      1.73524356e+00 -6.59560394e+00</_>
    <_>
      8.55347514e-02 8.37696344e-02 1.05814219e+00 -1.17800087e-01
      -2.28737637e-01 2.22769070e+00 2.25099277e+00 4.49033594e+00
      2.13788295e+00 7.11172247e+00</_>
    <_>
      1.16323084e-01 8.64197537e-02 1.03110349e+00 -8.43817927e-03
      -5.28980745e-03 3.21640968e+00 3.25459743e+00 6.49010134e+00
      3.25201821e+00 -9.53167534e+00</_>
    <_>
      8.20284635e-02 8.11965838e-02 1.03594303e+00 -6.46667928e-02
      -1.20422028e-01 2.77853990e+00 2.81058097e+00 5.60514259e+00
      2.75091147e+00 8.18322372e+00</_>
    <_>
      2.95888156e-01 3.13725501e-01 1.17702270e+00 4.75500166e-01
      1.07104516e+00 3.43868876e+00 3.73152018e+00 7.31738567e+00
      4.27025414e+00 8.54471588e+00</_>
    <_>
      3.56152803e-01 4.31372553e-01 1.21645021e+00 5.54243624e-01
      1.28654921e+00 4.21404743e+00 4.99203014e+00 9.90406227e+00
      6.32489204e+00 -9.65494728e+00</_>
    <_>
      6.87010810e-02 1.24087594e-01 1.07820010e+00 -8.09433088e-02
      -1.53950185e-01 2.10711861e+00 2.13036466e+00 4.24910641e+00
      2.05349016e+00 7.34747839e+00</_>
    <_>
      2.17273980e-01 9.25925896e-02 1.13230264e+00 -1.42922819e-01
      -2.79501796e-01 1.56564772e+00 1.58616912e+00 3.16207767e+00
      1.44650185e+00 -6.37107611e+00</_>
    <_>
      3.73825282e-01 6.25000000e-01 1.27725852e+00 6.16687715e-01
      1.48599112e+00 4.63941336e+00 5.14741516e+00 1.00414295e+01
      5.89104414e+00 -1.13203297e+01</_>
    <_>
      2.37195805e-01 9.81012657e-02 1.34562325e+00 -1.14519179e-01
      -2.21354768e-01 8.52833509e-01 8.74770820e-01 1.73857296e+00
      7.64099836e-01 -5.45329714e+00</_>
    <_>
      6.62199855e-02 1.12068966e-01 1.05326879e+00 -1.07134998e-01
      -2.07107469e-01 2.82878089e+00 2.84554982e+00 5.68271542e+00
      2.74288154e+00 8.60635185e+00</_>
    <_>
      8.29361230e-02 1.26353785e-01 1.06163979e+00 -8.35337862e-02
      -1.58930928e-01 2.31300354e+00 2.33939672e+00 4.66559649e+00
      2.25993156e+00 9.29336357e+00</_>
    <_>
      8.38997364e-02 1.07526883e-01 1.28677154e+00 -4.34050150e-02
      -7.71220028e-02 1.27282941e+00 1.29519618e+00 2.57920933e+00
      1.25696623e+00 5.52597666e+00</_>
    <_>
      8.34603980e-02 7.53138065e-02 1.03214288e+00 -7.25062564e-02
      -1.36421666e-01 2.81278300e+00 2.84257197e+00 5.67024946e+00
      2.77441621e+00 8.75201893e+00</_>
    <_>
      1.41939580e-01 1.08888888e+00 1.13879406e+00 1.83536202e-01
      3.94420922e-01 3.25805616e+00 3.71373343e+00 7.24736118e+00
      4.15200806e+00 -7.55202627e+00</_>
    <_>
      1.04532897e-01 1.09999999e-01 1.05623341e+00 7.11827576e-02
      1.58994377e-01 3.28170776e+00 3.33737659e+00 6.64691925e+00
      3.41696644e+00 -9.43231869e+00</_>
    <_>
      1.06307715e-01 1.08465612e-01 1.03972042e+00 5.18757664e-02
      1.18862763e-01 3.82861781e+00 3.85476351e+00 7.69645548e+00
      3.91568923e+00 -1.03277502e+01</_>
    <_>
      1.28282711e-01 1.12781957e-01 1.06007659e+00 7.93782696e-02
      1.76167905e-01 3.07235718e+00 3.12906122e+00 6.22977114e+00
      3.21721339e+00 9.03722095e+00</_>
    <_>
      7.34912902e-02 8.58895704e-02 1.14798892e+00 -8.56463537e-02
      -1.63523450e-01 2.03706384e+00 2.05606604e+00 4.10263109e+00
      1.97431457e+00 7.94397306e+00</_>
    <_>
      1.48591504e-01 1.54838711e-01 1.09842587e+00 2.16096178e-01
      4.64395911e-01 3.27618980e+00 3.43423939e+00 6.79053450e+00
      3.69535637e+00 -7.94158983e+00</_>
    <_>
      1.30507216e-01 8.62745121e-02 1.03723872e+00 -1.20364744e-02
      -1.26702907e-02 3.17307544e+00 3.21689224e+00 6.41187859e+00
      3.21101165e+00 8.87596035e+00</_>
    <_>
      8.66680965e-02 1.44628093e-01 1.07226241e+00 4.34365384e-02
      1.01502351e-01 3.48333788e+00 3.53329992e+00 7.04162502e+00
      3.58492231e+00 9.32157707e+00</_>
    <_>
      1.19658731e-01 5.05882382e-01 1.54019749e+00 -1.49885908e-01
      -2.93087155e-01 1.74421716e+00 2.44034553e+00 4.86137915e+00
      3.89261341e+00 -4.58658981e+00</_>
    <_>
      1.11072749e-01 3.87096763e-01 1.01428568e+00 6.03067223e-03
      2.42646337e-02 2.70248461e+00 3.66159940e+00 -6.84763384e+00
      -3.67552996e+00 7.71338892e+00</_>
    <_>
