<?xml version="1.0"?>
<opencv_storage>
<opencv_ml_svm>
  <format>3</format>
  <svmType>C_SVC</svmType>
  <kernel>
    <type>LINEAR</type></kernel>
  <C>1.</C>
  <term_criteria><iterations>10000000</iterations></term_criteria>
  <var_count>10</var_count>
  <class_count>2</class_count>
  <class_labels type_id="opencv-matrix">
    <rows>2</rows>
    <cols>1</cols>
    <dt>i</dt>
    <data>
      0 1</data></class_labels>
  <sv_total>1</sv_total>
  <support_vectors>
    <_>
      1.90940595e+00 5.01167488e+00 5.62981033e+00 -9.72952127e-01
      3.31007659e-01 -2.60910940e+00 1.93979001e+00 3.41941748e-04
      2.71733701e-02 -1.27898937e-03</_></support_vectors>
  <uncompressed_sv_total>330</uncompressed_sv_total>
  <uncompressed_support_vectors>
    <_>
      1.23108491e-01 1.05381168e-01 1.05415392e+00 4.69678529e-02
      1.08785704e-01 3.67299104e+00 3.73499346e+00 7.43904400e+00
      3.79669356e+00 9.22445393e+00</_>
    <_>
      9.03171524e-02 1.21212125e-01 1.13838553e+00 -5.76587990e-02
      -1.06206305e-01 1.67162538e+00 1.69570720e+00 3.37937355e+00
      1.64264965e+00 -6.79124403e+00</_>
    <_>
      1.01781547e-01 8.10810775e-02 1.07445252e+00 -5.88759929e-02
      -1.08577982e-01 2.25641179e+00 2.28427529e+00 4.55461884e+00
      2.22998738e+00 8.24733448e+00</_>
    <_>
      2.78576553e-01 2.27272734e-01 1.07852757e+00 3.98444533e-01
      8.76827061e-01 3.42643476e+00 4.13093328e+00 8.17703533e+00
      5.40677166e+00 7.98455524e+00</_>
    <_>
      8.15844014e-02 1.11111112e-01 1.08329678e+00 -6.50162846e-02
      -1.21302612e-01 2.69313240e+00 2.72645855e+00 5.43626022e+00
      2.66851473e+00 -7.70590544e+00</_>
    <_>
      1.44492537e-01 1.48936167e-01 1.32692313e+00 2.00753137e-01
      4.31309700e-01 2.40901899e+00 2.46842027e+00 4.90714264e+00
      2.68407726e+00 -7.35766649e+00</_>
    <_>
      2.26510003e-01 2.31958762e-01 1.30737674e+00 3.19299936e-01
      6.92441463e-01 2.58889437e+00 2.77598333e+00 5.45950270e+00
      3.14846921e+00 6.61056662e+00</_>
    <_>
      2.20009238e-01 2.85714298e-01 1.14327478e+00 4.27736014e-01
      9.48763251e-01 3.58790708e+00 3.80278325e+00 7.49829102e+00
      4.27978134e+00 -9.06103992e+00</_>
    <_>
      1.80396587e-01 1.15183249e-01 1.09655511e+00 9.23360437e-02
      2.03101158e-01 2.79879975e+00 2.87407398e+00 5.71060467e+00
      2.98534608e+00 -7.39269447e+00</_>
    <_>
      7.01584965e-02 7.65306130e-02 1.07510209e+00 -9.05092582e-02
      -1.73224330e-01 2.08172941e+00 2.10814619e+00 4.20308542e+00
      2.02245927e+00 6.77385712e+00</_>
    <_>
      1.91544965e-01 2.75862068e-01 1.09508193e+00 3.55103731e-01
      7.73453474e-01 3.65343833e+00 3.80674601e+00 7.53729391e+00
      4.20475435e+00 8.87608147e+00</_>
    <_>
      6.26539066e-02 1.02857143e-01 1.04984057e+00 -2.82173216e-01
      -5.61158657e-01 3.13050222e+00 3.13793325e+00 6.27215099e+00
      2.85757661e+00 9.65776348e+00</_>
    <_>
      2.87582278e-01 3.28313261e-01 1.15197706e+00 4.75674808e-01
      1.07026362e+00 3.56206417e+00 3.84890509e+00 7.55514479e+00
      4.38801146e+00 8.78418255e+00</_>
    <_>
      2.87582278e-01 3.28313261e-01 1.15197706e+00 4.75674808e-01
      1.07026362e+00 3.56206417e+00 3.84890509e+00 7.55514479e+00
      4.38801146e+00 8.78418255e+00</_>
    <_>
      3.92392725e-01 3.67346942e-01 1.23636365e+00 5.86199939e-01
      1.38373947e+00 4.68533564e+00 4.98437738e+00 9.82168007e+00
      5.69437933e+00 1.07946501e+01</_>
    <_>
      3.92392725e-01 3.67346942e-01 1.23636365e+00 5.86199939e-01
      1.38373947e+00 4.68533564e+00 4.98437738e+00 9.82168007e+00
      5.69437933e+00 1.07946501e+01</_>
    <_>
      1.10478319e-01 1.40000001e-01 1.17108572e+00 2.43773293e-02
      6.21282160e-02 1.79857123e+00 1.83768022e+00 3.65580654e+00
      1.86889195e+00 -6.42673206e+00</_>
    <_>
      7.01584965e-02 7.65306130e-02 1.07510209e+00 -9.05092582e-02
      -1.73224330e-01 2.08172941e+00 2.10814619e+00 4.20308542e+00
      2.02245927e+00 6.77385712e+00</_>
    <_>
      8.10645223e-02 1.23853214e-01 1.25799787e+00 1.00465864e-01
      2.21054375e-01 1.95249748e+00 2.02881145e+00 4.01949978e+00
      2.14278293e+00 -5.92449093e+00</_>
    <_>
      1.37703389e-01 1.61290318e-01 1.11001885e+00 1.62430033e-01
      3.50140095e-01 2.45013690e+00 2.52797461e+00 5.01705170e+00
      2.70468307e+00 -7.02096844e+00</_>
    <_>
      1.57183215e-01 1.41975313e-01 1.07720590e+00 1.68678761e-01
      3.63185138e-01 3.43629646e+00 3.55186415e+00 7.04628277e+00
      3.74802279e+00 8.44965935e+00</_>
    <_>
      6.90169632e-02 8.66666660e-02 1.14358604e+00 -9.36122164e-02
      -1.79581031e-01 1.51783347e+00 1.53807068e+00 3.06602263e+00
      1.44829309e+00 6.69217873e+00</_>
    <_>
      2.66623437e-01 2.92817682e-01 1.16866684e+00 4.66749370e-01
      1.04713917e+00 3.61940122e+00 3.88685489e+00 7.64010954e+00
      4.41068888e+00 9.25720119e+00</_>
    <_>
      1.56839192e-01 1.75925925e-01 1.06761467e+00 1.42795965e-01
      3.08772445e-01 3.83980632e+00 4.09165621e+00 8.06359196e+00
      4.33103180e+00 8.83250713e+00</_>
    <_>
      2.03296050e-01 2.81588435e-01 1.08614898e+00 3.38309616e-01
      7.36109912e-01 3.51588035e+00 3.68110681e+00 7.27960205e+00
      4.04916191e+00 -9.87156487e+00</_>
    <_>
      5.04964553e-02 8.86075944e-02 1.22399616e+00 -2.46174097e-01
      -4.88482326e-01 7.63184965e-01 7.74248481e-01 1.54296517e+00
      5.30007362e-01 6.17948771e+00</_>
    <_>
      7.09139407e-02 8.33333358e-02 1.26994681e+00 -9.47642773e-02
      -1.82070285e-01 2.36662912e+00 2.50387192e+00 4.94001675e+00
      2.45143104e+00 -6.13220310e+00</_>
    <_>
      1.13183178e-01 1.32450327e-01 1.12115896e+00 1.15859710e-01
      2.51914263e-01 2.49923062e+00 2.55315113e+00 5.07934237e+00
      2.67927241e+00 -7.81649494e+00</_>
    <_>
      1.03379354e-01 1.08187132e-01 1.23049188e+00 -9.10319202e-03
      -5.91146434e-03 1.16097379e+00 1.19406629e+00 2.37158680e+00
      1.19122052e+00 5.29383564e+00</_>
    <_>
      8.84011388e-02 8.35579485e-02 1.03632390e+00 -9.23258811e-02
      -1.76904157e-01 4.41591311e+00 5.28885841e+00 -1.05855913e+01
      -5.41945076e+00 1.01712885e+01</_>
    <_>
      1.34546876e-01 1.30541876e-01 1.16426229e+00 1.37325719e-01
      2.96839148e-01 3.23634171e+00 4.10549307e+00 -8.33834362e+00
      -4.51642084e+00 -7.79338264e+00</_>
    <_>
      8.13825652e-02 1.12994350e-01 1.10130513e+00 -1.83800250e-01
      -3.62565011e-01 3.64219666e+00 3.65322304e+00 7.30093288e+00
      3.47205114e+00 1.05389261e+01</_>
    <_>
      8.99955332e-02 1.43884897e-01 1.13827240e+00 6.69782469e-03
      2.54329462e-02 2.09639287e+00 2.12999272e+00 4.24318552e+00
      2.14273643e+00 7.52918911e+00</_>
    <_>
      1.03379354e-01 1.08187132e-01 1.23049188e+00 -9.10319202e-03
      -5.91146434e-03 1.16097379e+00 1.19406629e+00 2.37158680e+00
      1.19122052e+00 5.29383564e+00</_>
    <_>
      9.87741053e-02 5.90909064e-01 9.88505721e-01 3.18861380e-02
      7.70755410e-02 3.38790464e+00 3.49304700e+00 6.93385553e+00
      3.54956985e+00 -8.34107113e+00</_>
    <_>
      9.52900276e-02 1.11111112e-01 1.18770766e+00 2.12708209e-02
      5.57671934e-02 1.56981850e+00 1.60446405e+00 3.19160557e+00
      1.63241398e+00 -6.27807474e+00</_>
    <_>
      1.04130439e-01 1.20879121e-01 1.14683545e+00 2.22751871e-02
      5.75435534e-02 2.10915112e+00 2.15263319e+00 4.28353453e+00
      2.18454814e+00 -6.46553421e+00</_>
    <_>
      9.87741053e-02 5.90909064e-01 9.88505721e-01 3.18861380e-02
      7.70755410e-02 3.38790464e+00 3.49304700e+00 6.93385553e+00
      3.54956985e+00 -8.34107113e+00</_>
    <_>
      1.70387849e-01 1.86666667e-01 1.07343781e+00 1.88249096e-01
      4.04714435e-01 4.94640732e+00 5.82436800e+00 -1.17121162e+01
      -6.31022215e+00 -1.12323732e+01</_>
    <_>
      1.03542805e-01 1.20253168e-01 1.10930741e+00 4.52661799e-04
      1.25781801e-02 3.54949164e+00 4.43985987e+00 -8.77673721e+00
      -4.61575937e+00 -8.48484993e+00</_>
    <_>
      7.32317343e-02 1.31386861e-01 1.15745044e+00 -6.86988905e-02
      -1.28923595e-01 1.72522891e+00 1.74851406e+00 3.48538566e+00
      1.68407667e+00 6.96521473e+00</_>
    <_>
      8.13825652e-02 1.12994350e-01 1.10130513e+00 -1.83800250e-01
      -3.62565011e-01 3.64219666e+00 3.65322304e+00 7.30093288e+00
      3.47205114e+00 1.05389261e+01</_>
    <_>
      8.04303885e-02 1.35922328e-01 1.04754996e+00 -9.42353234e-02
      -1.80747524e-01 2.59413838e+00 2.62663245e+00 5.23702192e+00
      2.53772092e+00 -7.61818027e+00</_>
    <_>
      1.27800286e-01 1.30434781e-01 1.08620381e+00 1.39644653e-01
      3.01960528e-01 3.06104565e+00 3.12754250e+00 6.22184324e+00
      3.27914262e+00 8.48533058e+00</_>
    <_>
      3.98289114e-02 4.11311053e-02 1.09096014e+00 -4.85536307e-01
      -9.69807386e-01 8.83269072e-01 9.04366374e-01 1.79818702e+00
      4.23964590e-01 4.23552132e+00</_>
    <_>
      7.09139407e-02 8.33333358e-02 1.26994681e+00 -9.47642773e-02
      -1.82070285e-01 2.36662912e+00 2.50387192e+00 4.94001675e+00
      2.45143104e+00 -6.13220310e+00</_>
    <_>
      6.43084794e-02 1.00000001e-01 1.18138158e+00 -1.49550736e-01
      -2.93119341e-01 1.23751307e+00 1.25525880e+00 2.50164485e+00
      1.10869968e+00 -7.25415230e+00</_>
    <_>
      1.03266053e-01 1.12582780e-01 1.10218143e+00 8.86566564e-02
      1.95386738e-01 2.58268070e+00 2.63833237e+00 5.24883938e+00
      2.73614526e+00 -8.02221489e+00</_>
    <_>
      4.61227298e-02 5.55555560e-02 1.08987522e+00 -3.11626166e-01
      -6.20479405e-01 1.97257328e+00 1.98458076e+00 3.96315813e+00
      1.67540276e+00 -6.88389635e+00</_>
    <_>
      1.56839192e-01 1.75925925e-01 1.06761467e+00 1.42795965e-01
      3.08772445e-01 3.83980632e+00 4.09165621e+00 8.06359196e+00
      4.33103180e+00 8.83250713e+00</_>
    <_>
      4.78748828e-02 4.92957756e-02 1.19745219e+00 -2.95029193e-01
      -5.87093353e-01 9.24201727e-01 9.32890713e-01 1.86143696e+00
      6.39876246e-01 -5.10507727e+00</_>
    <_>
      6.43116385e-02 6.62983432e-02 1.21584284e+00 -1.90339267e-01
      -3.75562996e-01 8.79590273e-01 8.94511223e-01 1.78156197e+00
      7.06799567e-01 5.13083220e+00</_>
    <_>
      4.94304113e-02 6.75241128e-02 1.04956150e+00 -2.08890930e-01
      -4.13304090e-01 2.53569007e+00 2.55316591e+00 5.09759378e+00
      2.34670472e+00 8.19322300e+00</_>
    <_>
      1.24462269e-01 1.35483876e-01 1.13922489e+00 1.28783047e-01
      2.79052824e-01 2.75100350e+00 2.81092286e+00 5.59188890e+00
      2.95096326e+00 -8.04764843e+00</_>
    <_>
      9.17718932e-02 1.36904761e-01 1.08128476e+00 9.50839445e-02
      2.08681136e-01 2.70645571e+00 2.76153040e+00 5.49552345e+00
      2.86588693e+00 -8.67434216e+00</_>
    <_>
      2.71122962e-01 3.01948041e-01 1.15933383e+00 4.49197471e-01
      1.00339031e+00 3.44077134e+00 3.73810339e+00 7.33127165e+00
      4.26499224e+00 8.21186447e+00</_>
    <_>
      6.72250390e-02 9.93788838e-02 1.17457998e+00 -1.49380311e-01
      -2.92739511e-01 1.22075891e+00 1.23906684e+00 2.46897960e+00
      1.09270000e+00 -6.61556959e+00</_>
    <_>
      6.79020360e-02 1.31868139e-01 1.12233281e+00 -8.47300515e-02
      -1.61587045e-01 3.33793902e+00 3.41449547e+00 6.79085255e+00
      3.35073471e+00 -8.38623047e+00</_>
    <_>
      3.91303003e-02 2.54237279e-02 8.79353225e-01 -7.38948762e-01
      -1.47749746e+00 8.12555850e-03 9.56518296e-03 1.84105542e-02
      -7.29117811e-01 -4.45630026e+00</_>
    <_>
      6.87010810e-02 1.24087594e-01 1.07820010e+00 -8.09433088e-02
      -1.53950185e-01 2.10711861e+00 2.13036466e+00 4.24910641e+00
      2.05349016e+00 7.34747839e+00</_>
    <_>
      5.58836125e-02 1.02189779e-01 1.15942025e+00 -1.99978620e-01
      -3.95190209e-01 7.30985701e-01 7.42836118e-01 1.47974694e+00
      5.45274019e-01 -5.18330622e+00</_>
    <_>
      6.92817196e-02 6.40000030e-02 1.10222220e+00 -1.58048660e-01
      -3.10507953e-01 2.14467001e+00 2.16749406e+00 4.32357788e+00
      2.01406193e+00 6.86237955e+00</_>
    <_>
      1.19923122e-01 9.09090936e-02 1.06992626e+00 -2.25678040e-03
      7.39601208e-03 2.53978634e+00 2.57553577e+00 5.13319683e+00
      2.57923412e+00 9.16708469e+00</_>
    <_>
      1.70090035e-01 1.80000007e-01 1.09050775e+00 2.32196540e-01
      4.99141753e-01 3.41505361e+00 3.52533364e+00 6.99572659e+00
      3.78361773e+00 8.51436901e+00</_>
    <_>
      2.13629931e-01 2.55813956e-01 1.09565222e+00 4.37038749e-01
      9.75397944e-01 3.19510436e+00 3.84687948e+00 7.54393721e+00
      4.88997078e+00 -7.49552822e+00</_>
    <_>
      6.36581704e-02 1.27071828e-01 1.10695326e+00 -1.19589768e-01
      -2.32522860e-01 2.97753215e+00 3.02070522e+00 6.01984501e+00
      2.91101861e+00 -8.02742386e+00</_>
    <_>
      9.42404196e-02 9.56521705e-02 1.25509274e+00 -3.15255038e-02
      -5.26159815e-02 2.11817765e+00 2.42694902e+00 4.71205187e+00
      2.52206755e+00 -5.32498693e+00</_>
    <_>
      7.49624074e-02 1.74757287e-01 1.17452002e+00 -1.23779424e-01
      -2.40829661e-01 2.17492390e+00 2.30378389e+00 4.54388237e+00
      2.21790767e+00 -5.77585125e+00</_>
    <_>
      1.04890123e-01 7.63052180e-02 1.06197214e+00 -7.59784728e-02
      -1.43487662e-01 2.51225471e+00 2.54384494e+00 5.07189703e+00
      2.47296953e+00 7.57137394e+00</_>
    <_>
      9.89755318e-02 1.08843535e-01 1.16386151e+00 -1.56865120e-02
      -2.02995334e-02 1.70495784e+00 1.73414958e+00 3.45370317e+00
      1.72400296e+00 -8.42147446e+00</_>
    <_>
      1.91544965e-01 2.75862068e-01 1.09508193e+00 3.55103731e-01
      7.73453474e-01 3.65343833e+00 3.80674601e+00 7.53729391e+00
      4.20475435e+00 8.87608147e+00</_>
    <_>
      9.44370702e-02 1.06666669e-01 1.06003428e+00 6.06796481e-02
      1.37104094e-01 2.66335797e+00 2.70807338e+00 5.39378977e+00
      2.77674317e+00 -8.18416309e+00</_>
    <_>
      1.19070731e-01 1.77777782e-01 1.09036148e+00 5.90806194e-02
      1.33728072e-01 2.39947081e+00 2.50676513e+00 4.96022081e+00
      2.59331942e+00 6.36425734e+00</_>
    <_>
      1.46590963e-01 1.88679248e-01 1.13859272e+00 1.11973390e-01
      2.43922234e-01 2.28863716e+00 2.48303556e+00 4.87132788e+00
      2.65931034e+00 -5.84335995e+00</_>
    <_>
      4.77920584e-02 1.37931034e-01 1.12721896e+00 -2.44607672e-01
      -4.85462904e-01 3.50751948e+00 3.60605240e+00 7.16315556e+00
      3.38271379e+00 8.58071327e+00</_>
    <_>
      2.03296050e-01 2.81588435e-01 1.08614898e+00 3.38309616e-01
      7.36109912e-01 3.51588035e+00 3.68110681e+00 7.27960205e+00
      4.04916191e+00 -9.87156487e+00</_>
    <_>
      9.87741053e-02 5.90909064e-01 9.88505721e-01 3.18861380e-02
      7.70755410e-02 3.38790464e+00 3.49304700e+00 6.93385553e+00
      3.54956985e+00 -8.34107113e+00</_>
    <_>
      1.70387849e-01 1.86666667e-01 1.07343781e+00 1.88249096e-01
      4.04714435e-01 4.94640732e+00 5.82436800e+00 -1.17121162e+01
      -6.31022215e+00 -1.12323732e+01</_>
    <_>
      1.46843985e-01 1.33333340e-01 1.09454298e+00 8.71727690e-02
      1.92136914e-01 2.89924669e+00 2.95689654e+00 5.88499403e+00
      3.05711079e+00 -7.84471560e+00</_>
    <_>
      2.26510003e-01 2.31958762e-01 1.30737674e+00 3.19299936e-01
      6.92441463e-01 2.58889437e+00 2.77598333e+00 5.45950270e+00
      3.14846921e+00 6.61056662e+00</_>
    <_>
      1.23026945e-01 1.56378597e-01 1.01801109e+00 8.62546563e-02
      1.90485924e-01 4.69863987e+00 5.52152443e+00 -1.19776335e+01
      -6.00072670e+00 -1.06320477e+01</_>
    <_>
      1.07098304e-01 1.03869654e-01 1.07776892e+00 6.21389635e-02
      1.40039548e-01 3.94277382e+00 4.03396940e+00 8.02262115e+00
      4.12550879e+00 9.46708584e+00</_>
    <_>
      6.86186627e-02 7.00000003e-02 1.18562877e+00 -1.56213582e-01
      -3.06563020e-01 9.64395940e-01 9.79962170e-01 1.95214117e+00
      8.26699495e-01 -5.71014118e+00</_>
    <_>
      1.44492537e-01 1.48936167e-01 1.32692313e+00 2.00753137e-01
      4.31309700e-01 2.40901899e+00 2.46842027e+00 4.90714264e+00
      2.68407726e+00 -7.35766649e+00</_>
    <_>
      1.09391451e-01 1.13378681e-01 1.04371464e+00 6.03087246e-02
      1.36289626e-01 4.67248821e+00 4.68700838e+00 9.36676979e+00
      4.75965881e+00 1.14874916e+01</_>
    <_>
      1.16924040e-01 1.17381491e-01 1.04500747e+00 7.91475624e-02
      1.75413892e-01 4.77737951e+00 4.78546143e+00 9.56689453e+00
      4.87598467e+00 1.16876516e+01</_>
    <_>
      1.79285079e-01 1.23376623e-01 1.07662237e+00 1.34739682e-01
      2.92058676e-01 2.95097995e+00 3.04837489e+00 6.04819727e+00
      3.20219398e+00 7.63581133e+00</_>
    <_>
      3.16428423e-01 2.50000000e-01 1.08672941e+00 4.42771852e-01
      9.85259712e-01 3.50659299e+00 4.27761984e+00 8.59940720e+00
      -6.75163651e+00 8.20203304e+00</_>
    <_>
      1.04418516e-01 1.40845075e-01 1.20799994e+00 1.11634053e-01
      2.42807209e-01 2.80976629e+00 2.85487175e+00 5.68719149e+00
      2.97630143e+00 -8.51566982e+00</_>
    <_>
      5.38413264e-02 1.22222222e-01 1.08793104e+00 -1.56897813e-01
      -3.08179051e-01 2.96999192e+00 3.01975203e+00 6.01466084e+00
      2.87587285e+00 -7.90107012e+00</_>
    <_>
      9.03171524e-02 1.21212125e-01 1.13838553e+00 -5.76587990e-02
      -1.06206305e-01 1.67162538e+00 1.69570720e+00 3.37937355e+00
      1.64264965e+00 -6.79124403e+00</_>
    <_>
      7.07610250e-02 1.15107916e-01 1.13224638e+00 -1.01618186e-01
      -1.95802435e-01 1.22413778e+00 1.24377370e+00 2.47772956e+00
      1.14592886e+00 -5.84343386e+00</_>
    <_>
      2.71122962e-01 3.01948041e-01 1.15933383e+00 4.49197471e-01
      1.00339031e+00 3.44077134e+00 3.73810339e+00 7.33127165e+00
      4.26499224e+00 8.21186447e+00</_>
    <_>
      1.26813933e-01 1.35135129e-01 1.11258090e+00 1.09002173e-01
      2.37892747e-01 2.42544866e+00 2.47836590e+00 4.93027401e+00
      2.59744978e+00 7.58825827e+00</_>
    <_>
      6.26539066e-02 1.02857143e-01 1.04984057e+00 -2.82173216e-01
      -5.61158657e-01 3.13050222e+00 3.13793325e+00 6.27215099e+00
      2.85757661e+00 9.65776348e+00</_>
    <_>
      6.86186627e-02 7.00000003e-02 1.18562877e+00 -1.56213582e-01
      -3.06563020e-01 9.64395940e-01 9.79962170e-01 1.95214117e+00
      8.26699495e-01 -5.71014118e+00</_>
    <_>
      1.48214310e-01 1.54929578e-01 1.23332620e+00 2.06243470e-01
      4.43188190e-01 3.03686142e+00 3.64823699e+00 7.14457512e+00
      4.40680456e+00 7.13807583e+00</_>
    <_>
      1.14198029e-01 1.11702129e-01 1.04552352e+00 -1.42853722e-01
      -2.79549152e-01 2.30278730e+00 2.34011698e+00 4.66157866e+00
      2.20379591e+00 6.84275675e+00</_>
    <_>
      1.20222889e-01 1.10344827e-01 1.10430968e+00 1.57220047e-02
      4.44418937e-02 2.11116004e+00 2.15416861e+00 4.28683567e+00
      2.17699265e+00 -6.72122049e+00</_>
    <_>
      9.36899334e-02 1.28378376e-01 1.14420164e+00 -4.08603735e-02
      -7.17891455e-02 1.47636569e+00 1.50519061e+00 2.99596906e+00
      1.46944177e+00 -5.91142893e+00</_>
    <_>
      1.19923122e-01 9.09090936e-02 1.06992626e+00 -2.25678040e-03
      7.39601208e-03 2.53978634e+00 2.57553577e+00 5.13319683e+00
      2.57923412e+00 9.16708469e+00</_>
    <_>
      1.07015282e-01 1.14416473e-01 1.10551643e+00 2.47321744e-02
      6.30505979e-02 2.07356977e+00 2.11659551e+00 4.21167994e+00
      2.14840436e+00 -6.81173658e+00</_>
    <_>
      2.78576553e-01 2.27272734e-01 1.07852757e+00 3.98444533e-01
      8.76827061e-01 3.42643476e+00 4.13093328e+00 8.17703533e+00
      5.40677166e+00 7.98455524e+00</_>
    <_>
      8.04303885e-02 1.35922328e-01 1.04754996e+00 -9.42353234e-02
      -1.80747524e-01 2.59413838e+00 2.62663245e+00 5.23702192e+00
      2.53772092e+00 -7.61818027e+00</_>
    <_>
      8.80622938e-02 1.12359554e-01 1.07707870e+00 -3.71994195e-03
      4.22534579e-03 2.40389562e+00 2.44030142e+00 4.86240149e+00
      2.44274354e+00 7.48676348e+00</_>
    <_>
      1.02119982e-01 1.38157889e-01 1.15912676e+00 1.08042680e-01
      2.35317051e-01 2.34127331e+00 2.39196420e+00 4.75858736e+00
      2.51043868e+00 -7.11156750e+00</_>
    <_>
      7.88419545e-02 1.36690646e-01 1.10476553e+00 -3.58430259e-02
      -6.17948771e-02 1.85464954e+00 1.88165486e+00 3.74980688e+00
      1.85075974e+00 -7.34849072e+00</_>
    <_>
      9.41000208e-02 1.42857149e-01 1.06037664e+00 9.92932394e-02
      2.17592940e-01 2.75437999e+00 2.81090736e+00 5.59355450e+00
      2.92010045e+00 -8.00969028e+00</_>
    <_>
      7.26437494e-02 9.09090936e-02 1.23529410e+00 -9.49752480e-02
      -1.82112128e-01 9.89160240e-01 1.00852013e+00 2.00736022e+00
      9.17499840e-01 -5.47203159e+00</_>
    <_>
      1.19923122e-01 9.09090936e-02 1.06992626e+00 -2.25678040e-03
      7.39601208e-03 2.53978634e+00 2.57553577e+00 5.13319683e+00
      2.57923412e+00 9.16708469e+00</_>
    <_>
      1.04418516e-01 1.40845075e-01 1.20799994e+00 1.11634053e-01
      2.42807209e-01 2.80976629e+00 2.85487175e+00 5.68719149e+00
      2.97630143e+00 -8.51566982e+00</_>
    <_>
      6.11893125e-02 6.48648664e-02 1.18605328e+00 -1.72454402e-01
      -3.39672387e-01 1.43045568e+00 1.44327176e+00 2.88013554e+00
      1.27352035e+00 -6.39886093e+00</_>
    <_>
      9.56818163e-02 9.52380970e-02 1.19285047e+00 -2.64360271e-02
      -4.20590751e-02 1.62214768e+00 1.65331471e+00 3.29104590e+00
      1.63228595e+00 -7.44436169e+00</_>
    <_>
      5.46973683e-02 6.08695634e-02 1.11082089e+00 -1.84653267e-01
      -3.64287049e-01 1.50296259e+00 1.51749170e+00 3.02771878e+00
      1.33534932e+00 -7.51164389e+00</_>
    <_>
      7.60664418e-02 1.27272725e-01 1.07302940e+00 -6.41822740e-02
      -1.19613364e-01 2.81486654e+00 2.83998752e+00 5.66741514e+00
      2.78041792e+00 8.53713703e+00</_>
    <_>
      7.98423663e-02 9.28571448e-02 1.07692313e+00 -4.32760455e-02
      -7.69940838e-02 2.24026036e+00 2.26513457e+00 4.51783228e+00
      2.22666645e+00 7.93756485e+00</_>
    <_>
      4.22955118e-02 5.55555560e-02 1.08371294e+00 -3.08036000e-01
      -6.13259017e-01 2.09706020e+00 2.11279178e+00 4.21771860e+00
      1.80810738e+00 -6.90761805e+00</_>
    <_>
      1.78831875e-01 1.33828998e-01 1.14346588e+00 3.25803794e-02
      7.94460177e-02 1.99397933e+00 2.03755689e+00 4.05332470e+00
      2.07728124e+00 7.75404406e+00</_>
    <_>
      1.34546876e-01 1.30541876e-01 1.16426229e+00 1.37325719e-01
      2.96839148e-01 3.23634171e+00 4.10549307e+00 -8.33834362e+00
      -4.51642084e+00 -7.79338264e+00</_>
    <_>
      1.07696183e-01 1.06918238e-01 1.21839440e+00 -3.93110476e-02
      -6.84429631e-02 1.44546378e+00 1.48660338e+00 2.95264983e+00
      1.45664620e+00 5.06596231e+00</_>
    <_>
      4.61227298e-02 5.55555560e-02 1.08987522e+00 -3.11626166e-01
      -6.20479405e-01 1.97257328e+00 1.98458076e+00 3.96315813e+00
      1.67540276e+00 -6.88389635e+00</_>
    <_>
      6.85710907e-02 8.69565234e-02 1.16177773e+00 -9.83517244e-02
      -1.89280555e-01 1.55345273e+00 1.57349515e+00 3.13696957e+00
      1.47927582e+00 -6.02184153e+00</_>
    <_>
      1.17673136e-01 1.11111112e-01 1.05308712e+00 4.65096012e-02
      1.07913859e-01 2.58716679e+00 2.64297676e+00 5.25806856e+00
      2.69962001e+00 -7.27453375e+00</_>
    <_>
      7.07610250e-02 1.15107916e-01 1.13224638e+00 -1.01618186e-01
      -1.95802435e-01 1.22413778e+00 1.24377370e+00 2.47772956e+00
      1.14592886e+00 -5.84343386e+00</_>
    <_>
      2.32661635e-01 2.39436626e-01 1.39076972e+00 3.11048299e-01
      6.77827954e-01 2.04828978e+00 2.20954728e+00 4.33877373e+00
      2.55953670e+00 5.76277399e+00</_>
    <_>
      9.22942534e-02 1.26666665e-01 1.15938020e+00 2.94775907e-02
      7.24313855e-02 1.99266040e+00 2.02883506e+00 4.03958273e+00
      2.06509471e+00 -7.14077520e+00</_>
    <_>
      1.16554528e-01 1.10070258e-01 1.10952377e+00 6.92930520e-02
      1.55150816e-01 3.06235027e+00 3.40612984e+00 6.65844393e+00
      3.62897396e+00 7.18919611e+00</_>
    <_>
      1.46590963e-01 1.88679248e-01 1.13859272e+00 1.11973390e-01
      2.43922234e-01 2.28863716e+00 2.48303556e+00 4.87132788e+00
      2.65931034e+00 -5.84335995e+00</_>
    <_>
      1.37703389e-01 1.61290318e-01 1.11001885e+00 1.62430033e-01
      3.50140095e-01 2.45013690e+00 2.52797461e+00 5.01705170e+00
      2.70468307e+00 -7.02096844e+00</_>
    <_>
      1.20889202e-01 1.45833328e-01 1.25029802e+00 1.23831064e-01
      2.68637687e-01 2.17288256e+00 2.22685933e+00 4.42673016e+00
      2.36121178e+00 -7.67453098e+00</_>
    <_>
      1.07696183e-01 1.06918238e-01 1.21839440e+00 -3.93110476e-02
      -6.84429631e-02 1.44546378e+00 1.48660338e+00 2.95264983e+00
      1.45664620e+00 5.06596231e+00</_>
    <_>
      1.51158437e-01 1.59999996e-01 1.11692846e+00 2.25571886e-01
      4.84322578e-01 3.54721904e+00 3.74853253e+00 7.39832020e+00
      4.02239466e+00 8.42503548e+00</_>
    <_>
      2.64328629e-01 3.15789461e-01 1.19807756e+00 4.64230925e-01
      1.04126942e+00 3.00552797e+00 3.27344680e+00 6.41422224e+00
      3.80204654e+00 7.52698660e+00</_>
    <_>
      2.01559320e-01 2.04081640e-01 1.19255269e+00 2.69597530e-01
      5.82791984e-01 2.40478373e+00 2.52752995e+00 4.99369097e+00
      2.81894279e+00 -7.36308384e+00</_>
    <_>
      7.98423663e-02 9.28571448e-02 1.07692313e+00 -4.32760455e-02
      -7.69940838e-02 2.24026036e+00 2.26513457e+00 4.51783228e+00
      2.22666645e+00 7.93756485e+00</_>
    <_>
      9.42404196e-02 9.56521705e-02 1.25509274e+00 -3.15255038e-02
      -5.26159815e-02 2.11817765e+00 2.42694902e+00 4.71205187e+00
      2.52206755e+00 -5.32498693e+00</_>
    <_>
      7.66089410e-02 1.10429451e-01 1.08238554e+00 -6.03673644e-02
      -1.11745745e-01 2.02540994e+00 2.05501390e+00 4.09522629e+00
      1.99927068e+00 -7.03832150e+00</_>
    <_>
      3.80503207e-01 2.09302321e-01 1.09090912e+00 3.68323624e-01
      8.07579577e-01 3.23362470e+00 3.86444020e+00 7.57731819e+00
      4.82423592e+00 7.55142879e+00</_>
    <_>
      6.43116385e-02 6.62983432e-02 1.21584284e+00 -1.90339267e-01
      -3.75562996e-01 8.79590273e-01 8.94511223e-01 1.78156197e+00
      7.06799567e-01 5.13083220e+00</_>
    <_>
      7.07976967e-02 8.52017924e-02 1.07432020e+00 -7.85169974e-02
      -1.48765773e-01 2.41106105e+00 2.43726254e+00 4.86142445e+00
      2.36298585e+00 7.88156891e+00</_>
    <_>
      4.94304113e-02 6.75241128e-02 1.04956150e+00 -2.08890930e-01
      -4.13304090e-01 2.53569007e+00 2.55316591e+00 5.09759378e+00
      2.34670472e+00 8.19322300e+00</_>
    <_>
      7.98423663e-02 9.28571448e-02 1.07692313e+00 -4.32760455e-02
      -7.69940838e-02 2.24026036e+00 2.26513457e+00 4.51783228e+00
      2.22666645e+00 7.93756485e+00</_>
    <_>
      6.25267923e-02 8.64197537e-02 1.09745336e+00 -1.29977658e-01
      -2.53574461e-01 2.48965025e+00 2.51972318e+00 5.02441406e+00
      2.39506054e+00 7.38682508e+00</_>
    <_>
      4.75423075e-02 8.75912383e-02 1.11201084e+00 -2.46019080e-01
      -4.88362134e-01 1.51054454e+00 1.52413583e+00 3.04147625e+00
      1.28089929e+00 5.97144127e+00</_>
    <_>
      6.83237910e-02 1.10389613e-01 1.13537443e+00 -1.13774270e-01
      -2.20718667e-01 2.35788178e+00 2.38418365e+00 4.75521946e+00
      2.27627993e+00 -7.18251181e+00</_>
    <_>
      1.03542805e-01 1.20253168e-01 1.10930741e+00 4.52661799e-04
      1.25781801e-02 3.54949164e+00 4.43985987e+00 -8.77673721e+00
      -4.61575937e+00 -8.48484993e+00</_>
    <_>
      1.00601569e-01 1.22580647e-01 1.12056434e+00 9.20083448e-02
      2.02203289e-01 2.86315775e+00 2.91559982e+00 5.80498266e+00
      3.01738977e+00 8.16300297e+00</_>
    <_>
      8.55347514e-02 8.37696344e-02 1.05814219e+00 -1.17800087e-01
      -2.28737637e-01 2.22769070e+00 2.25099277e+00 4.49033594e+00
      2.13788295e+00 7.11172247e+00</_>
    <_>
      1.79285079e-01 1.23376623e-01 1.07662237e+00 1.34739682e-01
      2.92058676e-01 2.95097995e+00 3.04837489e+00 6.04819727e+00
      3.20219398e+00 7.63581133e+00</_>
    <_>
      8.80622938e-02 1.12359554e-01 1.07707870e+00 -3.71994195e-03
      4.22534579e-03 2.40389562e+00 2.44030142e+00 4.86240149e+00
      2.44274354e+00 7.48676348e+00</_>
    <_>
      1.19070731e-01 1.77777782e-01 1.09036148e+00 5.90806194e-02
      1.33728072e-01 2.39947081e+00 2.50676513e+00 4.96022081e+00
      2.59331942e+00 6.36425734e+00</_>
    <_>
      1.19923122e-01 9.09090936e-02 1.06992626e+00 -2.25678040e-03
      7.39601208e-03 2.53978634e+00 2.57553577e+00 5.13319683e+00
      2.57923412e+00 9.16708469e+00</_>
    <_>
      1.16323084e-01 8.64197537e-02 1.03110349e+00 -8.43817927e-03
      -5.28980745e-03 3.21640968e+00 3.25459743e+00 6.49010134e+00
      3.25201821e+00 -9.53167534e+00</_>
    <_>
      1.30049869e-01 1.48148149e-01 1.36648250e+00 1.80716380e-01
      3.88219357e-01 2.87867522e+00 2.94798398e+00 5.86132717e+00
      3.14407229e+00 7.96372747e+00</_>
    <_>
      9.55247954e-02 1.08974360e-01 1.11971152e+00 4.35844362e-02
      1.01510055e-01 3.15309048e+00 3.21205091e+00 6.39464951e+00
      3.26658583e+00 8.33756828e+00</_>
    <_>
      4.63198125e-02 9.80392173e-02 1.12710083e+00 -2.68633634e-01
      -5.33912957e-01 1.47375882e+00 1.48439813e+00 2.96347666e+00
      1.21755552e+00 6.41770887e+00</_>
    <_>
      5.12138866e-02 6.20689653e-02 1.07494366e+00 -2.42081836e-01
      -4.80338573e-01 2.42382956e+00 2.44552445e+00 4.88020372e+00
      2.20806289e+00 -7.35819054e+00</_>
    <_>
      1.07696183e-01 1.06918238e-01 1.21839440e+00 -3.93110476e-02
      -6.84429631e-02 1.44546378e+00 1.48660338e+00 2.95264983e+00
      1.45664620e+00 5.06596231e+00</_>
    <_>
      7.26437494e-02 9.09090936e-02 1.23529410e+00 -9.49752480e-02
      -1.82112128e-01 9.89160240e-01 1.00852013e+00 2.00736022e+00
      9.17499840e-01 -5.47203159e+00</_>
    <_>
      5.82454577e-02 1.26373634e-01 1.11052215e+00 -1.28667086e-01
      -2.50863165e-01 1.85638714e+00 1.87989604e+00 3.74803877e+00
      1.75546026e+00 6.37392139e+00</_>
    <_>
      2.03296050e-01 2.81588435e-01 1.08614898e+00 3.38309616e-01
      7.36109912e-01 3.51588035e+00 3.68110681e+00 7.27960205e+00
      4.04916191e+00 -9.87156487e+00</_>
    <_>
      1.26320004e-01 1.43790856e-01 1.11564195e+00 1.22332938e-01
      2.65436441e-01 2.82064724e+00 2.87711334e+00 5.72599697e+00
      3.01030016e+00 8.13032627e+00</_>
    <_>
      7.71890432e-02 8.55263174e-02 1.14895153e+00 -8.66091400e-02
      -1.65530413e-01 2.38311458e+00 2.40419149e+00 4.79784536e+00
      2.32246804e+00 -7.51335049e+00</_>
    <_>
      9.17718932e-02 1.36904761e-01 1.08128476e+00 9.50839445e-02
      2.08681136e-01 2.70645571e+00 2.76153040e+00 5.49552345e+00
      2.86588693e+00 -8.67434216e+00</_>
    <_>
      5.93560189e-02 6.84931502e-02 1.15261126e+00 -1.62886664e-01
      -3.20166290e-01 1.25671101e+00 1.27348554e+00 2.53858376e+00
      1.11347520e+00 -5.89112425e+00</_>
    <_>
      8.28988180e-02 1.36690646e-01 1.07341063e+00 -2.99801468e-03
      5.43106999e-03 2.47483134e+00 2.50827789e+00 4.99983263e+00
      2.51103449e+00 8.08557415e+00</_>
    <_>
      1.04890123e-01 7.63052180e-02 1.06197214e+00 -7.59784728e-02
      -1.43487662e-01 2.51225471e+00 2.54384494e+00 5.07189703e+00
      2.47296953e+00 7.57137394e+00</_>
    <_>
      1.10186674e-01 1.27725855e-01 1.10319448e+00 8.84632617e-02
      1.94533959e-01 2.98179865e+00 3.12897110e+00 6.18536043e+00
      3.26000905e+00 -7.35226583e+00</_>
    <_>
      7.42575675e-02 9.77011472e-02 1.10494363e+00 -1.41043335e-01
      -2.75820911e-01 1.54738426e+00 1.56596148e+00 3.12263441e+00
      1.42806482e+00 6.74833441e+00</_>
    <_>
      3.92392725e-01 3.67346942e-01 1.23636365e+00 5.86199939e-01
      1.38373947e+00 4.68533564e+00 4.98437738e+00 9.82168007e+00
      5.69437933e+00 1.07946501e+01</_>
    <_>
      1.79285079e-01 1.23376623e-01 1.07662237e+00 1.34739682e-01
      2.92058676e-01 2.95097995e+00 3.04837489e+00 6.04819727e+00
      3.20219398e+00 7.63581133e+00</_>
    <_>
      9.72218588e-02 1.05633803e-01 1.07192719e+00 2.71925088e-02
      6.76745251e-02 2.59856009e+00 2.63305330e+00 5.24886036e+00
      2.66696429e+00 8.31319141e+00</_>
    <_>
      1.48591504e-01 1.54838711e-01 1.09842587e+00 2.16096178e-01
      4.64395911e-01 3.27618980e+00 3.43423939e+00 6.79053450e+00
      3.69535637e+00 -7.94158983e+00</_>
    <_>
      6.30970076e-02 6.95187151e-02 1.01637721e+00 -1.22823998e-01
      -2.39036411e-01 2.34036469e+00 2.36337757e+00 4.71524906e+00
      2.24417567e+00 7.61995363e+00</_>
    <_>
      9.41000208e-02 1.42857149e-01 1.06037664e+00 9.92932394e-02
      2.17592940e-01 2.75437999e+00 2.81090736e+00 5.59355450e+00
      2.92010045e+00 -8.00969028e+00</_>
    <_>
      1.03266053e-01 1.12582780e-01 1.10218143e+00 8.86566564e-02
      1.95386738e-01 2.58268070e+00 2.63833237e+00 5.24883938e+00
      2.73614526e+00 -8.02221489e+00</_>
    <_>
      1.37703389e-01 1.61290318e-01 1.11001885e+00 1.62430033e-01
      3.50140095e-01 2.45013690e+00 2.52797461e+00 5.01705170e+00
      2.70468307e+00 -7.02096844e+00</_>
    <_>
      1.12257436e-01 1.19999997e-01 1.10554290e+00 1.29534364e-01
      2.80482829e-01 3.08863163e+00 3.15077972e+00 6.27052355e+00
      3.29621530e+00 8.14620018e+00</_>
    <_>
      1.17390998e-01 1.55844152e-01 1.09682536e+00 1.41068727e-01
      3.04769427e-01 2.92033076e+00 2.98553491e+00 5.93847084e+00
      3.13822031e+00 -8.36054611e+00</_>
    <_>
      9.71031338e-02 1.38576776e-01 1.17214918e+00 8.39928463e-02
      1.85944989e-01 2.00881028e+00 2.09745598e+00 4.15076256e+00
      2.20585442e+00 5.69976473e+00</_>
    <_>
      1.44492537e-01 1.48936167e-01 1.32692313e+00 2.00753137e-01
      4.31309700e-01 2.40901899e+00 2.46842027e+00 4.90714264e+00
      2.68407726e+00 -7.35766649e+00</_>
    <_>
      9.30300951e-02 1.13095239e-01 1.09870720e+00 4.59693931e-02
      1.06448546e-01 3.06638908e+00 3.13057303e+00 6.22910118e+00
      3.18963146e+00 8.06092358e+00</_>
    <_>
      1.82048574e-01 2.52976179e-01 1.23409963e+00 3.37092757e-01
      7.34099567e-01 2.90145707e+00 3.04160643e+00 6.01331425e+00
      3.41244364e+00 7.55845213e+00</_>
    <_>
      9.24388617e-02 1.21212125e-01 1.07692313e+00 3.37851769e-03
      1.88290868e-02 2.33614802e+00 2.37574291e+00 4.73168898e+00
      2.38535929e+00 -7.45836878e+00</_>
    <_>
      5.04416712e-02 5.46448082e-02 1.22558928e+00 -2.61951715e-01
      -5.20439804e-01 9.65767801e-01 9.74014699e-01 1.94390595e+00
      7.13832676e-01 -5.86319208e+00</_>
    <_>
      9.35671851e-02 1.48936167e-01 1.14143300e+00 3.39251831e-02
      8.15414190e-02 2.20387554e+00 2.24164581e+00 4.46440649e+00
      2.28241849e+00 -8.66348743e+00</_>
    <_>
      7.09139407e-02 8.33333358e-02 1.26994681e+00 -9.47642773e-02
      -1.82070285e-01 2.36662912e+00 2.50387192e+00 4.94001675e+00
      2.45143104e+00 -6.13220310e+00</_>
    <_>
      5.89684620e-02 9.30232555e-02 1.04729939e+00 -1.50097564e-01
      -2.94347495e-01 3.13368988e+00 3.14635181e+00 6.28637266e+00
      2.99919105e+00 -1.01163778e+01</_>
    <_>
      1.29443109e-01 1.17788464e-01 1.11618316e+00 3.13902386e-02
      7.68091157e-02 2.08256769e+00 2.12635732e+00 4.23082113e+00
      2.16502786e+00 -6.82388544e+00</_>
    <_>
      1.20889202e-01 1.45833328e-01 1.25029802e+00 1.23831064e-01
      2.68637687e-01 2.17288256e+00 2.22685933e+00 4.42673016e+00
      2.36121178e+00 -7.67453098e+00</_>
    <_>
      9.07995775e-02 1.21212125e-01 1.08376467e+00 1.80312316e-03
      1.55823287e-02 2.33239961e+00 2.37029123e+00 4.72163677e+00
      2.37811542e+00 -7.85127735e+00</_>
    <_>
      1.19070731e-01 1.77777782e-01 1.09036148e+00 5.90806194e-02
      1.33728072e-01 2.39947081e+00 2.50676513e+00 4.96022081e+00
      2.59331942e+00 6.36425734e+00</_>
    <_>
      5.93852326e-02 6.70103058e-02 1.08526754e+00 -1.56999379e-01
      -3.08275104e-01 1.75485837e+00 1.77414572e+00 3.53864813e+00
      1.62057281e+00 6.34913778e+00</_>
    <_>
      9.87741053e-02 5.90909064e-01 9.88505721e-01 3.18861380e-02
      7.70755410e-02 3.38790464e+00 3.49304700e+00 6.93385553e+00
      3.54956985e+00 -8.34107113e+00</_>
    <_>
      4.77920584e-02 1.37931034e-01 1.12721896e+00 -2.44607672e-01
      -4.85462904e-01 3.50751948e+00 3.60605240e+00 7.16315556e+00
      3.38271379e+00 8.58071327e+00</_>
    <_>
      1.78831875e-01 1.33828998e-01 1.14346588e+00 3.25803794e-02
      7.94460177e-02 1.99397933e+00 2.03755689e+00 4.05332470e+00
      2.07728124e+00 7.75404406e+00</_>
    <_>
      8.27252418e-02 9.65517238e-02 1.18850219e+00 -9.13769007e-02
      -1.74920097e-01 1.31911826e+00 1.33949506e+00 2.66880178e+00
      1.25203502e+00 6.77507591e+00</_>
    <_>
      1.66576296e-01 2.67281115e-01 1.03916061e+00 3.19463402e-01
      6.93383336e-01 4.56749487e+00 4.74607611e+00 9.40429115e+00
      5.11855793e+00 1.04943314e+01</_>
    <_>
      1.07696183e-01 1.06918238e-01 1.21839440e+00 -3.93110476e-02
      -6.84429631e-02 1.44546378e+00 1.48660338e+00 2.95264983e+00
      1.45664620e+00 5.06596231e+00</_>
    <_>
      5.04416712e-02 5.46448082e-02 1.22558928e+00 -2.61951715e-01
      -5.20439804e-01 9.65767801e-01 9.74014699e-01 1.94390595e+00
      7.13832676e-01 -5.86319208e+00</_>
    <_>
      9.22942534e-02 1.26666665e-01 1.15938020e+00 2.94775907e-02
      7.24313855e-02 1.99266040e+00 2.02883506e+00 4.03958273e+00
      2.06509471e+00 -7.14077520e+00</_>
    <_>
      6.28526509e-02 1.09677419e-01 1.10363925e+00 -1.62431434e-01
      -3.19366813e-01 1.99640334e+00 2.01415992e+00 4.01944160e+00
      1.85466731e+00 7.12907267e+00</_>
    <_>
      9.07995775e-02 1.21212125e-01 1.08376467e+00 1.80312316e-03
      1.55823287e-02 2.33239961e+00 2.37029123e+00 4.72163677e+00
      2.37811542e+00 -7.85127735e+00</_>
    <_>
      1.33096755e-01 1.09375000e-01 1.05385792e+00 6.58256933e-02
      1.47865057e-01 3.77141190e+00 3.83487177e+00 7.63807392e+00
      3.91576600e+00 9.41501808e+00</_>
    <_>
      7.32317343e-02 1.31386861e-01 1.15745044e+00 -6.86988905e-02
      -1.28923595e-01 1.72522891e+00 1.74851406e+00 3.48538566e+00
      1.68407667e+00 6.96521473e+00</_>
    <_>
      3.92392725e-01 3.67346942e-01 1.23636365e+00 5.86199939e-01
      1.38373947e+00 4.68533564e+00 4.98437738e+00 9.82168007e+00
      5.69437933e+00 1.07946501e+01</_>
    <_>
      9.56818163e-02 9.52380970e-02 1.19285047e+00 -2.64360271e-02
      -4.20590751e-02 1.62214768e+00 1.65331471e+00 3.29104590e+00
      1.63228595e+00 -7.44436169e+00</_>
    <_>
      7.71890432e-02 8.55263174e-02 1.14895153e+00 -8.66091400e-02
      -1.65530413e-01 2.38311458e+00 2.40419149e+00 4.79784536e+00
      2.32246804e+00 -7.51335049e+00</_>
    <_>
      2.15737805e-01 1.96754560e-01 1.21818852e+00 3.08500797e-01
      6.70282781e-01 2.26360321e+00 2.40043139e+00 4.73247433e+00
      2.73615026e+00 6.69573164e+00</_>
    <_>
      6.11893125e-02 6.48648664e-02 1.18605328e+00 -1.72454402e-01
      -3.39672387e-01 1.43045568e+00 1.44327176e+00 2.88013554e+00
      1.27352035e+00 -6.39886093e+00</_>
    <_>
      5.04964553e-02 8.86075944e-02 1.22399616e+00 -2.46174097e-01
      -4.88482326e-01 7.63184965e-01 7.74248481e-01 1.54296517e+00
      5.30007362e-01 6.17948771e+00</_>
    <_>
      8.27252418e-02 9.65517238e-02 1.18850219e+00 -9.13769007e-02
      -1.74920097e-01 1.31911826e+00 1.33949506e+00 2.66880178e+00
      1.25203502e+00 6.77507591e+00</_>
    <_>
      1.16554528e-01 1.10070258e-01 1.10952377e+00 6.92930520e-02
      1.55150816e-01 3.06235027e+00 3.40612984e+00 6.65844393e+00
      3.62897396e+00 7.18919611e+00</_>
    <_>
      3.01532090e-01 3.18181813e-01 1.16948688e+00 4.82710779e-01
      1.08999121e+00 3.46638584e+00 3.76835513e+00 7.38657713e+00
      4.31679535e+00 8.58944035e+00</_>
    <_>
      1.30130947e-01 1.64251208e-01 1.05440688e+00 9.73776206e-02
      2.13600621e-01 4.73567247e+00 5.46246910e+00 1.09903822e+01
      -6.89328527e+00 1.05939817e+01</_>
    <_>
      5.58836125e-02 1.02189779e-01 1.15942025e+00 -1.99978620e-01
      -3.95190209e-01 7.30985701e-01 7.42836118e-01 1.47974694e+00
      5.45274019e-01 -5.18330622e+00</_>
    <_>
      6.83237910e-02 1.10389613e-01 1.13537443e+00 -1.13774270e-01
      -2.20718667e-01 2.35788178e+00 2.38418365e+00 4.75521946e+00
      2.27627993e+00 -7.18251181e+00</_>
    <_>
      1.41297162e-01 1.82432428e-01 1.10830069e+00 2.13954151e-01
      4.59891707e-01 3.85564232e+00 4.12440920e+00 8.12151623e+00
      4.43180084e+00 8.86130428e+00</_>
    <_>
      1.30049869e-01 1.48148149e-01 1.36648250e+00 1.80716380e-01
      3.88219357e-01 2.87867522e+00 2.94798398e+00 5.86132717e+00
      3.14407229e+00 7.96372747e+00</_>
    <_>
      1.96027577e-01 1.98630139e-01 1.16344643e+00 2.46298358e-01
      5.30304134e-01 2.56125855e+00 2.66031981e+00 5.27116013e+00
      2.92810059e+00 7.08417416e+00</_>
    <_>
      7.27793574e-02 8.27586204e-02 1.22672844e+00 -1.03901245e-01
      -2.00170487e-01 1.23025703e+00 1.25217378e+00 2.49338913e+00
      1.15208864e+00 6.94257021e+00</_>
    <_>
      3.00003499e-01 3.16666663e-01 1.16843843e+00 4.81236339e-01
      1.08575678e+00 3.48816442e+00 3.78143430e+00 7.41738558e+00
      4.32977533e+00 8.55442619e+00</_>
    <_>
      5.28266095e-02 8.33333358e-02 1.29012346e+00 -1.53747886e-01
      -3.01717401e-01 1.39684784e+00 1.42094362e+00 2.82984185e+00
      1.27268517e+00 -5.30659723e+00</_>
    <_>
      4.78748828e-02 4.92957756e-02 1.19745219e+00 -2.95029193e-01
      -5.87093353e-01 9.24201727e-01 9.32890713e-01 1.86143696e+00
      6.39876246e-01 -5.10507727e+00</_>
    <_>
      9.03171524e-02 1.21212125e-01 1.13838553e+00 -5.76587990e-02
      -1.06206305e-01 1.67162538e+00 1.69570720e+00 3.37937355e+00
      1.64264965e+00 -6.79124403e+00</_>
    <_>
      5.19905724e-02 8.80503133e-02 1.21489966e+00 -2.45277688e-01
      -4.86644715e-01 7.50327229e-01 7.61829257e-01 1.51790750e+00
      5.18507481e-01 -6.39298582e+00</_>
    <_>
      3.91303003e-02 2.54237279e-02 8.79353225e-01 -7.38948762e-01
      -1.47749746e+00 8.12555850e-03 9.56518296e-03 1.84105542e-02
      -7.29117811e-01 -4.45630026e+00</_>
    <_>
      7.66144469e-02 1.22580647e-01 1.10019398e+00 -8.24441165e-02
      -1.56774834e-01 1.78983009e+00 1.81344581e+00 3.61508393e+00
      1.73524356e+00 -6.59560394e+00</_>
    <_>
      8.55347514e-02 8.37696344e-02 1.05814219e+00 -1.17800087e-01
      -2.28737637e-01 2.22769070e+00 2.25099277e+00 4.49033594e+00
      2.13788295e+00 7.11172247e+00</_>
    <_>
      6.87010810e-02 1.24087594e-01 1.07820010e+00 -8.09433088e-02
      -1.53950185e-01 2.10711861e+00 2.13036466e+00 4.24910641e+00
      2.05349016e+00 7.34747839e+00</_>
    <_>
      2.17273980e-01 9.25925896e-02 1.13230264e+00 -1.42922819e-01
      -2.79501796e-01 1.56564772e+00 1.58616912e+00 3.16207767e+00
      1.44650185e+00 -6.37107611e+00</_>
    <_>
      8.29361230e-02 1.26353785e-01 1.06163979e+00 -8.35337862e-02
      -1.58930928e-01 2.31300354e+00 2.33939672e+00 4.66559649e+00
      2.25993156e+00 9.29336357e+00</_>
    <_>
      7.34912902e-02 8.58895704e-02 1.14798892e+00 -8.56463537e-02
      -1.63523450e-01 2.03706384e+00 2.05606604e+00 4.10263109e+00
      1.97431457e+00 7.94397306e+00</_>
    <_>
      1.48591504e-01 1.54838711e-01 1.09842587e+00 2.16096178e-01
      4.64395911e-01 3.27618980e+00 3.43423939e+00 6.79053450e+00
      3.69535637e+00 -7.94158983e+00</_>
    <_>
      2.66623437e-01 2.92817682e-01 1.16866684e+00 4.66749370e-01
      1.04713917e+00 3.61940122e+00 3.88685489e+00 7.64010954e+00
      4.41068888e+00 9.25720119e+00</_>
    <_>
      1.77671194e-01 2.54980087e-01 1.06817055e+00 3.38346869e-01
      7.35599935e-01 4.70183754e+00 5.66675901e+00 -1.08734312e+01
      -6.04603004e+00 -1.13556566e+01</_>
    <_>
      9.44370702e-02 1.06666669e-01 1.06003428e+00 6.06796481e-02
      1.37104094e-01 2.66335797e+00 2.70807338e+00 5.39378977e+00
      2.77674317e+00 -8.18416309e+00</_>
    <_>
      1.22896761e-01 1.24675326e-01 1.11355281e+00 1.01425469e-01
      2.21993566e-01 2.69776726e+00 2.77262998e+00 5.50789165e+00
      2.88957047e+00 7.27695942e+00</_>
    <_>
      2.26510003e-01 2.31958762e-01 1.30737674e+00 3.19299936e-01
      6.92441463e-01 2.58889437e+00 2.77598333e+00 5.45950270e+00
      3.14846921e+00 6.61056662e+00</_>
    <_>
      1.26320004e-01 1.43790856e-01 1.11564195e+00 1.22332938e-01
      2.65436441e-01 2.82064724e+00 2.87711334e+00 5.72599697e+00
      3.01030016e+00 8.13032627e+00</_>
    <_>
      9.56818163e-02 9.52380970e-02 1.19285047e+00 -2.64360271e-02
      -4.20590751e-02 1.62214768e+00 1.65331471e+00 3.29104590e+00
      1.63228595e+00 -7.44436169e+00</_>
    <_>
      5.89684620e-02 9.30232555e-02 1.04729939e+00 -1.50097564e-01
      -2.94347495e-01 3.13368988e+00 3.14635181e+00 6.28637266e+00
      2.99919105e+00 -1.01163778e+01</_>
    <_>
      7.34912902e-02 8.58895704e-02 1.14798892e+00 -8.56463537e-02
      -1.63523450e-01 2.03706384e+00 2.05606604e+00 4.10263109e+00
      1.97431457e+00 7.94397306e+00</_>
    <_>
      1.12982795e-01 9.37500000e-02 1.06859803e+00 1.85535941e-02
      5.02085611e-02 2.63804531e+00 2.67922473e+00 5.33786201e+00
      2.70481658e+00 7.82271385e+00</_>
    <_>
      9.24388617e-02 1.21212125e-01 1.07692313e+00 3.37851769e-03
      1.88290868e-02 2.33614802e+00 2.37574291e+00 4.73168898e+00
      2.38535929e+00 -7.45836878e+00</_>
    <_>
      4.96069230e-02 5.05617969e-02 1.19796956e+00 -2.92825788e-01
      -5.82637072e-01 9.72145498e-01 9.81026471e-01 1.95761251e+00
      6.90090120e-01 -5.27305269e+00</_>
    <_>
      1.57202423e-01 2.72189349e-01 1.09837019e+00 3.54970574e-01
      7.73174524e-01 3.70909500e+00 3.85777521e+00 7.64130831e+00
      4.24636412e+00 9.31402588e+00</_>
    <_>
      1.03268161e-01 7.63052180e-02 1.06273067e+00 -7.57058039e-02
      -1.42937139e-01 2.50689912e+00 2.53954268e+00 5.06276608e+00
      2.46911287e+00 7.51233101e+00</_>
    <_>
      1.23331532e-01 1.72774866e-01 1.03906560e+00 1.23223722e-01
      2.67528713e-01 3.13141632e+00 3.18382835e+00 6.34145117e+00
      3.31765294e+00 -9.36304760e+00</_>
    <_>
      2.01559320e-01 2.04081640e-01 1.19255269e+00 2.69597530e-01
      5.82791984e-01 2.40478373e+00 2.52752995e+00 4.99369097e+00
      2.81894279e+00 -7.36308384e+00</_>
    <_>
      1.04418516e-01 1.40845075e-01 1.20799994e+00 1.11634053e-01
      2.42807209e-01 2.80976629e+00 2.85487175e+00 5.68719149e+00
      2.97630143e+00 -8.51566982e+00</_>
    <_>
      1.02119982e-01 1.38157889e-01 1.15912676e+00 1.08042680e-01
      2.35317051e-01 2.34127331e+00 2.39196420e+00 4.75858736e+00
      2.51043868e+00 -7.11156750e+00</_>
    <_>
      1.13183178e-01 1.32450327e-01 1.12115896e+00 1.15859710e-01
      2.51914263e-01 2.49923062e+00 2.55315113e+00 5.07934237e+00
      2.67927241e+00 -7.81649494e+00</_>
    <_>
      5.48251122e-02 8.88030902e-02 1.11346781e+00 -1.81700259e-01
      -3.58420491e-01 4.86086941e+00 5.52509832e+00 1.09730883e+01
      6.70619822e+00 -1.07983503e+01</_>
    <_>
      7.66089410e-02 1.10429451e-01 1.08238554e+00 -6.03673644e-02
      -1.11745745e-01 2.02540994e+00 2.05501390e+00 4.09522629e+00
      1.99927068e+00 -7.03832150e+00</_>
    <_>
      9.74359438e-02 8.20189267e-02 1.06122935e+00 -2.50526667e-01
      -4.97270465e-01 2.86315346e+00 3.31338501e+00 6.45116234e+00
      3.31905174e+00 6.74697685e+00</_>
    <_>
      1.25852928e-01 1.20192304e-01 1.10499394e+00 4.01842743e-02
      9.49183330e-02 2.20011163e+00 2.24704266e+00 4.47062302e+00
      2.29507542e+00 -6.87762642e+00</_>
    <_>
      6.43084794e-02 1.00000001e-01 1.18138158e+00 -1.49550736e-01
      -2.93119341e-01 1.23751307e+00 1.25525880e+00 2.50164485e+00
      1.10869968e+00 -7.25415230e+00</_>
    <_>
      1.12982795e-01 9.37500000e-02 1.06859803e+00 1.85535941e-02
      5.02085611e-02 2.63804531e+00 2.67922473e+00 5.33786201e+00
      2.70481658e+00 7.82271385e+00</_>
    <_>
      2.21322656e-01 1.80000007e-01 1.22691703e+00 2.68376976e-01
      5.79267740e-01 2.53991127e+00 2.64646792e+00 5.23965788e+00
      2.93614483e+00 8.27014160e+00</_>
    <_>
      9.56818163e-02 9.52380970e-02 1.19285047e+00 -2.64360271e-02
      -4.20590751e-02 1.62214768e+00 1.65331471e+00 3.29104590e+00
      1.63228595e+00 -7.44436169e+00</_>
    <_>
      1.03266053e-01 1.12582780e-01 1.10218143e+00 8.86566564e-02
      1.95386738e-01 2.58268070e+00 2.63833237e+00 5.24883938e+00
      2.73614526e+00 -8.02221489e+00</_>
    <_>
      9.22942534e-02 1.26666665e-01 1.15938020e+00 2.94775907e-02
      7.24313855e-02 1.99266040e+00 2.02883506e+00 4.03958273e+00
      2.06509471e+00 -7.14077520e+00</_>
    <_>
      4.63198125e-02 9.80392173e-02 1.12710083e+00 -2.68633634e-01
      -5.33912957e-01 1.47375882e+00 1.48439813e+00 2.96347666e+00
      1.21755552e+00 6.41770887e+00</_>
    <_>
      7.66144469e-02 1.22580647e-01 1.10019398e+00 -8.24441165e-02
      -1.56774834e-01 1.78983009e+00 1.81344581e+00 3.61508393e+00
      1.73524356e+00 -6.59560394e+00</_>
    <_>
      7.08924308e-02 5.53191490e-02 1.07421577e+00 -2.22453237e-01
      -4.40636903e-01 1.72043824e+00 1.73677623e+00 3.46538377e+00
      1.51672494e+00 -6.50515413e+00</_>
    <_>
      7.27793574e-02 8.27586204e-02 1.22672844e+00 -1.03901245e-01
      -2.00170487e-01 1.23025703e+00 1.25217378e+00 2.49338913e+00
      1.15208864e+00 6.94257021e+00</_>
    <_>
      7.66089410e-02 1.10429451e-01 1.08238554e+00 -6.03673644e-02
      -1.11745745e-01 2.02540994e+00 2.05501390e+00 4.09522629e+00
      1.99927068e+00 -7.03832150e+00</_>
    <_>
      2.87582278e-01 3.28313261e-01 1.15197706e+00 4.75674808e-01
      1.07026362e+00 3.56206417e+00 3.84890509e+00 7.55514479e+00
      4.38801146e+00 8.78418255e+00</_>
    <_>
      3.01532090e-01 3.18181813e-01 1.16948688e+00 4.82710779e-01
      1.08999121e+00 3.46638584e+00 3.76835513e+00 7.38657713e+00
      4.31679535e+00 8.58944035e+00</_>
    <_>
      8.29361230e-02 1.26353785e-01 1.06163979e+00 -8.35337862e-02
      -1.58930928e-01 2.31300354e+00 2.33939672e+00 4.66559649e+00
      2.25993156e+00 9.29336357e+00</_>
    <_>
      4.78748828e-02 4.92957756e-02 1.19745219e+00 -2.95029193e-01
      -5.87093353e-01 9.24201727e-01 9.32890713e-01 1.86143696e+00
      6.39876246e-01 -5.10507727e+00</_>
    <_>
      3.00003499e-01 3.16666663e-01 1.16843843e+00 4.81236339e-01
      1.08575678e+00 3.48816442e+00 3.78143430e+00 7.41738558e+00
      4.32977533e+00 8.55442619e+00</_>
    <_>
      1.48591504e-01 1.54838711e-01 1.09842587e+00 2.16096178e-01
      4.64395911e-01 3.27618980e+00 3.43423939e+00 6.79053450e+00
      3.69535637e+00 -7.94158983e+00</_>
    <_>
      5.45706935e-02 6.38297871e-02 1.07628477e+00 -2.48704717e-01
      -4.93670464e-01 1.86335051e+00 1.87473619e+00 3.74377966e+00
      1.62792873e+00 7.40322971e+00</_>
    <_>
      1.44492537e-01 1.48936167e-01 1.32692313e+00 2.00753137e-01
      4.31309700e-01 2.40901899e+00 2.46842027e+00 4.90714264e+00
      2.68407726e+00 -7.35766649e+00</_>
    <_>
      1.16924040e-01 1.17381491e-01 1.04500747e+00 7.91475624e-02
      1.75413892e-01 4.77737951e+00 4.78546143e+00 9.56689453e+00
      4.87598467e+00 1.16876516e+01</_>
    <_>
      1.60696328e-01 1.66666672e-01 1.19840217e+00 2.39248365e-01
      5.14304698e-01 3.16494632e+00 3.67640781e+00 7.16776228e+00
      4.23061848e+00 7.37520313e+00</_>
    <_>
      4.22955118e-02 5.55555560e-02 1.08371294e+00 -3.08036000e-01
      -6.13259017e-01 2.09706020e+00 2.11279178e+00 4.21771860e+00
      1.80810738e+00 -6.90761805e+00</_>
    <_>
      1.82048574e-01 2.52976179e-01 1.23409963e+00 3.37092757e-01
      7.34099567e-01 2.90145707e+00 3.04160643e+00 6.01331425e+00
      3.41244364e+00 7.55845213e+00</_>
    <_>
      1.25874355e-01 1.21951222e-01 1.23216081e+00 1.26555888e-02
      3.83740775e-02 1.33587670e+00 1.37085974e+00 2.72423005e+00
      1.39086688e+00 -5.23586130e+00</_>
    <_>
      6.74345568e-02 1.32596686e-01 1.05204546e+00 -9.24815610e-02
      -1.77343637e-01 2.51425600e+00 2.54529333e+00 5.07507420e+00
      2.46042037e+00 -7.34267807e+00</_>
    <_>
      6.64957613e-02 6.89655170e-02 1.09930205e+00 -1.23525627e-01
      -2.40391076e-01 1.80789173e+00 1.82720840e+00 3.64475846e+00
      1.70701408e+00 -8.01720047e+00</_>
    <_>
      4.96510416e-02 5.99078350e-02 1.17868650e+00 -2.32948050e-01
      -4.61819470e-01 9.17819858e-01 9.29586887e-01 1.85329032e+00
      6.98708892e-01 -5.54509640e+00</_>
    <_>
      1.60696328e-01 1.66666672e-01 1.19840217e+00 2.39248365e-01
      5.14304698e-01 3.16494632e+00 3.67640781e+00 7.16776228e+00
      4.23061848e+00 7.37520313e+00</_>
    <_>
      2.13629931e-01 2.55813956e-01 1.09565222e+00 4.37038749e-01
      9.75397944e-01 3.19510436e+00 3.84687948e+00 7.54393721e+00
      4.88997078e+00 -7.49552822e+00</_>
    <_>
      8.47132802e-02 9.86842141e-02 1.12686121e+00 -1.95105299e-02
      -2.82539055e-02 1.89366758e+00 1.92249644e+00 3.83057857e+00
      1.90838575e+00 7.24825525e+00</_>
    <_>
      4.75423075e-02 8.75912383e-02 1.11201084e+00 -2.46019080e-01
      -4.88362134e-01 1.51054454e+00 1.52413583e+00 3.04147625e+00
      1.28089929e+00 5.97144127e+00</_>
    <_>
      8.28988180e-02 1.36690646e-01 1.07341063e+00 -2.99801468e-03
      5.43106999e-03 2.47483134e+00 2.50827789e+00 4.99983263e+00
      2.51103449e+00 8.08557415e+00</_>
    <_>
      1.50746867e-01 1.73076928e-01 1.10292339e+00 1.89768150e-01
      4.08306986e-01 2.72620249e+00 2.82330728e+00 5.59814692e+00
      3.03185129e+00 -7.30241013e+00</_>
    <_>
      1.12257436e-01 1.19999997e-01 1.10554290e+00 1.29534364e-01
      2.80482829e-01 3.08863163e+00 3.15077972e+00 6.27052355e+00
      3.29621530e+00 8.14620018e+00</_>
    <_>
      1.33232385e-01 1.36363640e-01 1.10945487e+00 1.16905734e-01
      2.54174232e-01 2.55163002e+00 2.60705853e+00 5.18640327e+00
      2.73428011e+00 -8.01384258e+00</_>
    <_>
      7.49624074e-02 1.74757287e-01 1.17452002e+00 -1.23779424e-01
      -2.40829661e-01 2.17492390e+00 2.30378389e+00 4.54388237e+00
      2.21790767e+00 -5.77585125e+00</_>
    <_>
      4.78748828e-02 4.92957756e-02 1.19745219e+00 -2.95029193e-01
      -5.87093353e-01 9.24201727e-01 9.32890713e-01 1.86143696e+00
      6.39876246e-01 -5.10507727e+00</_>
    <_>
      8.15844014e-02 1.11111112e-01 1.08329678e+00 -6.50162846e-02
      -1.21302612e-01 2.69313240e+00 2.72645855e+00 5.43626022e+00
      2.66851473e+00 -7.70590544e+00</_>
    <_>
      8.29601437e-02 6.32911399e-02 1.06752825e+00 -1.56703934e-01
      -3.07626575e-01 2.03936481e+00 2.06159449e+00 4.11207485e+00
      1.90816081e+00 -6.94420338e+00</_>
    <_>
      5.28266095e-02 8.33333358e-02 1.29012346e+00 -1.53747886e-01
      -3.01717401e-01 1.39684784e+00 1.42094362e+00 2.82984185e+00
      1.27268517e+00 -5.30659723e+00</_>
    <_>
      6.28526509e-02 1.09677419e-01 1.10363925e+00 -1.62431434e-01
      -3.19366813e-01 1.99640334e+00 2.01415992e+00 4.01944160e+00
      1.85466731e+00 7.12907267e+00</_>
    <_>
      1.07278109e-01 1.27536237e-01 1.09349000e+00 8.14062878e-02
      1.80115670e-01 3.00681782e+00 3.07248712e+00 6.11220074e+00
      3.17185402e+00 -7.88736725e+00</_>
    <_>
      1.77671194e-01 2.54980087e-01 1.06817055e+00 3.38346869e-01
      7.35599935e-01 4.70183754e+00 5.66675901e+00 -1.08734312e+01
      -6.04603004e+00 -1.13556566e+01</_>
    <_>
      1.16554528e-01 1.10070258e-01 1.10952377e+00 6.92930520e-02
      1.55150816e-01 3.06235027e+00 3.40612984e+00 6.65844393e+00
      3.62897396e+00 7.18919611e+00</_>
    <_>
      1.77671194e-01 2.54980087e-01 1.06817055e+00 3.38346869e-01
      7.35599935e-01 4.70183754e+00 5.66675901e+00 -1.08734312e+01
      -6.04603004e+00 -1.13556566e+01</_>
    <_>
      9.42404196e-02 9.56521705e-02 1.25509274e+00 -3.15255038e-02
      -5.26159815e-02 2.11817765e+00 2.42694902e+00 4.71205187e+00
      2.52206755e+00 -5.32498693e+00</_>
    <_>
      4.75423075e-02 8.75912383e-02 1.11201084e+00 -2.46019080e-01
      -4.88362134e-01 1.51054454e+00 1.52413583e+00 3.04147625e+00
      1.28089929e+00 5.97144127e+00</_>
    <_>
      1.04379304e-01 1.18644066e-01 1.15287769e+00 6.95265010e-02
      1.55294493e-01 2.02317333e+00 2.06627798e+00 4.11100578e+00
      2.14425826e+00 6.62441397e+00</_>
    <_>
      2.71122962e-01 3.01948041e-01 1.15933383e+00 4.49197471e-01
      1.00339031e+00 3.44077134e+00 3.73810339e+00 7.33127165e+00
      4.26499224e+00 8.21186447e+00</_>
    <_>
      1.65921584e-01 1.47887319e-01 1.10275304e+00 1.26733333e-01
      2.74962157e-01 2.96270728e+00 3.04233932e+00 6.04495382e+00
      3.18799996e+00 -7.73322725e+00</_>
    <_>
      1.61695719e-01 1.25000000e-01 1.06124318e+00 1.00127347e-01
      2.19432607e-01 3.03010988e+00 3.08846450e+00 6.14775896e+00
      3.19913197e+00 8.38668442e+00</_>
    <_>
      9.88321155e-02 8.29875544e-02 1.03190768e+00 -2.68052276e-02
      -4.29980122e-02 3.03733993e+00 3.07354498e+00 6.12898779e+00
      3.05210733e+00 9.09487534e+00</_>
    <_>
      8.15844014e-02 1.11111112e-01 1.08329678e+00 -6.50162846e-02
      -1.21302612e-01 2.69313240e+00 2.72645855e+00 5.43626022e+00
      2.66851473e+00 -7.70590544e+00</_>
    <_>
      1.60696328e-01 1.66666672e-01 1.19840217e+00 2.39248365e-01
      5.14304698e-01 3.16494632e+00 3.67640781e+00 7.16776228e+00
      4.23061848e+00 7.37520313e+00</_>
    <_>
      1.07378177e-01 1.26666665e-01 1.13856816e+00 9.77375656e-02
      2.14053825e-01 2.42637730e+00 2.48104262e+00 4.93476391e+00
      2.59006667e+00 -7.07726574e+00</_>
    <_>
      7.26437494e-02 9.09090936e-02 1.23529410e+00 -9.49752480e-02
      -1.82112128e-01 9.89160240e-01 1.00852013e+00 2.00736022e+00
      9.17499840e-01 -5.47203159e+00</_>
    <_>
      3.63166898e-01 3.40425521e-01 1.23655915e+00 5.54592669e-01
      1.28595030e+00 4.51180458e+00 4.74902439e+00 9.38037014e+00
      5.39772701e+00 1.05636396e+01</_>
    <_>
      8.27252418e-02 9.65517238e-02 1.18850219e+00 -9.13769007e-02
      -1.74920097e-01 1.31911826e+00 1.33949506e+00 2.66880178e+00
      1.25203502e+00 6.77507591e+00</_>
    <_>
      1.04418516e-01 1.40845075e-01 1.20799994e+00 1.11634053e-01
      2.42807209e-01 2.80976629e+00 2.85487175e+00 5.68719149e+00
      2.97630143e+00 -8.51566982e+00</_>
    <_>
      5.19905724e-02 8.80503133e-02 1.21489966e+00 -2.45277688e-01
      -4.86644715e-01 7.50327229e-01 7.61829257e-01 1.51790750e+00
      5.18507481e-01 -6.39298582e+00</_>
    <_>
      1.22896761e-01 1.24675326e-01 1.11355281e+00 1.01425469e-01
      2.21993566e-01 2.69776726e+00 2.77262998e+00 5.50789165e+00
      2.88957047e+00 7.27695942e+00</_>
    <_>
      1.04674563e-01 1.49068326e-01 1.08033824e+00 1.01016998e-01
      2.21138492e-01 2.56474304e+00 2.61776352e+00 5.20901823e+00
      2.72858882e+00 -7.76942873e+00</_>
    <_>
      1.19070731e-01 1.77777782e-01 1.09036148e+00 5.90806194e-02
      1.33728072e-01 2.39947081e+00 2.50676513e+00 4.96022081e+00
      2.59331942e+00 6.36425734e+00</_>
    <_>
      1.78831875e-01 1.33828998e-01 1.14346588e+00 3.25803794e-02
      7.94460177e-02 1.99397933e+00 2.03755689e+00 4.05332470e+00
      2.07728124e+00 7.75404406e+00</_>
    <_>
      1.78831875e-01 1.33828998e-01 1.14346588e+00 3.25803794e-02
      7.94460177e-02 1.99397933e+00 2.03755689e+00 4.05332470e+00
      2.07728124e+00 7.75404406e+00</_>
    <_>
      2.17273980e-01 9.25925896e-02 1.13230264e+00 -1.42922819e-01
      -2.79501796e-01 1.56564772e+00 1.58616912e+00 3.16207767e+00
      1.44650185e+00 -6.37107611e+00</_>
    <_>
      6.11893125e-02 6.48648664e-02 1.18605328e+00 -1.72454402e-01
      -3.39672387e-01 1.43045568e+00 1.44327176e+00 2.88013554e+00
      1.27352035e+00 -6.39886093e+00</_>
    <_>
      9.49423015e-02 1.44230768e-01 1.04555452e+00 -3.91424038e-02
      -6.83172941e-02 2.86213899e+00 2.90320897e+00 5.78589010e+00
      2.87075710e+00 -8.02958107e+00</_>
    <_>
      1.13183178e-01 1.32450327e-01 1.12115896e+00 1.15859710e-01
      2.51914263e-01 2.49923062e+00 2.55315113e+00 5.07934237e+00
      2.67927241e+00 -7.81649494e+00</_>
    <_>
      8.02702680e-02 9.74025950e-02 1.13174331e+00 -1.71982832e-02
      -2.36106496e-02 2.86285186e+00 2.90830970e+00 5.79390335e+00
      2.89949608e+00 7.90196562e+00</_>
    <_>
      6.55990839e-02 6.41711205e-02 1.10385752e+00 -1.52899042e-01
      -3.00062537e-01 2.84652901e+00 2.85433149e+00 5.70476198e+00
      2.70430994e+00 9.12663651e+00</_>
    <_>
      9.65223610e-02 1.31313130e-01 1.05629075e+00 -9.17849690e-02
      -1.75754175e-01 2.90151429e+00 2.93172288e+00 5.84834290e+00
      2.84442854e+00 -8.44555187e+00</_>
    <_>
      1.26320004e-01 1.43790856e-01 1.11564195e+00 1.22332938e-01
      2.65436441e-01 2.82064724e+00 2.87711334e+00 5.72599697e+00
      3.01030016e+00 8.13032627e+00</_></uncompressed_support_vectors>
  <decision_functions>
    <_>
      <sv_count>1</sv_count>
      <rho>6.0268343848818411e+00</rho>
      <alpha>
        1.</alpha>
      <index>
        0</index></_></decision_functions></opencv_ml_svm>
</opencv_storage>
